{
    "iosize": [
        18,
        9
    ],
    "layers": [
        {
            "_layer_num": 0,
            "activation": "tanh",
            "bias": [
                -0.3349618911743164,
                0.184867262840271,
                0.37455493211746216,
                1.0396575927734375,
                -0.16278420388698578,
                -0.4091103672981262,
                0.4407706558704376,
                -1.8106881380081177,
                0.49403855204582214,
                0.5292604565620422,
                0.3994259834289551,
                -0.3269270658493042,
                0.2754170000553131,
                0.01608361303806305,
                2.129206657409668,
                -0.1603056639432907,
                -0.15624575316905975,
                0.07856883853673935,
                -0.10636331886053085,
                0.49157479405403137,
                0.4653173089027405,
                -0.001798328012228012,
                0.05811673030257225,
                -0.573651134967804,
                -0.35868123173713684,
                0.9352124333381653,
                -0.12176766991615295,
                0.5824098587036133,
                -0.09232574701309204,
                -0.46522676944732666,
                -0.6993171572685242,
                0.2406015843153,
                -0.05839657783508301,
                -0.1009102612733841,
                -0.060013964772224426,
                -0.36930277943611145,
                1.6240533590316772,
                0.24256710708141327,
                -0.006827204022556543,
                -0.14779996871948242,
                -0.30658748745918274,
                -0.7366432547569275,
                -0.2671126425266266,
                0.33124637603759766,
                0.7012254595756531,
                -0.08366366475820541,
                0.2626633644104004,
                -0.05236566811800003,
                -0.05229173228144646,
                0.301021933555603,
                -0.36300989985466003,
                -0.3116028606891632,
                0.031871307641267776,
                1.9839496612548828,
                0.29292118549346924,
                0.19460763037204742,
                0.5149533748626709,
                0.2278895080089569,
                0.46228814125061035,
                0.13390779495239258,
                0.4502001702785492,
                0.47664621472358704,
                0.011188890784978867,
                0.03853472322225571,
                0.5233007073402405,
                -0.0022482252679765224,
                -0.43766990303993225,
                1.1427767276763916,
                -0.01840972900390625,
                0.11511237174272537,
                0.18020083010196686,
                0.563971757888794
            ],
            "size": [
                18,
                72
            ],
            "weights": [
                [
                    0.05950358882546425,
                    0.5366432666778564,
                    -0.343788743019104,
                    -0.14392811059951782,
                    -0.3403114676475525,
                    0.009247797541320324,
                    0.34769341349601746,
                    0.05600494518876076,
                    -0.2189156860113144,
                    0.0278870090842247,
                    -0.05474436283111572,
                    -0.1338730901479721,
                    -0.10489417612552643,
                    -0.056249190121889114,
                    -0.03969746083021164,
                    0.14991623163223267,
                    -0.35330086946487427,
                    0.3653740882873535,
                    -0.05354507267475128,
                    0.28230762481689453,
                    -0.23323002457618713,
                    -0.1986217349767685,
                    0.11284778267145157,
                    -0.04082784801721573,
                    0.11448204517364502,
                    -0.27001550793647766,
                    0.04444408416748047,
                    -0.10122081637382507,
                    -0.09736526012420654,
                    0.08877013623714447,
                    -0.0017998554976657033,
                    0.38768380880355835,
                    -1.0130929946899414,
                    0.987686812877655,
                    -0.14498500525951385,
                    -0.40928682684898376,
                    0.032353464514017105,
                    -0.24150341749191284,
                    0.2407197654247284,
                    0.20917129516601562,
                    0.09619566053152084,
                    0.0747620239853859,
                    -0.3857424259185791,
                    -0.1318080723285675,
                    -0.17074552178382874,
                    0.2700047791004181,
                    -0.5096709132194519,
                    -0.21268123388290405,
                    -0.2412138134241104,
                    0.21599295735359192,
                    0.08701622486114502,
                    0.13875512778759003,
                    0.21386925876140594,
                    -0.06095268204808235,
                    -0.5307461023330688,
                    -0.40797552466392517,
                    -0.22173486649990082,
                    -0.8835532069206238,
                    0.21188871562480927,
                    0.3474437892436981,
                    -0.19392187893390656,
                    -0.7390579581260681,
                    0.6030546426773071,
                    -0.2363598495721817,
                    -0.13752661645412445,
                    -0.21591906249523163,
                    0.09524399042129517,
                    0.08534178137779236,
                    0.29266494512557983,
                    -0.4984837472438812,
                    -0.6109505295753479,
                    -0.0913168340921402
                ],
                [
                    0.00015295491903088987,
                    0.08955885469913483,
                    -0.024018555879592896,
                    -0.06127777695655823,
                    -0.3881615996360779,
                    0.07848168909549713,
                    0.030156143009662628,
                    0.04229223355650902,
                    -0.17435763776302338,
                    -0.29429692029953003,
                    -0.0727023109793663,
                    0.820368766784668,
                    -0.26869016885757446,
                    -0.08995628356933594,
                    -0.023669201880693436,
                    -0.014841202646493912,
                    -0.07553510367870331,
                    0.1853754073381424,
                    -0.12054901570081711,
                    -0.37039726972579956,
                    -0.2548876404762268,
                    0.3265824317932129,
                    0.4814659059047699,
                    0.19505560398101807,
                    0.5400873422622681,
                    0.14681652188301086,
                    0.6369484066963196,
                    -0.25276419520378113,
                    0.807593047618866,
                    0.3475337028503418,
                    0.2573077976703644,
                    0.25071996450424194,
                    0.20110322535037994,
                    -0.1400151401758194,
                    0.4720908999443054,
                    0.35666584968566895,
                    -0.08966566622257233,
                    -0.20345385372638702,
                    -0.8083402514457703,
                    -0.323280394077301,
                    -0.0543755367398262,
                    0.28534796833992004,
                    0.11863221973180771,
                    -0.38325637578964233,
                    -0.0917084589600563,
                    0.17471395432949066,
                    -0.19889290630817413,
                    0.23203226923942566,
                    0.24050509929656982,
                    -0.36229023337364197,
                    -0.01136945653706789,
                    -0.07396571338176727,
                    -0.06147231534123421,
                    -0.020915212109684944,
                    0.23487994074821472,
                    0.5599626302719116,
                    -0.1254723221063614,
                    -0.12191713601350784,
                    0.5627549290657043,
                    0.024730639532208443,
                    -0.21219153702259064,
                    0.1196286603808403,
                    -0.4411088824272156,
                    0.09456328302621841,
                    0.8284390568733215,
                    -0.05240662395954132,
                    0.3062998354434967,
                    -0.3008255362510681,
                    -0.3681586980819702,
                    -0.210395947098732,
                    -0.16117988526821136,
                    -0.26220276951789856
                ],
                [
                    0.33934807777404785,
                    -0.2540302574634552,
                    -0.2593820095062256,
                    -0.177343487739563,
                    0.05455559864640236,
                    0.41866421699523926,
                    -0.3704744875431061,
                    0.06266119331121445,
                    -0.0907348021864891,
                    -0.11741511523723602,
                    -0.17865817248821259,
                    0.03835967928171158,
                    -0.25642070174217224,
                    -0.17461936175823212,
                    0.013032957911491394,
                    -0.05995214730501175,
                    0.27487272024154663,
                    -0.2710346281528473,
                    -0.3504444360733032,
                    -0.407022088766098,
                    -0.0784384235739708,
                    -0.1703503578901291,
                    -0.8504115343093872,
                    0.07770495861768723,
                    -0.35991477966308594,
                    0.02649741806089878,
                    0.1712910383939743,
                    -0.05950365215539932,
                    -0.29808351397514343,
                    0.14030246436595917,
                    0.04132437705993652,
                    0.5484448075294495,
                    0.36087799072265625,
                    -0.28456684947013855,
                    -0.2068120688199997,
                    0.23035846650600433,
                    -0.06484083831310272,
                    -0.0596272274851799,
                    0.43593522906303406,
                    0.7616475224494934,
                    0.34375616908073425,
                    0.2635229229927063,
                    -0.01889692433178425,
                    -0.2083306759595871,
                    -0.1337507665157318,
                    -0.2771320044994354,
                    -0.11956977844238281,
                    0.050565313547849655,
                    0.30544963479042053,
                    -0.46148881316185,
                    0.4039170742034912,
                    0.1876971423625946,
                    -0.7178625464439392,
                    -0.09166660159826279,
                    0.2870997190475464,
                    -0.49390140175819397,
                    -0.21890679001808167,
                    -0.3786630928516388,
                    0.19735126197338104,
                    -0.08134330064058304,
                    -0.14336152374744415,
                    0.5242201685905457,
                    -0.5548163056373596,
                    -0.639496922492981,
                    -0.37632739543914795,
                    0.5072178840637207,
                    0.10430402308702469,
                    -0.215480238199234,
                    0.4867238402366638,
                    0.21378780901432037,
                    -0.14953619241714478,
                    -0.02391030266880989
                ],
                [
                    0.30295443534851074,
                    -0.662870466709137,
                    0.016320135444402695,
                    -0.025288352742791176,
                    -0.1752205193042755,
                    0.1828448325395584,
                    0.2733544409275055,
                    0.03538651391863823,
                    -0.12396471947431564,
                    -0.2681826055049896,
                    -0.08339612185955048,
                    -0.1310180127620697,
                    0.28355246782302856,
                    -0.15156282484531403,
                    -0.006807737983763218,
                    -0.10253641754388809,
                    -0.2738257348537445,
                    0.3922690153121948,
                    1.1620980501174927,
                    0.6405933499336243,
                    0.09330040216445923,
                    0.28504112362861633,
                    0.2986556589603424,
                    0.4027722179889679,
                    -0.3116001784801483,
                    -0.131942018866539,
                    -0.029008841142058372,
                    -0.08972886949777603,
                    -0.29599374532699585,
                    0.016108626499772072,
                    0.04899202287197113,
                    -0.5111863613128662,
                    0.19034871459007263,
                    -0.02455245889723301,
                    -0.032048143446445465,
                    0.02921864576637745,
                    -0.09091362357139587,
                    -0.05625972896814346,
                    0.3097216486930847,
                    0.024656131863594055,
                    -0.12464749068021774,
                    0.08717656880617142,
                    0.4959450960159302,
                    -0.16442781686782837,
                    -0.23195312917232513,
                    -0.4857383072376251,
                    -0.25557148456573486,
                    0.5183054804801941,
                    0.2679547667503357,
                    -0.39292269945144653,
                    0.13184566795825958,
                    0.029135964810848236,
                    0.11059090495109558,
                    -0.06618588417768478,
                    -0.13311916589736938,
                    0.7789013385772705,
                    -0.021223481744527817,
                    0.35477906465530396,
                    0.11659305542707443,
                    0.1007307767868042,
                    -0.0021773481275886297,
                    -0.22218982875347137,
                    0.5346243381500244,
                    -0.7126140594482422,
                    -0.46692904829978943,
                    -0.11473263055086136,
                    0.006387398578226566,
                    -0.0005641923635266721,
                    0.21283423900604248,
                    -0.4108327329158783,
                    -0.017016038298606873,
                    -0.09144848585128784
                ],
                [
                    -0.08175759762525558,
                    0.19467750191688538,
                    -0.3191596567630768,
                    -0.0875639021396637,
                    -0.433648943901062,
                    0.1579989343881607,
                    -0.10002902895212173,
                    0.017377087846398354,
                    0.07695968449115753,
                    0.1358201950788498,
                    -0.0847708061337471,
                    -0.40913549065589905,
                    -0.44670116901397705,
                    -0.5685900449752808,
                    -0.009729025885462761,
                    0.10377901792526245,
                    0.5854740142822266,
                    -0.2052658498287201,
                    0.5093422532081604,
                    -0.2003726214170456,
                    0.027797287330031395,
                    -0.2252696454524994,
                    -0.14599041640758514,
                    0.4406603276729584,
                    -0.13735757768154144,
                    0.012325705960392952,
                    -0.9709553718566895,
                    0.06795190274715424,
                    -0.022124120965600014,
                    0.13438837230205536,
                    -0.0053369211964309216,
                    -0.7132566571235657,
                    -1.02334463596344,
                    -0.1916092485189438,
                    0.3031806945800781,
                    0.3540070652961731,
                    0.0425705760717392,
                    0.11871691793203354,
                    0.05787881091237068,
                    -0.2595265507698059,
                    0.058587756007909775,
                    0.030793186277151108,
                    0.3484055697917938,
                    0.1267167329788208,
                    -0.018646884709596634,
                    -0.1714242547750473,
                    0.3682010769844055,
                    0.2067309319972992,
                    -0.8384584188461304,
                    -6.757253140676767e-05,
                    -0.1318289190530777,
                    0.0445832684636116,
                    0.239585742354393,
                    -0.028668804094195366,
                    -0.10596486181020737,
                    0.020896119996905327,
                    0.10870479047298431,
                    -0.04463283345103264,
                    -0.8942313194274902,
                    0.27017027139663696,
                    -0.3480580449104309,
                    0.3357079029083252,
                    -0.5197162628173828,
                    -0.12954743206501007,
                    0.7001538872718811,
                    0.059605441987514496,
                    0.04297427088022232,
                    0.110471211373806,
                    -0.98419588804245,
                    -0.3083694577217102,
                    0.017117775976657867,
                    -0.269681841135025
                ],
                [
                    0.030901793390512466,
                    -0.40678635239601135,
                    0.3016635775566101,
                    -0.01017080619931221,
                    0.35244524478912354,
                    0.28245797753334045,
                    0.2309633493423462,
                    0.027503760531544685,
                    -0.2755163609981537,
                    -0.10964012891054153,
                    -0.1644570678472519,
                    -0.4072825014591217,
                    0.5343776941299438,
                    -0.3130531907081604,
                    -0.07334757596254349,
                    -0.39811235666275024,
                    -0.5593817234039307,
                    -0.3527664542198181,
                    -0.46728432178497314,
                    -0.09007751941680908,
                    -0.4107469916343689,
                    0.09172230213880539,
                    0.2029438465833664,
                    -0.09102704375982285,
                    -0.13655473291873932,
                    -0.04952463135123253,
                    0.3617207705974579,
                    -0.12800927460193634,
                    0.12540975213050842,
                    -0.0341305173933506,
                    0.2456216663122177,
                    -0.751649022102356,
                    0.23925265669822693,
                    -0.054425355046987534,
                    -0.0701180249452591,
                    0.05765259638428688,
                    -0.08592549711465836,
                    -0.1886506974697113,
                    -0.9170486330986023,
                    -0.25348547101020813,
                    0.5378847122192383,
                    0.11451917141675949,
                    -0.2265653908252716,
                    0.11431386321783066,
                    -0.2799117863178253,
                    0.36052873730659485,
                    0.20484033226966858,
                    0.09128043055534363,
                    0.012659426778554916,
                    0.8758754134178162,
                    0.15380479395389557,
                    0.2595374584197998,
                    0.4397481679916382,
                    -0.011401449330151081,
                    -0.04565220698714256,
                    0.005070740357041359,
                    -0.1309550553560257,
                    -0.3035333752632141,
                    -0.7527904510498047,
                    -0.05986211821436882,
                    -0.4157905876636505,
                    -0.07473025470972061,
                    -0.2570418119430542,
                    0.42401471734046936,
                    -0.33309730887413025,
                    0.7845427989959717,
                    0.12153301388025284,
                    -0.04221539571881294,
                    0.4921746850013733,
                    -0.04605890065431595,
                    0.20424611866474152,
                    -0.20285549759864807
                ],
                [
                    -0.0873284861445427,
                    0.3477637767791748,
                    -0.1743173599243164,
                    -0.09453973919153214,
                    0.42079803347587585,
                    -0.005134927108883858,
                    -0.20318731665611267,
                    0.014602978713810444,
                    0.07505788654088974,
                    -0.2124435305595398,
                    -0.13240401446819305,
                    0.8123877048492432,
                    -0.2797352373600006,
                    0.5547128915786743,
                    0.020220939069986343,
                    0.07946562021970749,
                    -0.26695749163627625,
                    0.5251601934432983,
                    -0.28460633754730225,
                    0.4307418763637543,
                    0.033770401030778885,
                    -0.5589658617973328,
                    0.1667545735836029,
                    0.13567569851875305,
                    -0.3248751759529114,
                    -0.10224713385105133,
                    -0.42848828434944153,
                    -0.1537410020828247,
                    0.15805694460868835,
                    0.18376494944095612,
                    0.1919277310371399,
                    -0.22879236936569214,
                    0.4038926661014557,
                    0.2963033616542816,
                    0.0005858161021023989,
                    0.09232614934444427,
                    -0.08971332013607025,
                    0.050296884030103683,
                    -0.03756245970726013,
                    -0.4454791247844696,
                    0.227693110704422,
                    -0.06850384920835495,
                    0.3072177469730377,
                    0.09373704344034195,
                    -0.0825643539428711,
                    -0.1363452672958374,
                    -0.011638603173196316,
                    -1.166110634803772,
                    0.2852802276611328,
                    -0.0336296446621418,
                    0.16825151443481445,
                    -0.02781442366540432,
                    0.05270827189087868,
                    -0.03412191569805145,
                    -0.44416990876197815,
                    0.11183443665504456,
                    -0.15972398221492767,
                    0.4932325482368469,
                    -0.04626966640353203,
                    -0.0532003752887249,
                    -0.15114669501781464,
                    0.6483332514762878,
                    0.512789249420166,
                    0.31325218081474304,
                    -0.4960063695907593,
                    -0.4598948359489441,
                    -0.042356595396995544,
                    -0.23410022258758545,
                    -0.08238331973552704,
                    -0.19749310612678528,
                    -0.01268823817372322,
                    -0.04425801709294319
                ],
                [
                    0.25389325618743896,
                    0.1177481934428215,
                    0.2784897983074188,
                    -0.1303507685661316,
                    0.6968605518341064,
                    0.2402234822511673,
                    0.11393661797046661,
                    -0.01997736282646656,
                    -0.1248214840888977,
                    -0.24310219287872314,
                    -0.2001333385705948,
                    -0.19604270160198212,
                    0.000683486694470048,
                    0.7121375799179077,
                    -0.025349024683237076,
                    0.6201730966567993,
                    -0.265103280544281,
                    -0.5332562923431396,
                    -0.024571377784013748,
                    -0.30621659755706787,
                    0.011570895090699196,
                    -0.08468449860811234,
                    0.502566397190094,
                    0.13298824429512024,
                    -0.08944334834814072,
                    -0.09933838248252869,
                    0.010658743791282177,
                    -0.25678837299346924,
                    -0.5685679316520691,
                    0.282607764005661,
                    0.13869483768939972,
                    -0.011171859689056873,
                    0.12662532925605774,
                    -0.07293935120105743,
                    0.018831295892596245,
                    0.14832739531993866,
                    -0.07148833572864532,
                    -0.049552127718925476,
                    0.21172644197940826,
                    -0.21457207202911377,
                    -0.25913894176483154,
                    0.20224855840206146,
                    0.1421191692352295,
                    -0.1541157066822052,
                    0.01811797358095646,
                    0.17665061354637146,
                    0.2622661590576172,
                    0.29541030526161194,
                    0.08406458795070648,
                    -0.24181242287158966,
                    0.17082256078720093,
                    0.255033940076828,
                    -0.5591527819633484,
                    -0.05552317947149277,
                    0.15443940460681915,
                    -0.4758642613887787,
                    -0.29404473304748535,
                    0.42274484038352966,
                    0.1134529709815979,
                    0.03978857025504112,
                    -0.18999852240085602,
                    -0.684700608253479,
                    0.4622143805027008,
                    0.4865097999572754,
                    0.8791419863700867,
                    -0.10486556589603424,
                    0.09000687301158905,
                    -0.21711838245391846,
                    -0.4759688675403595,
                    -0.020255733281373978,
                    0.15187476575374603,
                    -0.03572803735733032
                ],
                [
                    0.2216382622718811,
                    -0.4344966411590576,
                    -0.43103262782096863,
                    -0.1583842635154724,
                    -0.3429071009159088,
                    -0.004065457731485367,
                    0.5193153619766235,
                    0.00014011975144967437,
                    -0.26690393686294556,
                    0.14599525928497314,
                    0.005609355866909027,
                    -0.06107718497514725,
                    -0.15308794379234314,
                    0.580216646194458,
                    0.030173595994710922,
                    -0.3642072379589081,
                    0.7632533311843872,
                    0.00949701014906168,
                    0.009479046799242496,
                    -0.13295528292655945,
                    -0.38455235958099365,
                    0.49889516830444336,
                    -0.2685087025165558,
                    0.09746692329645157,
                    1.0088937282562256,
                    -0.159578338265419,
                    0.046778518706560135,
                    -0.06784740835428238,
                    0.16768202185630798,
                    0.02691609226167202,
                    -0.012716831639409065,
                    0.24482324719429016,
                    0.654515266418457,
                    -0.26769107580184937,
                    -0.4112958610057831,
                    0.02832857146859169,
                    0.042583905160427094,
                    0.05914923548698425,
                    0.43704140186309814,
                    -0.36151984333992004,
                    -0.44823455810546875,
                    0.12774352729320526,
                    -0.42603984475135803,
                    -0.14269153773784637,
                    0.047393664717674255,
                    -0.052900224924087524,
                    -0.039813339710235596,
                    -0.07785829156637192,
                    -0.5965114235877991,
                    0.2037981152534485,
                    -0.04587332904338837,
                    -0.05912424996495247,
                    0.5984816551208496,
                    -0.018093664199113846,
                    -0.38185566663742065,
                    -0.21675264835357666,
                    -0.3451434373855591,
                    0.44794151186943054,
                    0.022922979667782784,
                    -0.5067160129547119,
                    0.08670710772275925,
                    -0.21565929055213928,
                    0.0024515786208212376,
                    0.3475340008735657,
                    -0.3541845381259918,
                    -0.5628976225852966,
                    0.044084884226322174,
                    -0.17566712200641632,
                    0.3551740050315857,
                    0.852855920791626,
                    0.2895902097225189,
                    -0.16594792902469635
                ],
                [
                    -0.07557442039251328,
                    0.5733317732810974,
                    -0.4745387136936188,
                    0.029501967132091522,
                    -0.20600591599941254,
                    0.17285887897014618,
                    0.5704599618911743,
                    0.02162015251815319,
                    -0.23453132808208466,
                    0.0021947412751615047,
                    -0.31942760944366455,
                    -0.2153473198413849,
                    0.019496163353323936,
                    0.5709027051925659,
                    -0.03101612627506256,
                    -0.2167254239320755,
                    0.05742688104510307,
                    0.24206741154193878,
                    -0.2426327019929886,
                    0.11725488305091858,
                    -0.39340120553970337,
                    -0.27468496561050415,
                    0.15498743951320648,
                    -0.48620039224624634,
                    0.2285267412662506,
                    0.18549557030200958,
                    0.3267762064933777,
                    -0.12002962827682495,
                    -0.10684191435575485,
                    -0.1314091980457306,
                    0.02810685895383358,
                    0.2664230167865753,
                    -0.5487171411514282,
                    0.7527357339859009,
                    -0.2858874499797821,
                    -0.2604772448539734,
                    -0.03169739991426468,
                    0.04265149310231209,
                    -0.012620513327419758,
                    0.2797519862651825,
                    -0.06103567034006119,
                    0.10456205159425735,
                    -0.18286468088626862,
                    -0.12720106542110443,
                    -0.05447112023830414,
                    0.11334597319364548,
                    -0.32491573691368103,
                    -0.027695083990693092,
                    -0.29687273502349854,
                    0.03167412430047989,
                    0.13141386210918427,
                    0.2542169690132141,
                    0.029885098338127136,
                    0.007436416577547789,
                    -0.37563836574554443,
                    -0.2403697520494461,
                    0.0023645672481507063,
                    -0.6179091930389404,
                    0.1291152685880661,
                    0.8228591680526733,
                    -0.0685955360531807,
                    -0.5105746984481812,
                    0.12337768822908401,
                    -0.20529119670391083,
                    -0.011592885479331017,
                    -0.061347488313913345,
                    -0.04608650505542755,
                    -0.13949544727802277,
                    0.36017104983329773,
                    -0.7770092487335205,
                    -0.42617133259773254,
                    -0.14800049364566803
                ],
                [
                    0.03917531296610832,
                    -0.2704952359199524,
                    -0.30055809020996094,
                    -0.151188462972641,
                    -0.397769570350647,
                    -0.06595076620578766,
                    -0.08886387199163437,
                    0.05988740175962448,
                    -0.08673559129238129,
                    -0.09108598530292511,
                    -0.2277148813009262,
                    0.5717582106590271,
                    -0.18165302276611328,
                    -0.10218928754329681,
                    -0.017463617026805878,
                    0.2882997691631317,
                    -0.27826714515686035,
                    0.024472584947943687,
                    -0.19078762829303741,
                    -0.14385026693344116,
                    -0.27871522307395935,
                    0.24755167961120605,
                    0.7401902675628662,
                    0.14351266622543335,
                    0.2968016266822815,
                    -0.2767776548862457,
                    0.3577379286289215,
                    -0.1363895833492279,
                    0.9294255971908569,
                    0.12620538473129272,
                    0.11603190749883652,
                    0.2161310315132141,
                    0.33504343032836914,
                    -0.10957642644643784,
                    0.8392432928085327,
                    0.29751598834991455,
                    -0.017932916060090065,
                    -0.18203292787075043,
                    -0.4799570143222809,
                    0.23956754803657532,
                    0.009157638065516949,
                    0.2525482475757599,
                    0.01009079348295927,
                    -0.2619147300720215,
                    -0.11232007294893265,
                    0.22603897750377655,
                    -0.18408511579036713,
                    0.43625763058662415,
                    -0.0741768628358841,
                    -0.4099682569503784,
                    0.16484329104423523,
                    0.005156552419066429,
                    0.2324822098016739,
                    -0.012073281221091747,
                    0.42844000458717346,
                    0.5604398250579834,
                    -0.31305909156799316,
                    -0.25914984941482544,
                    0.4744674563407898,
                    -0.35302215814590454,
                    -0.02998603880405426,
                    0.39562246203422546,
                    -0.48094019293785095,
                    0.30925682187080383,
                    0.4702914357185364,
                    -0.3752501606941223,
                    0.15011794865131378,
                    0.03106926940381527,
                    -0.24037867784500122,
                    -0.3259141743183136,
                    -0.33541956543922424,
                    -0.03481418639421463
                ],
                [
                    0.35186079144477844,
                    -0.04108978807926178,
                    -0.7114590406417847,
                    -0.21543192863464355,
                    0.07982446253299713,
                    0.2513199746608734,
                    -0.5462611317634583,
                    0.06810656189918518,
                    -0.3497314751148224,
                    -0.47428759932518005,
                    -0.3842765986919403,
                    0.08410640805959702,
                    -0.08248811960220337,
                    -0.36721256375312805,
                    -0.06419296562671661,
                    -0.18320120871067047,
                    0.3450411558151245,
                    -0.05559158697724342,
                    -0.08084584027528763,
                    0.011005893349647522,
                    -0.20017439126968384,
                    -0.12433765083551407,
                    -0.6877580881118774,
                    0.22169575095176697,
                    -0.56112140417099,
                    -0.2680359184741974,
                    -0.08105828613042831,
                    -0.2565796375274658,
                    -0.1683385670185089,
                    0.23029574751853943,
                    0.31209811568260193,
                    0.4580935835838318,
                    0.2875264883041382,
                    -0.27307605743408203,
                    -0.2197691798210144,
                    0.5492869019508362,
                    -0.051885269582271576,
                    -0.4761539399623871,
                    0.6399932503700256,
                    0.42809104919433594,
                    0.11791615188121796,
                    0.07805812358856201,
                    -0.028570253401994705,
                    -0.059705231338739395,
                    -0.2794017791748047,
                    0.19525964558124542,
                    -0.35413798689842224,
                    0.08335311710834503,
                    0.40176922082901,
                    -0.26417139172554016,
                    0.3412834107875824,
                    0.29822540283203125,
                    -0.38336849212646484,
                    -0.07779425382614136,
                    0.47450995445251465,
                    -0.6438634991645813,
                    0.06326612830162048,
                    -0.2908744215965271,
                    0.29654303193092346,
                    -0.20277756452560425,
                    -0.289224773645401,
                    0.3400484025478363,
                    -0.14090372622013092,
                    -0.45868635177612305,
                    -0.27985480427742004,
                    0.37584230303764343,
                    0.3804567754268646,
                    -0.20994269847869873,
                    0.24249067902565002,
                    0.22608399391174316,
                    -0.3186653256416321,
                    -0.3185703158378601
                ],
                [
                    0.25608327984809875,
                    -0.6017454266548157,
                    0.3284003734588623,
                    -0.020968779921531677,
                    -0.350544273853302,
                    0.0709608942270279,
                    0.5045046210289001,
                    0.0491006039083004,
                    -0.017836010083556175,
                    -0.22849974036216736,
                    -0.011600838974118233,
                    -0.10989373177289963,
                    0.17729982733726501,
                    -0.11236501485109329,
                    -0.0043155718594789505,
                    -0.15159901976585388,
                    -0.17551787197589874,
                    0.30098387598991394,
                    0.993504524230957,
                    0.23216603696346283,
                    -0.08906391263008118,
                    0.18081268668174744,
                    0.21820960938930511,
                    0.3877028226852417,
                    -0.024835433810949326,
                    -0.08014585822820663,
                    0.16093525290489197,
                    -0.0503707230091095,
                    -0.2504549026489258,
                    0.2483413964509964,
                    0.11495724320411682,
                    -0.43262121081352234,
                    0.23008330166339874,
                    0.16337423026561737,
                    -0.2849540114402771,
                    -0.3020658791065216,
                    -0.030573610216379166,
                    -0.08703456819057465,
                    0.15452197194099426,
                    0.13526882231235504,
                    -0.15558785200119019,
                    0.09986474364995956,
                    0.8155378103256226,
                    -0.12934757769107819,
                    -0.1401754915714264,
                    -0.5835156440734863,
                    -0.19489777088165283,
                    0.19036231935024261,
                    0.37050843238830566,
                    -0.005811033770442009,
                    -0.090500608086586,
                    -0.08844691514968872,
                    -0.30491504073143005,
                    0.012065070681273937,
                    -0.1779722422361374,
                    0.5626252889633179,
                    -0.27157163619995117,
                    0.6988407373428345,
                    -0.22619812190532684,
                    0.11375599354505539,
                    0.07895190268754959,
                    -0.21086706221103668,
                    0.23539026081562042,
                    -0.9011290669441223,
                    -0.16681760549545288,
                    0.07808805257081985,
                    -0.018792923539876938,
                    -0.14062431454658508,
                    0.1729125678539276,
                    -0.2966105341911316,
                    -0.44494086503982544,
                    -0.04185709357261658
                ],
                [
                    0.2557655870914459,
                    -0.028101973235607147,
                    -0.3477841913700104,
                    -0.059972260147333145,
                    -0.4890889823436737,
                    0.1232040748000145,
                    -0.3788709044456482,
                    0.002042653737589717,
                    -0.1835355907678604,
                    -0.011284144595265388,
                    0.14937186241149902,
                    -0.314913272857666,
                    -0.1156996414065361,
                    -0.3677995502948761,
                    -0.03748604655265808,
                    -0.18981488049030304,
                    0.256234347820282,
                    -0.05108874663710594,
                    0.04172699525952339,
                    -0.09141324460506439,
                    0.17652857303619385,
                    -0.3719783425331116,
                    -0.19527284801006317,
                    0.5182413458824158,
                    0.00548100471496582,
                    -0.006279431749135256,
                    -0.9841265082359314,
                    -0.08382926881313324,
                    0.06033650413155556,
                    0.3031140863895416,
                    0.06940844655036926,
                    -0.5138998627662659,
                    -0.27937018871307373,
                    -0.2430044561624527,
                    -0.10935094952583313,
                    0.011129962280392647,
                    -0.026430461555719376,
                    -0.14827653765678406,
                    0.10560686141252518,
                    -0.6593865752220154,
                    0.12827475368976593,
                    0.12096366286277771,
                    -0.08229941129684448,
                    -0.11443555355072021,
                    -0.04336915537714958,
                    0.10790912061929703,
                    0.3502533733844757,
                    0.3079526126384735,
                    -0.533664345741272,
                    -0.3273809254169464,
                    -0.10319560021162033,
                    -0.1389499455690384,
                    0.026851410046219826,
                    -0.019134296104311943,
                    -0.18299600481987,
                    0.07554212212562561,
                    -0.37956613302230835,
                    -0.15720976889133453,
                    -0.7283299565315247,
                    0.7875216007232666,
                    -0.17176324129104614,
                    0.24655447900295258,
                    -0.435055673122406,
                    -0.03938869759440422,
                    0.3835810124874115,
                    -0.2807632088661194,
                    -0.019565772265195847,
                    -0.057465773075819016,
                    -0.8396825790405273,
                    -0.4282727539539337,
                    0.33013638854026794,
                    0.028144342824816704
                ],
                [
                    0.2843249440193176,
                    -0.012077526189386845,
                    0.4051952362060547,
                    -0.06365711241960526,
                    0.416716605424881,
                    0.11517740041017532,
                    0.17574220895767212,
                    0.07721969485282898,
                    -0.15587690472602844,
                    -0.23468583822250366,
                    -0.17091406881809235,
                    0.03057807683944702,
                    0.457500696182251,
                    -0.3726780414581299,
                    0.01953880302608013,
                    -0.34174180030822754,
                    -0.42279282212257385,
                    -0.024175602942705154,
                    0.15751899778842926,
                    0.11409892141819,
                    -0.1648687720298767,
                    0.22816647589206696,
                    0.05485815182328224,
                    0.2587525248527527,
                    -0.05364871770143509,
                    -0.09583869576454163,
                    0.0070934779942035675,
                    -0.13878406584262848,
                    0.2635549306869507,
                    0.2547273635864258,
                    0.057731494307518005,
                    -0.4643811285495758,
                    0.09369327127933502,
                    0.2716410458087921,
                    -0.06989137828350067,
                    0.24076461791992188,
                    -0.08771573752164841,
                    0.06034417450428009,
                    -0.7130435705184937,
                    -0.15677207708358765,
                    1.0121420621871948,
                    0.15818144381046295,
                    0.21761740744113922,
                    0.04446679353713989,
                    -0.041894860565662384,
                    0.23941974341869354,
                    0.29369300603866577,
                    0.04239591956138611,
                    -0.224064439535141,
                    1.094672441482544,
                    0.058769624680280685,
                    0.2716539204120636,
                    0.35113921761512756,
                    -0.010989042930305004,
                    0.24854661524295807,
                    -0.262123167514801,
                    -0.3970808684825897,
                    -0.26124894618988037,
                    -0.5073639750480652,
                    -0.2472885251045227,
                    -0.134471595287323,
                    -0.24859143793582916,
                    0.060280609875917435,
                    0.4028932452201843,
                    -0.21295292675495148,
                    0.5764563679695129,
                    0.21845635771751404,
                    -0.20786118507385254,
                    0.4493888318538666,
                    0.27977606654167175,
                    0.22682081162929535,
                    -0.0024803089909255505
                ],
                [
                    -0.04787898808717728,
                    0.3427385687828064,
                    0.007030538283288479,
                    -0.10290272533893585,
                    0.3451528549194336,
                    0.12812559306621552,
                    -0.48019614815711975,
                    0.01979195885360241,
                    -0.0723222866654396,
                    0.035024818032979965,
                    0.038432881236076355,
                    0.3551482558250427,
                    -0.4373123049736023,
                    0.36263009905815125,
                    -0.028800955042243004,
                    0.060338541865348816,
                    -0.18928271532058716,
                    0.1476958692073822,
                    -0.24869024753570557,
                    -0.00886531826108694,
                    -0.319686621427536,
                    -0.31809961795806885,
                    -0.18830333650112152,
                    0.12066896259784698,
                    -0.12466458231210709,
                    0.046012233942747116,
                    -0.08402539789676666,
                    -0.008552994579076767,
                    0.02527344599366188,
                    -0.1107657328248024,
                    0.11390990763902664,
                    -0.6791565418243408,
                    0.2586851119995117,
                    0.24328869581222534,
                    -0.00628036679700017,
                    0.24855035543441772,
                    -0.052708882838487625,
                    0.028274793177843094,
                    -0.26009026169776917,
                    -0.6749764680862427,
                    -0.2012729048728943,
                    0.2744922339916229,
                    0.20483124256134033,
                    0.08224693685770035,
                    -0.06287145614624023,
                    -0.388994425535202,
                    -0.551744282245636,
                    -1.303659439086914,
                    0.43977272510528564,
                    -0.1435961127281189,
                    0.2810094952583313,
                    0.10107631981372833,
                    -0.029335152357816696,
                    -0.053549233824014664,
                    -0.748212456703186,
                    0.19062143564224243,
                    0.01825663447380066,
                    0.31642720103263855,
                    -0.07187886536121368,
                    -0.17672672867774963,
                    -0.19276535511016846,
                    0.44577550888061523,
                    0.2910296320915222,
                    0.1553405225276947,
                    -0.34167420864105225,
                    -0.28530237078666687,
                    0.08797672390937805,
                    -0.08354733139276505,
                    -0.22341465950012207,
                    -0.0969022735953331,
                    -0.17595306038856506,
                    -0.08695518970489502
                ],
                [
                    -0.05483440309762955,
                    -0.49828052520751953,
                    0.33577635884284973,
                    -0.0008051878539845347,
                    0.5425991415977478,
                    0.061115678399801254,
                    0.12195787578821182,
                    -0.012558180838823318,
                    -0.06665392965078354,
                    -0.03112468495965004,
                    -0.00346744479611516,
                    -0.39645758271217346,
                    -0.25785452127456665,
                    0.49878835678100586,
                    -0.012541418895125389,
                    0.9507997035980225,
                    -0.481082946062088,
                    -0.8951243162155151,
                    -0.051058147102594376,
                    -0.30168625712394714,
                    -0.027314575389027596,
                    -0.09967165440320969,
                    0.6178146004676819,
                    0.31298020482063293,
                    -0.19192251563072205,
                    0.0824229046702385,
                    0.05963766947388649,
                    -0.10148860514163971,
                    -0.5932005047798157,
                    0.2068774551153183,
                    -0.060970958322286606,
                    0.08349377661943436,
                    0.027306511998176575,
                    0.02550935186445713,
                    0.4607848525047302,
                    0.12581592798233032,
                    0.00397088099271059,
                    -0.13821999728679657,
                    0.1179436519742012,
                    -0.17401787638664246,
                    -0.043996166437864304,
                    0.07499437779188156,
                    -0.18675555288791656,
                    -0.333264023065567,
                    -0.0488392636179924,
                    0.007566090207546949,
                    0.271685391664505,
                    0.18002143502235413,
                    -0.0428638681769371,
                    -0.32784518599510193,
                    0.12711501121520996,
                    0.06626831740140915,
                    -0.32379716634750366,
                    -0.009946719743311405,
                    0.11239378899335861,
                    -0.3636646866798401,
                    -0.2753618061542511,
                    0.16471582651138306,
                    0.22330878674983978,
                    -0.0869448333978653,
                    -0.3224533796310425,
                    -0.47458624839782715,
                    0.47011542320251465,
                    0.1985265612602234,
                    0.39696377515792847,
                    -0.22032605111598969,
                    -0.033685971051454544,
                    -0.10841647535562515,
                    -0.42770951986312866,
                    0.21130509674549103,
                    0.2555112838745117,
                    -0.2797934412956238
                ],
                [
                    0.17498983442783356,
                    -0.038229845464229584,
                    -0.4021289348602295,
                    -0.0802539736032486,
                    -0.08489875495433807,
                    0.2079581320285797,
                    0.8995832800865173,
                    0.04048686847090721,
                    -0.22910915315151215,
                    -0.0714666098356247,
                    -0.11214559525251389,
                    0.17926263809204102,
                    -0.31559398770332336,
                    0.42083290219306946,
                    -0.013986684381961823,
                    -0.17686006426811218,
                    0.6885727047920227,
                    0.34297484159469604,
                    0.24337491393089294,
                    -0.05684651434421539,
                    0.12274563312530518,
                    0.4170595705509186,
                    -0.34574106335639954,
                    -0.14349329471588135,
                    0.7566168904304504,
                    -0.2031664252281189,
                    0.10130336135625839,
                    -0.017514407634735107,
                    0.05379411205649376,
                    0.1684531271457672,
                    0.027036333456635475,
                    0.4833323359489441,
                    -0.2963661551475525,
                    -0.6278460621833801,
                    -0.32998329401016235,
                    -0.07993993908166885,
                    -0.0210649985820055,
                    0.2717946469783783,
                    0.1427805870771408,
                    -0.23591819405555725,
                    -0.16782665252685547,
                    0.1963542252779007,
                    -0.2544722259044647,
                    -0.08780258148908615,
                    -0.17477577924728394,
                    -0.11776208877563477,
                    0.3084067702293396,
                    0.0731595978140831,
                    -0.29402709007263184,
                    0.032190509140491486,
                    0.041463106870651245,
                    -0.07864107191562653,
                    0.680927574634552,
                    -0.0558558888733387,
                    -0.5637884736061096,
                    -0.04594322666525841,
                    0.08539247512817383,
                    0.35423851013183594,
                    0.17553377151489258,
                    -0.6037946939468384,
                    -0.4111747145652771,
                    -0.2864224910736084,
                    0.22637686133384705,
                    0.28050073981285095,
                    -0.14089345932006836,
                    -0.09915445744991302,
                    0.1511693000793457,
                    0.12158142775297165,
                    0.36817166209220886,
                    0.5433146953582764,
                    0.7499276399612427,
                    -0.1872807741165161
                ]
            ]
        },
        {
            "_layer_num": 1,
            "activation": "tanh",
            "bias": [
                -0.4821208715438843,
                -0.4493582248687744,
                0.4741787612438202,
                0.025181379169225693,
                -0.15814214944839478,
                0.32031622529029846,
                -1.1511640548706055,
                0.7540169358253479,
                0.7063512802124023,
                0.6586050987243652,
                -1.1065897941589355,
                -1.0096290111541748,
                0.803960382938385,
                1.51212739944458,
                0.6582968831062317,
                0.455873966217041,
                0.7183749079704285,
                0.3240905702114105,
                1.9134228229522705,
                0.5479452013969421,
                -0.4834214150905609,
                -0.671562671661377,
                -0.835847795009613,
                -0.4809960424900055,
                -0.9871729612350464,
                -0.3177106976509094,
                1.0488734245300293,
                -0.7644439935684204,
                0.8656083345413208,
                1.447266697883606,
                -1.4880611896514893,
                -0.06356129795312881,
                0.8447172045707703,
                -1.0208007097244263,
                -1.0171560049057007,
                -0.49093320965766907,
                -0.43629634380340576,
                0.08270057290792465,
                -0.3582230806350708,
                1.2302565574645996,
                0.07011189311742783,
                0.4833730161190033,
                0.43200236558914185,
                0.282938152551651,
                0.05945415049791336,
                -0.7025724649429321,
                -0.8674445152282715,
                1.335937261581421,
                0.8654853105545044,
                0.5311429500579834,
                -1.6618824005126953,
                0.016191797330975533,
                -0.7012724280357361,
                -0.06333070248365402,
                0.41232994198799133,
                0.6523246765136719,
                0.728262186050415,
                0.8868194222450256,
                0.7163392901420593,
                -0.3280557692050934,
                -1.272702932357788,
                -1.8459739685058594,
                0.583216667175293,
                -0.19559967517852783,
                0.007876995950937271,
                -2.435457229614258,
                -0.8537847995758057,
                0.4006865322589874,
                0.46831440925598145,
                0.33980241417884827,
                0.2640798091888428,
                -0.24530665576457977
            ],
            "size": [
                72,
                72
            ],
            "weights": [
                [
                    -0.0024175175931304693,
                    -0.03362363576889038,
                    0.16437450051307678,
                    0.034690048545598984,
                    0.13498905301094055,
                    0.10113895684480667,
                    0.04233844578266144,
                    -0.015502437949180603,
                    -0.029463591054081917,
                    -0.04116068407893181,
                    0.023302698507905006,
                    -0.008407886140048504,
                    0.06772810965776443,
                    0.0007960620569065213,
                    -0.08596290647983551,
                    0.02958562597632408,
                    -0.11597564071416855,
                    -0.19973649084568024,
                    -0.03051888756453991,
                    -0.009732818230986595,
                    0.019672028720378876,
                    -0.14366990327835083,
                    0.008502167649567127,
                    -0.020069463178515434,
                    0.08231419324874878,
                    0.009140473790466785,
                    -0.02949589118361473,
                    -0.048621442168951035,
                    0.136766716837883,
                    -0.14352792501449585,
                    -0.06005309522151947,
                    -0.010312476195394993,
                    -0.07174846529960632,
                    -0.00535369710996747,
                    0.017478497698903084,
                    -0.111735038459301,
                    0.005292072892189026,
                    -0.21350358426570892,
                    -0.02386566810309887,
                    -0.01761302538216114,
                    0.07028854638338089,
                    0.048916902393102646,
                    0.06521186232566833,
                    0.10705534368753433,
                    -0.09010038524866104,
                    -0.10783212631940842,
                    -0.09447333216667175,
                    0.0640304759144783,
                    -0.02619078755378723,
                    -0.07782363891601562,
                    0.02136998437345028,
                    0.15547172725200653,
                    0.0637580156326294,
                    0.09857597202062607,
                    -0.0014257762813940644,
                    0.08640477061271667,
                    0.18619422614574432,
                    0.00755895022302866,
                    0.007289879024028778,
                    0.040018465369939804,
                    -0.038114674389362335,
                    0.0892573893070221,
                    -0.06348934024572372,
                    0.044156402349472046,
                    -0.08968166261911392,
                    0.013889114372432232,
                    -0.07793233543634415,
                    -0.06685288995504379,
                    0.02753213234245777,
                    0.06546792387962341,
                    0.04476211592555046,
                    0.08432184159755707
                ],
                [
                    0.07861921191215515,
                    -0.06487367302179337,
                    -0.26524588465690613,
                    0.06267572194337845,
                    -0.2766968011856079,
                    -0.02279692329466343,
                    0.09506551921367645,
                    0.1489192396402359,
                    -0.01250307448208332,
                    0.22213025391101837,
                    0.06696043908596039,
                    -0.05089719220995903,
                    -0.1721033751964569,
                    0.12283206731081009,
                    0.06367837637662888,
                    -0.24124887585639954,
                    -0.06852219253778458,
                    0.3808414041996002,
                    -0.11537395417690277,
                    0.13985833525657654,
                    -0.05380631238222122,
                    -0.060768380761146545,
                    0.03015226498246193,
                    0.20555800199508667,
                    -0.17156952619552612,
                    -0.03852871060371399,
                    -0.16856743395328522,
                    0.037242647260427475,
                    0.08005992323160172,
                    0.08125877380371094,
                    0.08276452869176865,
                    0.03430362790822983,
                    -0.08458393812179565,
                    0.15761259198188782,
                    0.24060165882110596,
                    0.26563510298728943,
                    0.17961308360099792,
                    0.2723676860332489,
                    0.08631081879138947,
                    0.0766403079032898,
                    -0.06862275302410126,
                    0.04176172986626625,
                    -0.29830342531204224,
                    -0.15832610428333282,
                    -0.057729851454496384,
                    -0.23272643983364105,
                    0.24856655299663544,
                    0.03455234691500664,
                    -0.014736038632690907,
                    0.21054044365882874,
                    0.016441773623228073,
                    -0.2605275511741638,
                    -0.23787668347358704,
                    0.047450706362724304,
                    0.08154665678739548,
                    -0.32326629757881165,
                    -0.06582111120223999,
                    -0.1190459355711937,
                    0.21563564240932465,
                    0.10528194904327393,
                    -0.07154928147792816,
                    0.029356662184000015,
                    0.00034541511558927596,
                    -0.15022744238376617,
                    0.09538739919662476,
                    0.05991184338927269,
                    0.20697326958179474,
                    0.11974290013313293,
                    -0.12147898972034454,
                    0.06123374029994011,
                    0.11985082179307938,
                    -0.1704932302236557
                ],
                [
                    0.004891143646091223,
                    -0.07682697474956512,
                    0.010367692448198795,
                    -0.005863308906555176,
                    0.028950536623597145,
                    -0.32554328441619873,
                    -0.1367778182029724,
                    0.18934518098831177,
                    0.23626191914081573,
                    -0.19729237258434296,
                    -0.14978237450122833,
                    -0.07097557932138443,
                    -0.08819995075464249,
                    -0.19884099066257477,
                    0.15486690402030945,
                    0.2251308709383011,
                    -0.15974651277065277,
                    -0.09817488491535187,
                    0.11378943920135498,
                    -0.04546671360731125,
                    -0.01899086683988571,
                    0.2605597674846649,
                    -0.19523192942142487,
                    -0.16802577674388885,
                    0.09221602976322174,
                    0.1577886939048767,
                    -0.1595185101032257,
                    0.1401858776807785,
                    -0.12649430334568024,
                    -0.05722448229789734,
                    -0.062114983797073364,
                    -0.1621532291173935,
                    0.03265354409813881,
                    -0.05228807032108307,
                    -0.1180650070309639,
                    0.15076017379760742,
                    -0.0672178789973259,
                    -0.11682253330945969,
                    -0.17527180910110474,
                    0.12951470911502838,
                    0.09086770564317703,
                    -0.1130872443318367,
                    -0.14232154190540314,
                    0.13122490048408508,
                    0.19833369553089142,
                    0.34423932433128357,
                    -0.10818206518888474,
                    -0.016607016324996948,
                    -0.10293325781822205,
                    -0.19242827594280243,
                    0.06321563571691513,
                    0.07954273372888565,
                    0.06542642414569855,
                    0.0021391683258116245,
                    0.12649008631706238,
                    0.04769076406955719,
                    -0.06751516461372375,
                    0.3778949975967407,
                    -0.18847191333770752,
                    -0.3032171428203583,
                    0.1192794218659401,
                    -0.01640472002327442,
                    -0.2620185911655426,
                    -0.017953654751181602,
                    0.1386575549840927,
                    -0.03083643689751625,
                    -0.15355826914310455,
                    0.17298553884029388,
                    0.06655227392911911,
                    -0.10227049887180328,
                    -0.06657929718494415,
                    0.17159275710582733
                ],
                [
                    0.0670190304517746,
                    -0.01713106408715248,
                    -0.006768903229385614,
                    0.014710554853081703,
                    -0.023551413789391518,
                    -0.10891251266002655,
                    0.06092976778745651,
                    -0.046877406537532806,
                    -0.02763235569000244,
                    -0.12363293021917343,
                    0.1005207747220993,
                    0.06918789446353912,
                    -0.13295161724090576,
                    -0.1668258011341095,
                    -0.009759767912328243,
                    0.027204429730772972,
                    -0.10964815318584442,
                    0.039471473544836044,
                    -0.09375941753387451,
                    -0.06910749524831772,
                    0.013338630087673664,
                    0.15409718453884125,
                    0.16548234224319458,
                    -0.055620402097702026,
                    0.031018733978271484,
                    0.00877629779279232,
                    -0.10388336330652237,
                    0.07431864738464355,
                    -0.12661941349506378,
                    -0.1783229559659958,
                    0.18131881952285767,
                    -0.0056132422760128975,
                    -0.09618330746889114,
                    0.08791860938072205,
                    0.1289808601140976,
                    0.04763120040297508,
                    0.03941824659705162,
                    0.09769093990325928,
                    0.018883900716900826,
                    -0.15307685732841492,
                    0.07158516347408295,
                    -0.06361206620931625,
                    -0.09472477436065674,
                    -0.015007926151156425,
                    0.11902450025081635,
                    0.048051103949546814,
                    0.0427367240190506,
                    -0.13836513459682465,
                    -0.09404125809669495,
                    -0.1209866926074028,
                    0.16118347644805908,
                    -0.07325562834739685,
                    0.058029692620038986,
                    -0.009024734608829021,
                    -0.03764170780777931,
                    -0.06408879160881042,
                    -0.049888331443071365,
                    0.016546044498682022,
                    -0.06130393221974373,
                    -0.09252937138080597,
                    0.23995225131511688,
                    0.15104344487190247,
                    -0.11369366198778152,
                    -0.029807573184370995,
                    0.004693217575550079,
                    0.06540787220001221,
                    0.09800835698843002,
                    0.028188670054078102,
                    -0.037292927503585815,
                    0.0388103686273098,
                    -0.03594757616519928,
                    -0.03041650541126728
                ],
                [
                    0.02470753714442253,
                    0.05653053894639015,
                    -0.20372545719146729,
                    -0.033889155834913254,
                    -0.15968742966651917,
                    -0.09220380336046219,
                    -0.22318288683891296,
                    -0.007334223948419094,
                    0.23396039009094238,
                    -0.05115934833884239,
                    -0.07498014718294144,
                    -0.24847286939620972,
                    0.11694714426994324,
                    0.04377792030572891,
                    0.16245660185813904,
                    0.23526936769485474,
                    -0.15570564568042755,
                    0.054365724325180054,
                    0.0029154065996408463,
                    -0.09780027717351913,
                    0.0958879142999649,
                    0.11639565229415894,
                    -0.4332832992076874,
                    -0.10849437117576599,
                    0.2693411111831665,
                    -0.10970747470855713,
                    -0.21477441489696503,
                    0.16383042931556702,
                    0.21668142080307007,
                    0.1331518292427063,
                    -0.1813841015100479,
                    -0.2701331079006195,
                    0.16393838822841644,
                    -0.07111244648694992,
                    -0.10484492033720016,
                    0.3162832260131836,
                    -0.026767928153276443,
                    0.27962881326675415,
                    -0.0015832837671041489,
                    0.20441630482673645,
                    0.17760607600212097,
                    -0.05014132335782051,
                    -0.2496718317270279,
                    0.15810687839984894,
                    0.06978003680706024,
                    -0.0244742501527071,
                    0.000893114716745913,
                    0.20507696270942688,
                    0.008894484490156174,
                    -0.11857131868600845,
                    -0.049459684640169144,
                    0.15382705628871918,
                    -0.3741588294506073,
                    -0.0002763303928077221,
                    0.1716860681772232,
                    0.0533459298312664,
                    0.03961852192878723,
                    0.2792893648147583,
                    -0.24946017563343048,
                    0.17154644429683685,
                    -0.20144639909267426,
                    -0.11350002884864807,
                    -0.2574303150177002,
                    -0.04585591331124306,
                    0.006842844188213348,
                    -0.034263648092746735,
                    -0.18558239936828613,
                    0.15671861171722412,
                    -0.008306027390062809,
                    0.18570907413959503,
                    0.2583620846271515,
                    0.024059563875198364
                ],
                [
                    0.00911425705999136,
                    -0.0009383246069774032,
                    -0.05657991021871567,
                    0.007987123914062977,
                    0.03564678132534027,
                    0.19761614501476288,
                    -0.018907401710748672,
                    -0.13592974841594696,
                    -0.05179896950721741,
                    -0.013264348730444908,
                    0.16459879279136658,
                    -0.07001849263906479,
                    0.09319551289081573,
                    0.01718294247984886,
                    -0.09803769737482071,
                    0.07815126329660416,
                    -0.04973345622420311,
                    -0.06631916016340256,
                    -0.11435273289680481,
                    -0.0053442055359482765,
                    0.18189045786857605,
                    -0.00828078854829073,
                    -0.1693694144487381,
                    0.08115966618061066,
                    0.08623252809047699,
                    -0.06874021887779236,
                    -0.01428420189768076,
                    -0.0042060911655426025,
                    0.1548147052526474,
                    -0.06283793598413467,
                    -0.005412670783698559,
                    -0.02293924055993557,
                    0.05659792572259903,
                    0.025569872930645943,
                    -0.011505728587508202,
                    -0.005685748998075724,
                    -0.09205275774002075,
                    -0.01874096505343914,
                    -0.0476033054292202,
                    0.07225465029478073,
                    0.03828918933868408,
                    0.022349433973431587,
                    0.05026324838399887,
                    -0.04750160872936249,
                    -0.020327508449554443,
                    -0.1141243502497673,
                    0.01830582693219185,
                    0.08528941124677658,
                    -0.04284994304180145,
                    -0.03882240876555443,
                    -0.012291176244616508,
                    0.1019735187292099,
                    -0.04332731291651726,
                    -0.07428795844316483,
                    -0.012998593971133232,
                    0.06908407062292099,
                    0.10014719516038895,
                    -0.07584638893604279,
                    -0.028202427551150322,
                    0.014552353881299496,
                    -0.14710289239883423,
                    0.10543422400951385,
                    0.03211343288421631,
                    -0.000703700992744416,
                    -0.0033166941720992327,
                    0.04036056995391846,
                    -0.05204213783144951,
                    -0.0465950183570385,
                    0.015805305913090706,
                    0.027873313054442406,
                    -0.020901251584291458,
                    0.056376371532678604
                ],
                [
                    -0.012887832708656788,
                    0.0690927505493164,
                    0.06160622090101242,
                    0.2225581705570221,
                    0.2732424736022949,
                    -0.23064620792865753,
                    0.007859626784920692,
                    -0.30688878893852234,
                    -0.23091311752796173,
                    -0.25116056203842163,
                    0.3496396243572235,
                    0.10149458050727844,
                    0.14860551059246063,
                    -0.06549397855997086,
                    -0.21000489592552185,
                    -0.07246121764183044,
                    -0.15040460228919983,
                    -0.1629488319158554,
                    -0.09885438531637192,
                    0.12965354323387146,
                    0.1693924218416214,
                    -0.09585695713758469,
                    -0.05577150359749794,
                    0.21307659149169922,
                    0.23135161399841309,
                    0.22607596218585968,
                    -0.11443683505058289,
                    0.05565747246146202,
                    -0.3359113037586212,
                    8.318554318975657e-05,
                    0.11044313758611679,
                    0.12625165283679962,
                    -0.29943177103996277,
                    0.049043208360672,
                    0.054692596197128296,
                    0.2926383316516876,
                    0.26267576217651367,
                    -0.024686550721526146,
                    0.1637549102306366,
                    -0.0773623064160347,
                    0.13532203435897827,
                    -0.2069636732339859,
                    0.05056263506412506,
                    0.29065707325935364,
                    0.30714958906173706,
                    0.32031920552253723,
                    -0.05842471122741699,
                    -0.25404706597328186,
                    -0.2355564832687378,
                    -0.17330770194530487,
                    0.07894916087388992,
                    -0.14642484486103058,
                    0.001012809807434678,
                    0.014023534022271633,
                    0.028277233242988586,
                    -0.05467785522341728,
                    -0.19119927287101746,
                    -0.0662350282073021,
                    -0.03498833626508713,
                    -0.37151578068733215,
                    -0.014722023159265518,
                    0.20120874047279358,
                    0.039164330810308456,
                    -0.00959151890128851,
                    -0.10479427874088287,
                    -0.011971643194556236,
                    0.068565234541893,
                    -0.27303510904312134,
                    0.16833938658237457,
                    -0.23196907341480255,
                    -0.015363010577857494,
                    -0.0018763085827231407
                ],
                [
                    0.0011462562251836061,
                    -0.052461739629507065,
                    0.015309416688978672,
                    0.05138575658202171,
                    0.09409347176551819,
                    0.031027263030409813,
                    -0.061940256506204605,
                    0.06097596511244774,
                    0.057470813393592834,
                    0.08852358907461166,
                    -0.155109703540802,
                    -0.02265956625342369,
                    0.10729866474866867,
                    0.15117593109607697,
                    -0.043458182364702225,
                    0.08840637654066086,
                    0.04844257980585098,
                    -0.07259471714496613,
                    0.10218910872936249,
                    0.059346094727516174,
                    -0.05660706013441086,
                    -0.1002330631017685,
                    -0.22514642775058746,
                    0.08602724224328995,
                    -0.019090622663497925,
                    -0.06940062344074249,
                    0.17586912214756012,
                    -0.11119884252548218,
                    0.06115971878170967,
                    0.1746082454919815,
                    -0.23173761367797852,
                    -0.03867859020829201,
                    0.10968126356601715,
                    -0.12866559624671936,
                    -0.1371126025915146,
                    -0.060947395861148834,
                    0.00107734021730721,
                    -0.05922820791602135,
                    -0.024607425555586815,
                    0.11900804936885834,
                    -0.05677065998315811,
                    0.023770583793520927,
                    0.14898988604545593,
                    0.04031384363770485,
                    -0.06773927062749863,
                    -0.036674998700618744,
                    0.02606360800564289,
                    0.1799364537000656,
                    0.11137118935585022,
                    0.01857222616672516,
                    -0.20644928514957428,
                    -0.03264758735895157,
                    -0.06131871044635773,
                    0.08214716613292694,
                    0.11767495423555374,
                    0.0951138511300087,
                    0.07990267127752304,
                    0.00360356317833066,
                    0.046455979347229004,
                    0.10129454731941223,
                    -0.16847209632396698,
                    -0.15154826641082764,
                    0.1933947503566742,
                    -0.0508371964097023,
                    -0.05489598587155342,
                    -0.08675482124090195,
                    -0.13923512399196625,
                    -0.018342655152082443,
                    0.028156276792287827,
                    0.022456252947449684,
                    0.0033474278170615435,
                    0.007182535715401173
                ],
                [
                    -0.06935147941112518,
                    -0.014712748117744923,
                    0.015660254284739494,
                    -0.019654005765914917,
                    -0.053238291293382645,
                    -0.10017383098602295,
                    0.014512624591588974,
                    0.0962907150387764,
                    0.03170271962881088,
                    -0.026741238310933113,
                    -0.0954868346452713,
                    -0.024611108005046844,
                    -0.10201335698366165,
                    -0.046077385544776917,
                    0.000578190665692091,
                    0.016369756311178207,
                    -0.013870413415133953,
                    0.05555085092782974,
                    0.07110197097063065,
                    -0.05999164283275604,
                    -0.05305580422282219,
                    0.1578981578350067,
                    0.06637006998062134,
                    -0.1113969087600708,
                    -0.07711544632911682,
                    0.021390564739704132,
                    -0.0089968740940094,
                    -0.009094111621379852,
                    -0.08574887365102768,
                    0.05309736356139183,
                    0.07909438759088516,
                    -0.04432069510221481,
                    0.12617649137973785,
                    0.0760229155421257,
                    0.03515913709998131,
                    0.07136058807373047,
                    -0.12579034268856049,
                    0.020161094143986702,
                    -0.04705316945910454,
                    -0.07801520079374313,
                    -0.04223648086190224,
                    -0.03844241797924042,
                    -0.011362847872078419,
                    -0.0953187346458435,
                    0.14060574769973755,
                    0.055580854415893555,
                    -0.03856465965509415,
                    -0.007135713007301092,
                    0.13503794372081757,
                    0.062067266553640366,
                    0.06074896454811096,
                    -0.06857927143573761,
                    0.1424872726202011,
                    -0.056577540934085846,
                    -0.03884490206837654,
                    -0.025823060423135757,
                    -0.1098749116063118,
                    0.10685495287179947,
                    -0.040196727961301804,
                    -0.14690037071704865,
                    0.02735777385532856,
                    -0.05549713596701622,
                    -0.09802404791116714,
                    -0.030825678259134293,
                    0.09690196812152863,
                    0.05345162749290466,
                    0.009028807282447815,
                    0.06719259172677994,
                    -0.05628929287195206,
                    -0.012810314074158669,
                    0.016873659566044807,
                    -0.06755514442920685
                ],
                [
                    0.0008685453212819993,
                    -0.019027573987841606,
                    0.0678383857011795,
                    -0.07846035808324814,
                    0.028795257210731506,
                    0.07605861872434616,
                    -0.009389309212565422,
                    -0.08205267786979675,
                    -0.03306649625301361,
                    0.006611171644181013,
                    0.08103206753730774,
                    0.023139288648962975,
                    -0.057300157845020294,
                    -0.0645250752568245,
                    0.026240557432174683,
                    -0.0787794217467308,
                    0.06654190272092819,
                    0.1457899659872055,
                    -0.01530846394598484,
                    -0.04793943464756012,
                    -0.02199135534465313,
                    0.059103213250637054,
                    0.09683398902416229,
                    -0.08710429817438126,
                    0.05626313388347626,
                    -0.06258466839790344,
                    -0.033245451748371124,
                    0.010420246981084347,
                    -0.16096961498260498,
                    -0.00277715758420527,
                    0.08369652926921844,
                    -0.0003117994638159871,
                    -0.02720254845917225,
                    0.04369950294494629,
                    0.018400879576802254,
                    0.11211975663900375,
                    -0.07318853586912155,
                    0.07081140577793121,
                    0.08973241597414017,
                    -0.1352359801530838,
                    0.00010165077401325107,
                    -0.06060480326414108,
                    -0.09539397805929184,
                    -0.027895893901586533,
                    0.0947316363453865,
                    0.08437718451023102,
                    0.16106010973453522,
                    -0.09600119292736053,
                    -0.12047891318798065,
                    0.09290438890457153,
                    0.1028713509440422,
                    -0.17673522233963013,
                    0.028930557891726494,
                    -0.021873094141483307,
                    -0.1118539497256279,
                    -0.12985745072364807,
                    -0.10112780332565308,
                    0.001131533645093441,
                    0.024598702788352966,
                    -0.13823962211608887,
                    0.09150692075490952,
                    -0.10017132014036179,
                    -0.151225283741951,
                    -0.06318855285644531,
                    0.01883401721715927,
                    -0.016491182148456573,
                    0.12264876067638397,
                    0.03127669543027878,
                    0.03574802353978157,
                    -0.08834231644868851,
                    0.0033474345691502094,
                    -0.0945158377289772
                ],
                [
                    -0.005340861156582832,
                    0.014433322474360466,
                    -0.006565345451235771,
                    -0.0014046342112123966,
                    0.015179703943431377,
                    -0.04019968584179878,
                    -0.0004664201696868986,
                    -0.002279500011354685,
                    -0.006004997529089451,
                    -0.049397967755794525,
                    -0.06454072147607803,
                    0.056953974068164825,
                    -0.10616128891706467,
                    -0.11848025023937225,
                    0.06631959974765778,
                    0.04156117141246796,
                    -0.04859451577067375,
                    0.04905657097697258,
                    0.01624082215130329,
                    -0.044537898153066635,
                    -0.017689477652311325,
                    0.07508877664804459,
                    0.012770719826221466,
                    -0.18576595187187195,
                    0.010118323378264904,
                    0.036022767424583435,
                    -0.06799488514661789,
                    0.09201160818338394,
                    -0.1705780178308487,
                    -0.0661374181509018,
                    0.09444927424192429,
                    0.06687817722558975,
                    -0.10229921340942383,
                    0.04782406985759735,
                    0.03615332394838333,
                    -0.0444292351603508,
                    -0.11620461940765381,
                    0.058496441692113876,
                    -0.015223057009279728,
                    -0.03642801567912102,
                    -0.06253813952207565,
                    -0.015891993418335915,
                    -0.03110516630113125,
                    0.013700398616492748,
                    0.020232850685715675,
                    0.16991600394248962,
                    -0.02771882712841034,
                    -0.09126043319702148,
                    0.012769185937941074,
                    0.014389553107321262,
                    0.12433641403913498,
                    -0.07385128736495972,
                    0.011312090791761875,
                    -0.07502792775630951,
                    -0.10993973910808563,
                    -0.013671140186488628,
                    -0.0158009622246027,
                    0.0770738497376442,
                    -0.06669823080301285,
                    -0.008326215669512749,
                    0.20882755517959595,
                    -0.06623329222202301,
                    -0.09254144877195358,
                    -0.02273917756974697,
                    -0.027383504435420036,
                    0.028116023167967796,
                    0.07659552991390228,
                    0.012283602729439735,
                    -0.038596972823143005,
                    -0.02611987106502056,
                    -0.05081459507346153,
                    0.04278756305575371
                ],
                [
                    0.2817844748497009,
                    0.19076581299304962,
                    -0.07230152934789658,
                    0.23612983524799347,
                    -0.20650061964988708,
                    -0.2529982626438141,
                    -0.034179992973804474,
                    0.08307740837335587,
                    0.027353888377547264,
                    0.20843464136123657,
                    -0.10158001631498337,
                    0.1719089150428772,
                    -0.06079260632395744,
                    0.1748747080564499,
                    0.11667679995298386,
                    -0.04035943001508713,
                    0.041930388659238815,
                    -0.042689427733421326,
                    0.05898237228393555,
                    -0.005494646728038788,
                    0.1312660276889801,
                    0.11061666905879974,
                    0.06788921356201172,
                    -0.07915910333395004,
                    -0.18277588486671448,
                    0.2699362337589264,
                    0.28571000695228577,
                    -0.17520490288734436,
                    0.01051363255828619,
                    0.08822768181562424,
                    -0.10578634589910507,
                    0.15244974195957184,
                    0.05017034336924553,
                    -0.12957541644573212,
                    0.09871593862771988,
                    -0.025241609662771225,
                    0.15890052914619446,
                    -0.08187540620565414,
                    -0.14638811349868774,
                    -0.0518372505903244,
                    -0.2904718220233917,
                    -0.07597202807664871,
                    0.07145420461893082,
                    -0.0987948551774025,
                    -0.08236528933048248,
                    -0.08305389434099197,
                    -0.1602311134338379,
                    0.16442148387432098,
                    0.21025440096855164,
                    0.027848338708281517,
                    -0.22873549163341522,
                    -0.3180663287639618,
                    -0.0418342649936676,
                    -0.07219639420509338,
                    0.4546089172363281,
                    -0.07749909162521362,
                    -0.05517227202653885,
                    0.031116081401705742,
                    0.16631808876991272,
                    0.1932416558265686,
                    -0.09944792836904526,
                    0.029826702550053596,
                    0.20910362899303436,
                    -0.11650557070970535,
                    -0.10286866873502731,
                    -0.004743353929370642,
                    0.1138744056224823,
                    -0.09289693832397461,
                    0.22110074758529663,
                    0.04717899486422539,
                    0.10034117102622986,
                    0.19598990678787231
                ],
                [
                    0.00503048300743103,
                    -0.2943139970302582,
                    0.1355915665626526,
                    0.1626315861940384,
                    0.07754836231470108,
                    -0.10817255824804306,
                    -0.057211436331272125,
                    0.09583654254674911,
                    0.13892054557800293,
                    -0.21837106347084045,
                    0.0393931083381176,
                    -0.05851254612207413,
                    0.2590557634830475,
                    -0.15751993656158447,
                    -0.14861774444580078,
                    0.11116121709346771,
                    -0.14732739329338074,
                    -0.16922394931316376,
                    -0.028360813856124878,
                    0.09142015874385834,
                    0.03594885766506195,
                    -0.04915472865104675,
                    0.14222122728824615,
                    -0.024417076259851456,
                    -0.14249715209007263,
                    0.1719818264245987,
                    -0.06606289744377136,
                    0.09545265138149261,
                    0.014610453508794308,
                    -0.09409952908754349,
                    0.05895503610372543,
                    0.04694793373346329,
                    -0.08236192166805267,
                    -0.042896635830402374,
                    0.08153185993432999,
                    0.02095034159719944,
                    0.04461641609668732,
                    -0.14183437824249268,
                    -0.1229323223233223,
                    0.05264744907617569,
                    0.1820158064365387,
                    0.031377457082271576,
                    -0.1497732698917389,
                    0.0955420732498169,
                    0.08455716818571091,
                    0.16900934278964996,
                    -0.09003014862537384,
                    -0.02539466693997383,
                    -0.1678764671087265,
                    -0.1987811028957367,
                    -0.13624531030654907,
                    0.19073759019374847,
                    0.015622491016983986,
                    0.026343252509832382,
                    0.009675158187747002,
                    -0.0741507038474083,
                    0.11202014237642288,
                    0.09424539655447006,
                    0.07350439578294754,
                    -0.30645978450775146,
                    0.009851895272731781,
                    0.0811397060751915,
                    -0.05439469590783119,
                    0.005640541203320026,
                    0.18811039626598358,
                    0.033701274544000626,
                    -0.12886211276054382,
                    0.24586121737957,
                    0.06563221663236618,
                    -0.14967356622219086,
                    -0.023206109181046486,
                    -0.12840571999549866
                ],
                [
                    -0.07210156321525574,
                    0.31071737408638,
                    -0.19989028573036194,
                    0.019181273877620697,
                    0.19921082258224487,
                    -0.26539817452430725,
                    -0.04080287367105484,
                    -0.21326938271522522,
                    -0.21723534166812897,
                    0.10371241718530655,
                    -0.0032743243500590324,
                    0.15052665770053864,
                    -0.11746381223201752,
                    0.06047757342457771,
                    0.17752540111541748,
