{
    "iosize": [
        18,
        9
    ],
    "layers": [
        {
            "_layer_num": 0,
            "activation": "tanh",
            "bias": [
                -1.0749222040176392,
                -2.171161651611328,
                1.4548920392990112,
                0.3108663260936737,
                2.252119541168213,
                -1.3316235542297363,
                1.066856026649475,
                -0.48993024230003357,
                1.4207671880722046,
                -1.4523178339004517,
                0.4390064775943756,
                -1.1526448726654053,
                -0.7468269467353821,
                -0.5342479348182678,
                1.1572959423065186,
                -0.14389751851558685,
                -0.4935164451599121,
                -1.9687870740890503,
                -1.0746899843215942,
                -2.674530267715454,
                1.617865800857544,
                -0.5195273160934448,
                0.13938428461551666,
                -2.028047561645508,
                -2.3668406009674072,
                0.03879338130354881,
                -0.014044282957911491,
                3.033442497253418,
                0.29796767234802246,
                0.7295666933059692,
                1.1939109563827515,
                -0.4997658133506775,
                -1.189944863319397,
                -1.3915549516677856,
                -0.34921005368232727,
                -1.1772005558013916,
                -1.3469905853271484,
                -0.18156158924102783,
                -1.3807705640792847,
                0.4275938868522644,
                3.9862470626831055,
                -1.4953492879867554,
                -1.9343554973602295,
                1.4273748397827148,
                1.5032371282577515,
                0.17598098516464233,
                3.4343619346618652,
                -0.046490591019392014,
                1.945926308631897,
                0.9838120937347412,
                -0.9182379245758057,
                1.6876096725463867,
                1.8943783044815063,
                0.5354142189025879,
                -0.7244210839271545,
                1.2572667598724365,
                0.30220991373062134,
                -0.1422138810157776,
                -0.005427470430731773,
                0.13812142610549927,
                1.7879137992858887,
                2.6217644214630127,
                -1.0499401092529297,
                -2.4762814044952393,
                -0.7203420996665955,
                -1.6730027198791504,
                -2.9406349658966064,
                -0.2595925033092499,
                -0.5786616802215576,
                -0.058939944952726364,
                -0.04476602375507355,
                0.4320695400238037
            ],
            "size": [
                18,
                72
            ],
            "weights": [
                [
                    -0.31059879064559937,
                    -1.0784751176834106,
                    -2.269629716873169,
                    -0.16132836043834686,
                    -0.3194839060306549,
                    -1.1291176080703735,
                    0.12134034186601639,
                    2.3669846057891846,
                    -0.6691716313362122,
                    -3.1744749546051025,
                    0.603859543800354,
                    1.2196612358093262,
                    1.0983294248580933,
                    0.6621112823486328,
                    1.0853413343429565,
                    0.8426535725593567,
                    -0.2708073556423187,
                    0.46565312147140503,
                    -0.17747372388839722,
                    -0.14714699983596802,
                    0.25609442591667175,
                    0.31221264600753784,
                    -0.5697730779647827,
                    0.13709712028503418,
                    0.9160829186439514,
                    1.3079537153244019,
                    -0.4042609632015228,
                    -0.42241808772087097,
                    0.07924748212099075,
                    -1.106250286102295,
                    -1.310335636138916,
                    -0.11799371242523193,
                    1.3985766172409058,
                    0.7839533686637878,
                    -0.07907013595104218,
                    -2.336925745010376,
                    0.43509405851364136,
                    0.29397550225257874,
                    -1.176396369934082,
                    -1.1958712339401245,
                    -0.9296237826347351,
                    -1.3983945846557617,
                    -0.4055177569389343,
                    1.7428826093673706,
                    -0.8791438341140747,
                    0.621593713760376,
                    -1.0269755125045776,
                    0.24491249024868011,
                    -0.735835611820221,
                    -1.5650615692138672,
                    0.2558285593986511,
                    1.8469185829162598,
                    0.35567158460617065,
                    0.1678818315267563,
                    -0.9221919178962708,
                    -0.16884347796440125,
                    0.7609912157058716,
                    1.0105761289596558,
                    -0.8323708772659302,
                    1.2298920154571533,
                    0.44971081614494324,
                    -0.22484472393989563,
                    0.9151228070259094,
                    0.6733903288841248,
                    0.8768292665481567,
                    0.807243287563324,
                    -1.9772560596466064,
                    -0.6592000722885132,
                    -0.4798155426979065,
                    -0.9737693071365356,
                    -1.6253045797348022,
                    -1.2205541133880615
                ],
                [
                    0.034651126712560654,
                    1.0531840324401855,
                    0.6729424595832825,
                    0.00939488410949707,
                    -0.6284188032150269,
                    -1.9130947589874268,
                    0.02846965566277504,
                    2.6346189975738525,
                    -0.4304826557636261,
                    0.5083544850349426,
                    -0.0024816012009978294,
                    0.3866979479789734,
                    -1.6261389255523682,
                    1.0763462781906128,
                    0.45089054107666016,
                    1.3696335554122925,
                    -0.8517411947250366,
                    -0.1706939935684204,
                    -0.8913663625717163,
                    0.4917081892490387,
                    -0.5694031119346619,
                    2.7380995750427246,
                    0.5394183397293091,
                    -1.229655146598816,
                    -2.6601927280426025,
                    -1.5757209062576294,
                    0.1772325485944748,
                    -1.0849393606185913,
                    -0.9032614231109619,
                    0.30010634660720825,
                    0.077940933406353,
                    0.4063528776168823,
                    0.5486713647842407,
                    0.2606581151485443,
                    0.23721128702163696,
                    -1.1347806453704834,
                    0.5016483068466187,
                    0.32779642939567566,
                    -0.5868863463401794,
                    0.21033461391925812,
                    -0.7129163146018982,
                    0.6073592305183411,
                    1.1196421384811401,
                    0.5150337219238281,
                    -0.27789267897605896,
                    -0.8414432406425476,
                    -1.6755164861679077,
                    1.069404125213623,
                    0.8345615863800049,
                    -0.09347382187843323,
                    0.22225570678710938,
                    -0.20127731561660767,
                    0.3731915056705475,
                    -0.45093610882759094,
                    -0.5746856331825256,
                    -1.0966049432754517,
                    1.3537346124649048,
                    0.10627658665180206,
                    -0.34454548358917236,
                    0.005061608739197254,
                    -1.3113633394241333,
                    -0.6828183531761169,
                    0.1367073357105255,
                    -0.42545589804649353,
                    1.687294840812683,
                    1.0039317607879639,
                    -1.042809009552002,
                    1.1830381155014038,
                    0.5910966396331787,
                    0.1774507313966751,
                    0.37079906463623047,
                    -0.11266569048166275
                ],
                [
                    -0.38270410895347595,
                    1.2813410758972168,
                    -1.559438943862915,
                    -0.3852263391017914,
                    0.265399694442749,
                    2.1262481212615967,
                    0.33762744069099426,
                    -1.7162597179412842,
                    -0.16938620805740356,
                    2.360450267791748,
                    -0.12418127804994583,
                    1.1366685628890991,
                    0.8476985096931458,
                    0.5942354202270508,
                    1.0096359252929688,
                    0.8801801204681396,
                    -0.5184873342514038,
                    0.41845229268074036,
                    0.8324086666107178,
                    0.39579281210899353,
                    3.32300066947937,
                    -0.653988242149353,
                    1.0192617177963257,
                    3.108100652694702,
                    1.6196874380111694,
                    -2.0089991092681885,
                    0.20075629651546478,
                    0.010492926463484764,
                    0.527005672454834,
                    0.23404471576213837,
                    0.9239022731781006,
                    0.48393353819847107,
                    0.7245917916297913,
                    0.2068483531475067,
                    0.5951778888702393,
                    0.9816548228263855,
                    0.41911402344703674,
                    0.15045443177223206,
                    -1.167754054069519,
                    0.18539656698703766,
                    -0.9085071682929993,
                    0.8952503800392151,
                    1.356445550918579,
                    1.318007469177246,
                    0.8981623649597168,
                    1.648634910583496,
                    -1.570166826248169,
                    0.5284180045127869,
                    -0.6812480688095093,
                    1.825066089630127,
                    0.35694319009780884,
                    -0.5746208429336548,
                    -0.6804046630859375,
                    0.4731733202934265,
                    1.5870983600616455,
                    -0.20089441537857056,
                    0.9462713003158569,
                    -1.0274715423583984,
                    0.689154863357544,
                    0.846177339553833,
                    -0.6127069592475891,
                    -0.1197783574461937,
                    0.9359903335571289,
                    0.2849317193031311,
                    -0.8228185772895813,
                    -0.25107619166374207,
                    -0.38695740699768066,
                    0.7543614506721497,
                    0.01963486708700657,
                    -0.0036233989521861076,
                    0.9769499897956848,
                    0.7898082733154297
                ],
                [
                    -0.13281923532485962,
                    -0.8602975606918335,
                    -1.0195530652999878,
                    -0.8425353765487671,
                    0.3393442630767822,
                    -0.7181935906410217,
                    -1.9826794862747192,
                    -0.7741734981536865,
                    -1.084378719329834,
                    0.5685585141181946,
                    -0.01638614945113659,
                    1.0158928632736206,
                    -0.08480634540319443,
                    0.17071384191513062,
                    0.3017822504043579,
                    -0.3043960630893707,
                    -0.8388561010360718,
                    0.47201007604599,
                    -0.3151906430721283,
                    1.3684473037719727,
                    -1.6378694772720337,
                    0.563180685043335,
                    -1.2341283559799194,
                    0.31503912806510925,
                    0.4711010456085205,
                    1.1501163244247437,
                    0.14652982354164124,
                    -0.5005568265914917,
                    0.7014049291610718,
                    0.3617497980594635,
                    -1.1998746395111084,
                    0.5979472398757935,
                    -1.0400928258895874,
                    -0.8479320406913757,
                    -0.9869291186332703,
                    0.9958130717277527,
                    0.45405831933021545,
                    0.49860283732414246,
                    1.1248067617416382,
                    1.7341841459274292,
                    2.619250535964966,
                    2.0766401290893555,
                    1.6940090656280518,
                    1.231641411781311,
                    -0.8049343824386597,
                    -0.009279771707952023,
                    0.17024238407611847,
                    0.5978872776031494,
                    -1.4087623357772827,
                    1.9478505849838257,
                    0.40503010153770447,
                    -1.0253169536590576,
                    -0.9272422194480896,
                    -0.3810030221939087,
                    0.4943840801715851,
                    0.26302608847618103,
                    -0.7437025904655457,
                    0.8841415047645569,
                    -0.8778119087219238,
                    -1.065189242362976,
                    0.8855533003807068,
                    -0.5839258432388306,
                    1.4827461242675781,
                    -0.15606454014778137,
                    0.2543767988681793,
                    0.4250968396663666,
                    -3.849349021911621,
                    -0.7535156011581421,
                    -1.0511683225631714,
                    0.6128152012825012,
                    0.416814923286438,
                    0.13795915246009827
                ],
                [
                    2.7495336532592773,
                    1.4672437906265259,
                    0.9557122588157654,
                    1.3878005743026733,
                    -0.7093828916549683,
                    0.5414104461669922,
                    0.44324934482574463,
                    -0.5798200368881226,
                    -1.1269358396530151,
                    -5.882388114929199,
                    1.0896263122558594,
                    1.014822244644165,
                    0.11144527792930603,
                    -1.583537220954895,
                    -0.20797166228294373,
                    -2.078533887863159,
                    0.425726056098938,
                    0.35950759053230286,
                    0.34281980991363525,
                    0.6364724636077881,
                    -1.300362467765808,
                    -1.0521529912948608,
                    0.47330132126808167,
                    1.0543758869171143,
                    -1.5704073905944824,
                    0.06653425842523575,
                    -3.1184394359588623,
                    -1.5240139961242676,
                    -2.189694881439209,
                    0.3706069886684418,
                    0.6395310163497925,
                    0.1754012554883957,
                    -1.7847890853881836,
                    0.42786332964897156,
                    -1.9235479831695557,
                    -1.7543749809265137,
                    0.17806744575500488,
                    0.45065799355506897,
                    -1.8228211402893066,
                    1.1966910362243652,
                    5.7642412185668945,
                    -0.5909932255744934,
                    -0.42054325342178345,
                    -0.8607594966888428,
                    -0.6157797574996948,
                    -0.5836400985717773,
                    -0.017265696078538895,
                    -1.0242315530776978,
                    -1.784409761428833,
                    0.4338107705116272,
                    -2.0116779804229736,
                    -0.9666131138801575,
                    -0.9715895652770996,
                    -0.023557718843221664,
                    1.0562986135482788,
                    0.18879859149456024,
                    0.49004384875297546,
                    0.7205694913864136,
                    -0.3218323588371277,
                    -0.3184192478656769,
                    0.6795186400413513,
                    -2.415879249572754,
                    0.43453317880630493,
                    2.9924659729003906,
                    0.4203082323074341,
                    1.2501261234283447,
                    1.8272987604141235,
                    0.2553458511829376,
                    2.4388864040374756,
                    0.09452945739030838,
                    -1.851030945777893,
                    0.3726678490638733
                ],
                [
                    -0.5052008032798767,
                    0.9102849960327148,
                    -0.3511062264442444,
                    -0.8774105906486511,
                    -2.0778768062591553,
                    0.8918085098266602,
                    0.9980452656745911,
                    -0.22424165904521942,
                    0.8237202763557434,
                    0.7732930779457092,
                    0.40415894985198975,
                    0.9999672174453735,
                    0.5615320205688477,
                    -0.26691582798957825,
                    0.3480253517627716,
                    -0.05979276821017265,
                    0.5788061618804932,
                    1.4358028173446655,
                    0.5721946358680725,
                    0.9231688380241394,
                    0.6366997957229614,
                    1.0326793193817139,
                    -0.36819732189178467,
                    -0.1457522213459015,
                    0.22045867145061493,
                    0.28182098269462585,
                    1.374090552330017,
                    0.10366357117891312,
                    1.6060103178024292,
                    -0.08860678225755692,
                    -0.5721718668937683,
                    -1.0857760906219482,
                    -0.7416155934333801,
                    0.17444634437561035,
                    -0.20727954804897308,
                    -3.902662515640259,
                    0.8703382611274719,
                    -0.12825830280780792,
                    1.1268194913864136,
                    -0.8171505928039551,
                    5.434438705444336,
                    0.001753083080984652,
                    1.5656495094299316,
                    -0.4709989130496979,
                    0.0936395674943924,
                    -0.22354774177074432,
                    0.5450541973114014,
                    0.5009876489639282,
                    0.42732784152030945,
                    -0.9491918683052063,
                    0.2721088230609894,
                    1.279426097869873,
                    -1.3911170959472656,
                    -1.6176565885543823,
                    0.18179184198379517,
                    1.7485429048538208,
                    -0.04463961720466614,
                    -0.7866191864013672,
                    0.5396407246589661,
                    -0.18416906893253326,
                    -0.46568676829338074,
                    -0.11629556119441986,
                    0.7865784168243408,
                    -0.08047245442867279,
                    -1.5691285133361816,
                    -1.7101068496704102,
                    -5.8488311767578125,
                    -0.5618341565132141,
                    0.765989363193512,
                    1.261480450630188,
                    -0.5116493701934814,
                    -0.2998063564300537
                ],
                [
                    -4.7981767654418945,
                    -0.7949469685554504,
                    1.592851161956787,
                    -0.4524877965450287,
                    -1.153625726699829,
                    -0.032353974878787994,
                    -0.8287912011146545,
                    -0.8062229752540588,
                    -1.6852132081985474,
                    1.7107118368148804,
                    0.8337541222572327,
                    -2.6588048934936523,
                    0.45499876141548157,
                    -1.3195626735687256,
                    -3.0504088401794434,
                    0.29318860173225403,
                    0.9626098275184631,
                    0.45445141196250916,
                    1.1947708129882812,
                    -1.9047061204910278,
                    -0.6879251003265381,
                    -0.3361457288265228,
                    0.22666451334953308,
                    -3.397279977798462,
                    0.8618215918540955,
                    0.9075911641120911,
                    0.36646807193756104,
                    -1.1116431951522827,
                    -0.6951791644096375,
                    0.4193563759326935,
                    1.7635208368301392,
                    1.300673484802246,
                    1.9799400568008423,
                    0.41945067048072815,
                    0.1294221132993698,
                    0.21429069340229034,
                    -0.34132206439971924,
                    -1.559718132019043,
                    1.3333669900894165,
                    -0.47559452056884766,
                    -1.1743043661117554,
                    0.5309555530548096,
                    0.35862278938293457,
                    -0.4435933530330658,
                    -0.3709212839603424,
                    -0.8418778777122498,
                    -0.7161400318145752,
                    0.6519780158996582,
                    0.4728820323944092,
                    0.36477142572402954,
                    0.20063357055187225,
                    1.237120270729065,
                    -1.1857192516326904,
                    0.7343587875366211,
                    -0.5983437299728394,
                    -1.8192601203918457,
                    0.031512580811977386,
                    0.4535985589027405,
                    -0.5410146117210388,
                    -0.035255782306194305,
                    -0.7158359289169312,
                    0.9729970097541809,
                    -0.19697102904319763,
                    1.0085166692733765,
                    0.877284049987793,
                    0.5134485363960266,
                    1.7749050855636597,
                    -0.3275397717952728,
                    -0.9528982043266296,
                    -1.027251958847046,
                    0.15277624130249023,
                    -0.7091986536979675
                ],
                [
                    -3.9041500091552734,
                    0.8201252222061157,
                    0.009617787785828114,
                    2.1855969429016113,
                    -1.1755201816558838,
                    0.9059164524078369,
                    0.3975123465061188,
                    -0.38644543290138245,
                    -0.7462013363838196,
                    0.14830239117145538,
                    -1.1464451551437378,
                    -1.8910642862319946,
                    0.11109056323766708,
                    0.0007501500658690929,
                    -0.09119034558534622,
                    -0.3596176505088806,
                    -0.5175610780715942,
                    -0.1329779177904129,
                    0.6927849650382996,
                    -1.009870171546936,
                    -1.4889265298843384,
                    -1.0988439321517944,
                    0.28838294744491577,
                    -3.4750404357910156,
                    -4.534196853637695,
                    1.0762988328933716,
                    0.2931939959526062,
                    -1.0830111503601074,
                    0.995242714881897,
                    0.13736820220947266,
                    -0.20681743323802948,
                    0.13761097192764282,
                    -1.4027355909347534,
                    1.306978702545166,
                    0.6177010536193848,
                    -0.39506790041923523,
                    0.3932535946369171,
                    1.4770519733428955,
                    1.0907468795776367,
                    -0.9556692242622375,
                    -1.1215200424194336,
                    -0.8497709631919861,
                    0.3804491460323334,
                    -1.1235275268554688,
                    -0.6269605755805969,
                    -0.189322367310524,
                    -0.9478114247322083,
                    0.26908811926841736,
                    1.0845099687576294,
                    0.11933743208646774,
                    1.1307024955749512,
                    0.051663223654031754,
                    0.27308565378189087,
                    0.20439143478870392,
                    -0.2539481222629547,
                    -1.8438998460769653,
                    0.23087374866008759,
                    -0.21051818132400513,
                    -0.6357197761535645,
                    -0.07101266086101532,
                    0.2148931920528412,
                    -0.793826162815094,
                    -0.4781104028224945,
                    -4.277737140655518,
                    -0.7896793484687805,
                    1.0753568410873413,
                    0.4856027364730835,
                    -0.15585172176361084,
                    -0.17920365929603577,
                    -0.018451733514666557,
                    0.9616763591766357,
                    -0.20122836530208588
                ],
                [
                    0.8620052337646484,
                    1.4475371837615967,
                    0.9912176132202148,
                    -1.3848309516906738,
                    1.1252986192703247,
                    0.37841829657554626,
                    -0.5493916273117065,
                    1.041309118270874,
                    0.7648879289627075,
                    -0.65793776512146,
                    -1.8168352842330933,
                    -3.6979002952575684,
                    0.6487181186676025,
                    0.33368533849716187,
                    -1.4326629638671875,
                    0.24273261427879333,
                    1.3506838083267212,
                    0.7404571771621704,
                    -0.8049793839454651,
                    -0.39660361409187317,
                    1.750572919845581,
                    -0.07895800471305847,
                    -0.4956233501434326,
                    0.38534408807754517,
                    0.847568690776825,
                    -0.12201393395662308,
                    -0.7730374932289124,
                    0.34502673149108887,
                    1.5670950412750244,
                    -1.8518387079238892,
                    -0.8445775508880615,
                    -1.0209004878997803,
                    0.9405345320701599,
                    0.13797439634799957,
                    1.6313880681991577,
                    2.297802686691284,
                    -1.1245241165161133,
                    0.3404541611671448,
                    0.7600836753845215,
                    -0.3947027027606964,
                    -1.6704248189926147,
                    -0.20350024104118347,
                    0.4064614474773407,
                    -0.9260996580123901,
                    0.659912109375,
                    0.3462693393230438,
                    -0.18979354202747345,
                    -1.4566330909729004,
                    -0.5064078569412231,
                    -0.47772055864334106,
                    -0.962851345539093,
                    -1.7852013111114502,
                    1.2269445657730103,
                    0.7456129789352417,
                    0.9142321348190308,
                    2.101806640625,
                    -1.490339756011963,
                    -0.8212515711784363,
                    1.0120201110839844,
                    -1.6157079935073853,
                    -0.7323381304740906,
                    -0.27037131786346436,
                    -1.6825815439224243,
                    -2.671353816986084,
                    -0.7028566002845764,
                    -0.028826884925365448,
                    2.229369640350342,
                    1.1697607040405273,
                    -0.32248786091804504,
                    0.22947275638580322,
                    -0.8857821226119995,
                    1.2652806043624878
                ],
                [
                    2.267123222351074,
                    1.0010862350463867,
                    -0.22987309098243713,
                    0.0034238966181874275,
                    0.12448646128177643,
                    0.31488850712776184,
                    -1.3849784135818481,
                    0.9504674077033997,
                    1.0807418823242188,
                    0.3274970054626465,
                    0.7646223306655884,
                    1.5227187871932983,
                    0.899742603302002,
                    1.3120425939559937,
                    -0.03779494762420654,
                    0.8704983592033386,
                    -0.8590191602706909,
                    -0.16319918632507324,
                    -1.8694722652435303,
                    -0.6367475986480713,
                    0.5897862911224365,
                    1.5833297967910767,
                    -0.9076443314552307,
                    -2.0261831283569336,
                    -0.3853834271430969,
                    0.0931292176246643,
                    -0.12302204966545105,
                    -0.16496679186820984,
                    0.6153680682182312,
                    -0.9476549625396729,
                    -1.2696515321731567,
                    -0.16200803220272064,
                    0.5470500588417053,
                    0.7991352081298828,
                    -0.07939139753580093,
                    -0.8283441066741943,
                    0.7773053050041199,
                    -0.001807813299819827,
                    0.3878896236419678,
                    -1.0301244258880615,
                    -1.0001505613327026,
                    -0.4915384352207184,
                    -0.009000256657600403,
                    -0.9512746930122375,
                    0.7263917326927185,
                    0.8113281726837158,
                    -0.5590776801109314,
                    -0.19236470758914948,
                    1.2512062788009644,
                    3.360116958618164,
                    0.016803856939077377,
                    -2.1577188968658447,
                    -0.573788583278656,
                    0.9088675379753113,
                    0.22136348485946655,
                    -0.7663174867630005,
                    0.1845358908176422,
                    0.7041240930557251,
                    -0.9853678941726685,
                    1.4432939291000366,
                    1.9664727449417114,
                    -0.32526734471321106,
                    0.17803826928138733,
                    0.8568561673164368,
                    -1.624980092048645,
                    0.31441476941108704,
                    0.6537009477615356,
                    -1.0925474166870117,
                    -0.027197329327464104,
                    -1.0303847789764404,
                    -0.9528725147247314,
                    -1.3112072944641113
                ],
                [
                    0.7636803984642029,
                    0.5987406373023987,
                    0.24015367031097412,
                    0.8542032241821289,
                    -1.321423053741455,
                    -1.0323562622070312,
                    0.1937049776315689,
                    1.9976338148117065,
                    -1.771153211593628,
                    0.5874105095863342,
                    0.1821059137582779,
                    -0.11360615491867065,
                    -0.042032063007354736,
                    0.9701112508773804,
                    0.048646871000528336,
                    -0.08586239814758301,
                    -0.06710337102413177,
                    0.4410398006439209,
                    -1.5179035663604736,
                    -1.2459561824798584,
                    0.04690041393041611,
                    1.1788904666900635,
                    0.9291893839836121,
                    0.9384320974349976,
                    0.22824428975582123,
                    -1.0039324760437012,
                    -0.3754727244377136,
                    -0.8111069798469543,
                    0.44886869192123413,
                    -0.38973844051361084,
                    -1.3541840314865112,
                    0.37455087900161743,
                    -0.00507217226549983,
                    -1.2249103784561157,
                    1.8279749155044556,
                    -0.3907383382320404,
                    -0.24507635831832886,
                    0.4021245539188385,
                    -0.1297631561756134,
                    0.08531460911035538,
                    -0.13097479939460754,
                    0.5214413404464722,
                    2.1969637870788574,
                    -2.121269702911377,
                    0.7020165920257568,
                    -0.022399336099624634,
                    -0.7469812631607056,
                    1.5603749752044678,
                    0.2282784879207611,
                    -0.0841989666223526,
                    0.5146464109420776,
                    0.36227089166641235,
                    -2.0808937549591064,
                    -0.6676643490791321,
                    -0.20092645287513733,
                    0.8100060820579529,
                    -0.1384105533361435,
                    -0.27693456411361694,
                    0.6236464977264404,
                    -0.08333835750818253,
                    -0.3113831579685211,
                    -0.7181581258773804,
                    0.17482559382915497,
                    0.6255677342414856,
                    1.8039133548736572,
                    0.8387840390205383,
                    -1.0758838653564453,
                    1.211747646331787,
                    0.08730053156614304,
                    -1.005728840827942,
                    -0.098000168800354,
                    -0.5978882908821106
                ],
                [
                    0.7018150687217712,
                    -0.08997712284326553,
                    0.047593485563993454,
                    -0.3639356195926666,
                    0.7401621341705322,
                    0.40077832341194153,
                    -1.056403398513794,
                    0.3102744519710541,
                    0.3246598243713379,
                    0.6033092141151428,
                    0.25012117624282837,
                    0.4042482078075409,
                    2.3492660522460938,
                    -0.3837110996246338,
                    0.5918641686439514,
                    1.048152208328247,
                    -0.8309643268585205,
                    -0.16890400648117065,
                    1.5497437715530396,
                    -0.8565034866333008,
                    -0.30897286534309387,
                    -0.29085490107536316,
                    0.951863169670105,
                    0.014226599596440792,
                    0.29763320088386536,
                    -1.225377082824707,
                    -0.18686850368976593,
                    -1.4485222101211548,
                    -0.18170014023780823,
                    0.7812968492507935,
                    0.920710027217865,
                    -0.8392747044563293,
                    -0.7924935817718506,
                    1.2057183980941772,
                    -0.5652295351028442,
                    0.2570370137691498,
                    0.7621055245399475,
                    -0.24092134833335876,
                    0.5958266854286194,
                    -0.15045605599880219,
                    0.032224152237176895,
                    0.36873650550842285,
                    2.409506320953369,
                    -2.4948623180389404,
                    -1.1619136333465576,
                    0.9010921120643616,
                    -1.7900257110595703,
                    0.1648799180984497,
                    -1.1973391771316528,
                    -0.1700030416250229,
                    0.15949179232120514,
                    -0.7683905363082886,
                    -1.438126802444458,
                    0.5559638738632202,
                    -0.055748291313648224,
                    -0.687130868434906,
                    0.35183149576187134,
                    -1.0779623985290527,
                    -2.3287572860717773,
                    0.2563507854938507,
                    -1.1064783334732056,
                    -2.0134365558624268,
                    -0.5260088443756104,
                    0.6503498554229736,
                    0.7148972749710083,
                    -0.8192276358604431,
                    -0.1604257971048355,
                    0.5668768882751465,
                    -0.8890534043312073,
                    0.5056267976760864,
                    0.6380589008331299,
                    0.27341610193252563
                ],
                [
                    -3.2447245121002197,
                    1.467064619064331,
                    -0.6805842518806458,
                    -0.9228063821792603,
                    -0.3572089970111847,
                    -0.1094362735748291,
                    -1.3107032775878906,
                    0.06619741022586823,
                    0.9706205725669861,
                    -0.39785459637641907,
                    -0.3925255239009857,
                    0.4067717492580414,
                    -0.3609788417816162,
                    -0.05366034805774689,
                    0.862271249294281,
                    -0.6925336718559265,
                    -0.5195603370666504,
                    0.3729458451271057,
                    -1.3325812816619873,
                    -2.7465898990631104,
                    -0.10892928391695023,
                    -0.2447160929441452,
                    -1.8047842979431152,
                    -1.8190522193908691,
                    0.8982820510864258,
                    0.31376370787620544,
                    -0.02628384530544281,
                    0.10042797029018402,
                    2.317225217819214,
                    1.8557931184768677,
                    -0.6875821352005005,
                    2.1523656845092773,
                    0.388918399810791,
                    0.7439047694206238,
                    -0.17478051781654358,
                    -1.6379960775375366,
                    -0.09560376405715942,
                    -0.2382165491580963,
                    0.21391993761062622,
                    2.6148035526275635,
                    -0.9385600686073303,
                    2.2640082836151123,
                    -0.19516435265541077,
                    2.9503941535949707,
                    -1.6913219690322876,
                    -0.01817675493657589,
                    -1.239859700202942,
                    0.5080029368400574,
                    -1.0781655311584473,
                    -0.9262427687644958,
                    0.061943575739860535,
                    0.35030680894851685,
                    0.5720272064208984,
                    -0.23522154986858368,
                    0.8132784962654114,
                    0.03594142943620682,
                    -0.029046649113297462,
                    0.5067084431648254,
                    1.3746169805526733,
                    -0.8757120370864868,
                    0.8502844572067261,
                    -0.18163229525089264,
                    0.7418535947799683,
                    -0.20641003549098969,
                    0.554141104221344,
                    0.620021402835846,
                    0.2563917636871338,
                    -0.6874411106109619,
                    -0.06805132329463959,
                    0.6203098297119141,
                    0.337369829416275,
                    0.04683797061443329
                ],
                [
                    -0.5330377817153931,
                    -0.6893055438995361,
                    -0.40801894664764404,
                    0.3796941637992859,
                    -0.7636581063270569,
                    0.12056002765893936,
                    1.1862322092056274,
                    -0.6800644993782043,
                    -1.8517738580703735,
                    2.0112054347991943,
                    0.5691738724708557,
                    0.4225868582725525,
                    -0.27726006507873535,
                    -1.1355177164077759,
                    0.5117797255516052,
                    -1.4186062812805176,
                    0.07349155843257904,
                    0.9835794568061829,
                    0.5756928324699402,
                    -2.1688413619995117,
                    -1.2428216934204102,
                    0.3179873824119568,
                    0.4002344608306885,
                    1.9882233142852783,
                    0.4044893682003021,
                    0.8825463652610779,
                    -1.6052322387695312,
                    0.11638275533914566,
                    -0.5244127511978149,
                    -0.8375141620635986,
                    0.7619251608848572,
                    -1.5125036239624023,
                    -0.4954293668270111,
                    1.203297734260559,
                    -0.8689231872558594,
                    1.0429942607879639,
                    -1.191463828086853,
                    -0.4290143549442291,
                    -0.5080025792121887,
                    1.1069397926330566,
                    -1.3350903987884521,
                    -1.2600289583206177,
                    1.7554682493209839,
                    5.511361122131348,
                    1.2939531803131104,
                    -0.6695142984390259,
                    -0.574160635471344,
                    -1.4696100950241089,
                    -0.457934707403183,
                    -1.7504332065582275,
                    0.6004027724266052,
                    -0.134646475315094,
                    0.4619458019733429,
                    -0.3969995379447937,
                    0.2775656282901764,
                    0.2582125663757324,
                    1.363226056098938,
                    1.8388444185256958,
                    0.9553123712539673,
                    0.07136125862598419,
                    -1.030720591545105,
                    -1.492476224899292,
                    -0.5981606841087341,
                    0.40105605125427246,
                    -1.0641523599624634,
                    1.3163230419158936,
                    0.5042406320571899,
                    0.10329701751470566,
                    0.9738753437995911,
                    1.3849965333938599,
                    -0.06091245636343956,
                    2.609466075897217
                ],
                [
                    -1.2327805757522583,
                    0.620166540145874,
                    -0.5614476203918457,
                    -0.9228229522705078,
                    0.21475258469581604,
                    0.4148489832878113,
                    0.9762105345726013,
                    -0.06652552634477615,
                    -1.5923172235488892,
                    -0.2345762550830841,
                    0.376890629529953,
                    0.013748526573181152,
                    -0.14596690237522125,
                    0.26573479175567627,
                    1.2062745094299316,
                    -0.3331718444824219,
                    0.6299265027046204,
                    1.6483644247055054,
                    0.5555770993232727,
                    1.552804708480835,
                    0.014097940176725388,
                    0.627020001411438,
                    -0.18083350360393524,
                    -0.5451967120170593,
                    1.1865127086639404,
                    0.13171590864658356,
                    1.1751365661621094,
                    -1.4946730136871338,
                    0.4552375078201294,
                    1.72411048412323,
                    0.7631428241729736,
                    -0.8538869023323059,
                    -0.6758006811141968,
                    -0.1196962371468544,
                    -0.7927826046943665,
                    0.7986786961555481,
                    1.022849678993225,
                    0.2086675763130188,
                    1.7919223308563232,
                    -0.6767821907997131,
                    -0.7336301207542419,
                    -0.08103197067975998,
                    -0.5262142419815063,
                    3.2964513301849365,
                    -1.1279360055923462,
                    -0.21164695918560028,
                    -0.28794625401496887,
                    0.5230485200881958,
                    0.13560158014297485,
                    -0.08024172484874725,
                    0.11977507174015045,
                    0.28579458594322205,
                    0.7485475540161133,
                    -1.599853754043579,
                    0.29794004559516907,
                    0.438639372587204,
                    0.23508226871490479,
                    -0.6596581339836121,
                    -1.5161000490188599,
                    -0.518208920955658,
                    0.6793569326400757,
                    0.46807119250297546,
                    -0.16082637012004852,
                    -3.0047292709350586,
                    0.16028928756713867,
                    -0.17930716276168823,
                    1.5562418699264526,
                    -0.8093641400337219,
                    1.1132049560546875,
                    0.8348960876464844,
                    -1.081368088722229,
                    -0.46511951088905334
                ],
                [
                    -1.177648663520813,
                    1.1585906744003296,
                    -0.5670533180236816,
                    -0.47908321022987366,
                    -1.0818586349487305,
                    0.650209367275238,
                    -1.075507640838623,
                    0.24941693246364594,
                    1.3014973402023315,
                    -0.15481063723564148,
                    0.46596482396125793,
                    -0.7223024964332581,
                    -0.13272657990455627,
                    -0.46002867817878723,
                    -2.501661539077759,
                    1.0513851642608643,
                    0.9980526566505432,
                    -0.265000581741333,
                    1.2977813482284546,
                    1.3766330480575562,
                    -0.21337208151817322,
                    0.18103080987930298,
                    0.39782699942588806,
                    0.557572603225708,
                    -0.16643236577510834,
                    0.6506957411766052,
                    0.8824660778045654,
                    0.06469166278839111,
                    -0.8028430938720703,
                    -0.16641584038734436,
                    0.41283413767814636,
                    1.9378323554992676,
                    1.025315761566162,
                    -0.15887543559074402,
                    1.4020172357559204,
                    0.2907736301422119,
                    0.23459747433662415,
                    -0.819701075553894,
                    0.017028333619236946,
                    -0.6637418866157532,
                    0.037054989486932755,
                    -0.12644727528095245,
                    -0.6161868572235107,
                    2.6290509700775146,
                    1.307059645652771,
                    -1.6551315784454346,
                    -0.19506140053272247,
                    0.5443793535232544,
                    -0.6053557395935059,
                    0.20332776010036469,
                    -1.2596185207366943,
                    1.3327443599700928,
                    -0.5478516221046448,
                    0.8327879905700684,
                    1.3307496309280396,
                    -1.1458115577697754,
                    0.3218708038330078,
                    0.1313924789428711,
                    -0.3072775602340698,
                    0.06518130004405975,
                    -2.003481864929199,
                    -0.7036900520324707,
                    0.28472986817359924,
                    -0.5677326917648315,
                    0.055030498653650284,
                    0.4397984743118286,
                    -1.6376458406448364,
                    0.23189963400363922,
                    -0.5330212712287903,
                    -0.4876960515975952,
                    0.3065686523914337,
                    -1.0345666408538818
                ],
                [
                    -0.9246549606323242,
                    0.023042697459459305,
                    0.26946330070495605,
                    1.376314401626587,
                    -1.1626036167144775,
                    1.0391809940338135,
                    0.926190197467804,
                    -0.36467745900154114,
                    -2.0582971572875977,
                    -1.3053938150405884,
                    -0.8395219445228577,
                    -0.6543681025505066,
                    0.18962210416793823,
                    -1.3630573749542236,
                    -0.6924942135810852,
                    -0.2772080898284912,
                    -0.285239577293396,
                    1.2859729528427124,
                    0.26867058873176575,
                    1.4377145767211914,
                    -0.3183494508266449,
                    -2.4335579872131348,
                    0.5688485503196716,
                    0.6963405013084412,
                    -0.10776706039905548,
                    1.1532334089279175,
                    0.04484160989522934,
                    -0.28132790327072144,
                    1.7153130769729614,
                    -0.9475433230400085,
                    -1.523563027381897,
                    0.697260856628418,
                    0.05166049674153328,
                    -0.5766448378562927,
                    0.34972018003463745,
                    0.3895069658756256,
                    1.5289629697799683,
                    1.5712050199508667,
                    -0.20263820886611938,
                    -0.8461659550666809,
                    -0.1237773522734642,
                    -0.8024303317070007,
                    0.8556663393974304,
                    2.066312789916992,
                    -1.078842282295227,
                    0.09106650203466415,
                    -0.40925028920173645,
                    1.8511919975280762,
                    -0.3002515137195587,
                    0.7287613153457642,
                    1.7585291862487793,
                    1.2210464477539062,
                    0.6177923083305359,
                    -0.0775100588798523,
                    -0.20522858202457428,
                    0.1823454648256302,
                    -0.43630751967430115,
                    -0.2673409581184387,
                    0.288287878036499,
                    -0.07987204939126968,
                    0.2603395879268646,
                    -0.40767738223075867,
                    1.0244039297103882,
                    -0.11788950115442276,
                    -1.2965251207351685,
                    0.999742329120636,
                    0.7535539865493774,
                    0.3098156154155731,
                    0.2561999559402466,
                    -1.2319254875183105,
                    0.6093317270278931,
                    0.07370251417160034
                ],
                [
                    -1.4435631036758423,
                    0.49885356426239014,
                    -0.14435209333896637,
                    -0.7839009165763855,
                    -0.6558364629745483,
                    -0.24395304918289185,
                    1.3587570190429688,
                    -0.7627042531967163,
                    -0.7332417368888855,
                    0.5936764478683472,
                    -1.4170103073120117,
                    -0.2882559597492218,
                    -0.049395423382520676,
                    1.1497212648391724,
                    -1.2560513019561768,
                    1.0753403902053833,
                    1.0702948570251465,
                    -0.27252236008644104,
                    0.7603312134742737,
                    1.1988842487335205,
                    -0.1203136071562767,
                    0.011980502866208553,
                    -0.5852624177932739,
                    -0.6136146187782288,
                    0.4416520297527313,
                    0.02651483193039894,
                    0.03509940579533577,
                    -1.5071426630020142,
                    -0.8738506436347961,
                    -1.9505950212478638,
                    0.49565863609313965,
                    -0.7074938416481018,
                    1.282949686050415,
                    0.7928032875061035,
                    -0.49946361780166626,
                    -1.6462892293930054,
                    -1.1412025690078735,
                    1.9119576215744019,
                    -0.10672581195831299,
                    -0.5251609086990356,
                    0.04413863271474838,
                    0.6836336255073547,
                    0.28325843811035156,
                    1.4485535621643066,
                    -0.6103341579437256,
                    0.4250048100948334,
                    0.2725837230682373,
                    -0.8876999020576477,
                    -0.1386108100414276,
                    0.8756717443466187,
                    -1.916375756263733,
                    -0.4707125425338745,
                    -0.7765946984291077,
                    0.6267399191856384,
                    -0.5007899403572083,
                    -0.7926996350288391,
                    -0.6320270895957947,
                    -0.5069200396537781,
                    -0.5486438870429993,
                    -1.1369301080703735,
                    0.36464694142341614,
                    1.1928693056106567,
                    0.8255321979522705,
                    0.9836499094963074,
                    1.0650084018707275,
                    -0.5959195494651794,
                    -0.20067034661769867,
                    0.9784596562385559,
                    -0.43714669346809387,
                    0.8954276442527771,
                    -0.5832170248031616,
                    1.1584346294403076
                ]
            ]
        },
        {
            "_layer_num": 1,
            "activation": "tanh",
            "bias": [
                2.7933688163757324,
                0.620133101940155,
                -2.1539292335510254,
                -0.011297046206891537,
                -0.025292586535215378,
                0.6578925848007202,
                2.7296576499938965,
                0.5619995594024658,
                -2.957310676574707,
                0.2297813892364502,
                1.3037116527557373,
                -0.7309172749519348,
                0.8365861177444458,
                -1.599452018737793,
                -0.8622209429740906,
                0.8799358606338501,
                -1.457871913909912,
                -1.3869459629058838,
                1.7624191045761108,
                -0.48341917991638184,
                -1.0025649070739746,
                0.787866473197937,
                -0.9863080382347107,
                0.16197849810123444,
                -0.9359531402587891,
                -0.5982039570808411,
                2.1894161701202393,
                -0.5847617983818054,
                -1.141159176826477,
                0.41336628794670105,
                1.4245800971984863,
                0.3198549747467041,
                -0.724590539932251,
                -0.681052029132843,
                1.8371901512145996,
                -1.1428765058517456,
                -1.1054749488830566,
                -0.1964031159877777,
                0.2729727625846863,
                -0.4855993390083313,
                2.8768887519836426,
                4.025854587554932,
                -0.31061461567878723,
                1.3880850076675415,
                -0.4799290597438812,
                -2.5606586933135986,
                -1.8188443183898926,
                1.1016665697097778,
                0.40823546051979065,
                0.5809493660926819,
                0.6979969143867493,
                2.4593441486358643,
                0.4728125035762787,
                1.0444215536117554,
                -1.4517003297805786,
                -0.16237527132034302,
                0.8252140283584595,
                -2.105569839477539,
                1.5679174661636353,
                -0.027255868539214134,
                1.246569275856018,
                0.1949341744184494,
                1.1990689039230347,
                -1.9817551374435425,
                0.05180719494819641,
                0.15486636757850647,
                1.1861356496810913,
                -1.089096188545227,
                0.7008695006370544,
                -0.2917134165763855,
                1.3654990196228027,
                -1.818131685256958
            ],
            "size": [
                72,
                72
            ],
            "weights": [
                [
                    1.0507416725158691,
                    0.5185225009918213,
                    2.1275672912597656,
                    -0.14146308600902557,
                    -1.20668363571167,
                    0.4035893678665161,
                    -1.381630539894104,
                    0.6322449445724487,
                    0.7933534979820251,
                    0.5185946822166443,
                    -0.10523640364408493,
                    0.7218173742294312,
                    1.317530870437622,
                    -1.44093918800354,
                    -0.18766909837722778,
                    0.035728875547647476,
                    0.9474639892578125,
                    0.9717355370521545,
                    0.29146209359169006,
                    0.9038146734237671,
                    0.4688186049461365,
                    -0.07324133813381195,
                    -0.8647464513778687,
                    -0.09105391055345535,
                    1.3114298582077026,
                    -0.09158241003751755,
                    -0.749134361743927,
                    -0.5023236274719238,
                    0.3407234847545624,
                    -0.37429118156433105,
                    -0.4262833297252655,
                    -0.3786526918411255,
                    0.3128671944141388,
                    -0.07617547363042831,
                    -0.7399040460586548,
                    0.2474752813577652,
                    -0.2844948470592499,
                    -0.21513783931732178,
                    -0.5053657293319702,
                    -0.11714339256286621,
                    -1.0506340265274048,
                    0.2652612030506134,
                    0.0052956752479076385,
                    0.09866088628768921,
                    0.037129007279872894,
                    -0.8504891395568848,
                    0.7178469896316528,
                    0.6913814544677734,
                    -0.781456470489502,
                    -0.12570711970329285,
                    -0.8107172846794128,
                    -0.501797080039978,
                    -0.037311118096113205,
                    0.7353561520576477,
                    -0.43874990940093994,
                    1.2585437297821045,
                    -0.3226647675037384,
                    1.62458336353302,
                    1.4680598974227905,
                    -0.40558061003685,
                    -0.5731834769248962,
                    -0.4193775951862335,
                    0.17535054683685303,
                    -0.18786902725696564,
                    -0.5154348015785217,
                    -0.38821902871131897,
                    -1.2380329370498657,
                    0.0659325122833252,
                    -0.39458274841308594,
                    -0.1985853612422943,
                    -0.30120721459388733,
                    -0.20520104467868805
                ],
                [
                    0.4727156460285187,
                    1.044274091720581,
                    -0.017858756706118584,
                    0.7084300518035889,
                    0.06085040792822838,
                    0.1838892102241516,
                    -0.5627412796020508,
                    0.6835120320320129,
                    2.1549618244171143,
                    -0.14293767511844635,
                    1.3546260595321655,
                    0.37661951780319214,
                    0.09460313618183136,
                    1.4638006687164307,
                    1.022324800491333,
                    -0.11821702867746353,
                    0.7486498355865479,
                    2.1320178508758545,
                    -0.478172242641449,
                    -0.6875422596931458,
                    0.6309861540794373,
                    -0.5316462516784668,
                    0.47384801506996155,
                    1.650201439857483,
                    -0.09328319132328033,
                    1.0505281686782837,
                    1.0947635173797607,
                    -0.9249340295791626,
                    -0.1349160224199295,
                    0.2722509503364563,
                    0.07000355422496796,
                    0.24062283337116241,
                    -0.6438360810279846,
                    -0.3536608815193176,
                    -0.21711839735507965,
                    0.3766659200191498,
                    0.25940048694610596,
                    0.3783576786518097,
                    -0.15197208523750305,
                    -0.040398407727479935,
                    1.2726035118103027,
                    -0.41950085759162903,
                    -1.4931464195251465,
                    -1.4800820350646973,
                    -0.8363800048828125,
                    1.459774136543274,
                    0.19136515259742737,
                    -0.10108008980751038,
                    -2.253258228302002,
                    -0.3029586374759674,
                    -0.8838446736335754,
                    -1.2304389476776123,
                    -0.35345879197120667,
                    0.41189044713974,
                    -0.8093370199203491,
                    -0.3107893168926239,
                    -0.1796812117099762,
                    -0.35291075706481934,
                    0.009590765461325645,
                    0.648327648639679,
                    -0.8140465617179871,
                    -0.6723893880844116,
                    -0.4294935166835785,
                    0.12063577771186829,
                    0.416000634431839,
                    -0.9796639084815979,
                    -0.7700090408325195,
                    1.754095196723938,
                    -0.6095343828201294,
                    -0.23017406463623047,
                    -0.2581813633441925,
                    -1.581563949584961
                ],
                [
                    -0.2603987753391266,
                    0.10518652200698853,
                    0.7547634243965149,
                    -1.314866542816162,
                    2.0065901279449463,
                    0.4186722934246063,
                    0.6080964207649231,
                    -0.1276705116033554,
                    0.4503038823604584,
                    0.4629400372505188,
                    -0.506942629814148,
                    0.3685015141963959,
                    -0.8505839705467224,
                    -0.3629016876220703,
                    -0.67655348777771,
                    -1.7014408111572266,
                    0.3507828712463379,
                    0.15690642595291138,
                    0.6008944511413574,
                    -0.9243714809417725,
                    -0.9622958302497864,
                    -0.30372968316078186,
                    0.9118892550468445,
                    -0.01840798743069172,
                    -0.8144109845161438,
                    -0.7011990547180176,
                    0.23879660665988922,
                    0.9708587527275085,
                    -0.5862501263618469,
                    0.08131645619869232,
                    -0.06265626102685928,
                    -1.062596321105957,
                    -0.5646453499794006,
                    -0.3231068551540375,
                    0.6386457681655884,
                    0.24777132272720337,
                    0.13518880307674408,
                    0.4025876820087433,
                    0.452732652425766,
                    0.45174160599708557,
                    0.6593495011329651,
                    -0.007687030825763941,
                    -0.5212646126747131,
                    2.037444591522217,
                    0.6992552280426025,
                    -0.7230121493339539,
                    -0.6916030645370483,
                    -1.2864018678665161,
                    0.3855069577693939,
                    -0.7828468084335327,
                    0.0011268195230513811,
                    0.26056838035583496,
                    0.38571441173553467,
                    0.2781999111175537,
                    0.804000973701477,
                    0.5486880540847778,
                    0.159901961684227,
                    -0.18045581877231598,
                    0.8236295580863953,
                    0.4707290530204773,
                    -0.7302186489105225,
                    0.08134038001298904,
                    0.48390087485313416,
                    0.35406118631362915,
                    0.17738012969493866,
                    1.4090765714645386,
                    0.04058090224862099,
                    -0.34580570459365845,
                    0.7025986909866333,
                    -0.6865552663803101,
                    -0.17616397142410278,
                    0.5670446753501892
                ],
                [
                    -1.539103627204895,
                    1.554933786392212,
                    -1.2724591493606567,
                    0.0680336132645607,
                    0.037516191601753235,
                    0.08281930536031723,
                    0.7493435740470886,
                    1.0118255615234375,
                    0.8254345655441284,
                    1.471327781677246,
                    -0.11933671683073044,
                    0.9085410237312317,
                    0.13870753347873688,
                    -1.2043906450271606,
                    1.7949634790420532,
                    -0.7740602493286133,
                    -1.151218056678772,
                    0.028364194557070732,
                    -0.3781189024448395,
                    0.8447432518005371,
                    -1.8246018886566162,
                    -0.5027926564216614,
                    -0.27008482813835144,
                    -0.4107199013233185,
                    1.28287935256958,
                    -1.073326587677002,
                    0.5112735629081726,
                    -0.300565242767334,
                    -0.12686599791049957,
                    -0.6364787220954895,
                    -1.0461050271987915,
                    0.08376234024763107,
                    -0.5845035314559937,
                    -0.4025135338306427,
                    0.5820651650428772,
                    -0.769978940486908,
                    0.03749428689479828,
                    -1.0769116878509521,
                    -0.2676692306995392,
                    0.2822093665599823,
                    -0.3489673137664795,
                    0.23918457329273224,
                    -0.6305033564567566,
                    2.3609817028045654,
                    0.48104631900787354,
                    -1.9206757545471191,
                    -0.43339043855667114,
                    -0.6968815326690674,
                    0.4631919264793396,
                    0.27591508626937866,
                    1.6703572273254395,
                    -2.0237390995025635,
                    0.1366419643163681,
                    0.5094988942146301,
                    1.3768625259399414,
                    1.0290911197662354,
                    0.7162999510765076,
                    -1.0091584920883179,
                    -0.10620509088039398,
                    0.21024197340011597,
                    -2.0956451892852783,
                    -2.0892436504364014,
                    0.154610738158226,
                    0.6020323634147644,
                    -2.4403042793273926,
                    0.5497738122940063,
                    -0.28192195296287537,
                    -1.7214092016220093,
                    0.9506728649139404,
                    1.005025029182434,
                    0.1325865238904953,
                    -0.594287097454071
                ],
                [
                    1.588012933731079,
                    0.2881757318973541,
                    -0.3393213450908661,
                    -0.17866480350494385,
                    -0.21709738671779633,
                    0.6436888575553894,
                    0.656725287437439,
                    -0.9586629867553711,
                    -1.3770052194595337,
                    -1.23728346824646,
                    0.049873221665620804,
                    0.8646023273468018,
                    0.9325203895568848,
                    -0.9129174947738647,
                    1.0146172046661377,
                    0.812924325466156,
                    -0.8959302306175232,
                    -0.812790036201477,
                    -0.2073628008365631,
                    0.2431085854768753,
                    -0.8484416007995605,
                    -0.5352823138237,
                    -0.4252331554889679,
                    -0.5107477307319641,
                    0.7387300729751587,
                    0.19163362681865692,
                    -0.02246149815618992,
                    -0.23437964916229248,
                    0.14797504246234894,
                    -1.0728470087051392,
                    1.6625207662582397,
                    1.6668760776519775,
                    0.14481040835380554,
                    0.8160543441772461,
                    0.6094669103622437,
                    -1.184496521949768,
                    -0.7645548582077026,
                    0.7992972135543823,
                    1.8550187349319458,
                    -0.7339277863502502,
                    -0.6540781855583191,
                    1.228847622871399,
                    0.4887482821941376,
                    1.6742069721221924,
                    0.282365083694458,
                    -1.6139363050460815,
                    -0.7387518882751465,
                    -0.8688613772392273,
                    -0.36757588386535645,
                    0.44985443353652954,
                    0.01857396773993969,
                    -0.9645159244537354,
                    0.20475180447101593,
                    0.8182105422019958,
                    0.6689016819000244,
                    -0.6660031080245972,
                    0.8223981261253357,
                    -0.446327805519104,
                    0.573787271976471,
                    0.8865950703620911,
                    0.4087026119232178,
                    -0.6446965336799622,
                    0.13426649570465088,
                    -0.2875717878341675,
                    -0.20563749969005585,
                    -0.5843926072120667,
                    0.4894041121006012,
                    -1.1917792558670044,
                    2.2182955741882324,
                    -0.3581082224845886,
                    -0.6839140057563782,
                    0.08234535157680511
                ],
                [
                    -0.7824328541755676,
                    -0.1122363731265068,
                    -0.12475167959928513,
                    -0.6139329671859741,
                    -0.20626774430274963,
                    -0.4960748553276062,
                    -0.2209159880876541,
                    -0.44491615891456604,
                    1.0349135398864746,
                    0.3073018193244934,
                    -0.834524393081665,
                    -0.6724664568901062,
                    -0.5006698966026306,
                    0.9230810403823853,
                    -0.8763691186904907,
                    -0.4682244658470154,
                    0.8468806743621826,
                    -0.2232382744550705,
                    0.3101620376110077,
                    0.9434705376625061,
                    0.09227056801319122,
                    0.16067631542682648,
                    -0.7631506323814392,
                    0.38535237312316895,
                    0.014285346493124962,
                    0.09317950159311295,
                    1.0772043466567993,
                    -0.31641608476638794,
                    0.33147749304771423,
                    0.15185178816318512,
                    -0.4442214369773865,
                    -0.9726153016090393,
                    2.0877487659454346,
                    0.6615896224975586,
                    -0.6747124195098877,
                    0.9802650809288025,
                    0.07675477117300034,
                    -0.7993937730789185,
                    -0.006440530996769667,
                    0.4807521402835846,
                    1.828033685684204,
                    -1.401320457458496,
                    0.9099121689796448,
                    -0.6866644024848938,
                    0.00020751752890646458,
                    1.2643612623214722,
                    0.27121829986572266,
                    0.024845469743013382,
                    -0.317684143781662,
                    0.7613716125488281,
                    -0.936641275882721,
                    0.6019896864891052,
                    0.2644728124141693,
                    -0.17973899841308594,
                    0.0594552606344223,
                    0.372287392616272,
                    -0.543158233165741,
                    -0.6028355360031128,
                    0.29296013712882996,
                    -0.039640359580516815,
                    -0.7429224252700806,
                    -1.6565356254577637,
                    0.6425617933273315,
                    0.45129114389419556,
                    -0.47658777236938477,
                    0.6960502862930298,
                    -0.7295519113540649,
                    -0.7208824753761292,
                    0.8225762844085693,
                    -0.6360669136047363,
                    -1.0730562210083008,
                    -0.3567011058330536
                ],
                [
                    1.359349250793457,
                    -0.2982349097728729,
                    0.033085718750953674,
                    -0.2091461569070816,
                    -0.05214190110564232,
                    -0.5726656913757324,
                    -1.7536394596099854,
                    -0.19050312042236328,
                    -0.39194968342781067,
                    -0.4784065783023834,
                    -0.6092010140419006,
                    0.7507524490356445,
                    -0.5415282249450684,
                    -0.29357755184173584,
                    -0.43628454208374023,
                    0.35609525442123413,
                    -0.41670703887939453,
                    0.954547107219696,
                    -0.6815508604049683,
                    -0.3808671236038208,
                    0.06067432835698128,
                    -1.3608863353729248,
                    -0.6093630790710449,
                    0.8138530254364014,
                    1.3836913108825684,
                    -0.136674702167511,
                    1.0598098039627075,
                    0.9026040434837341,
                    0.6300072073936462,
                    0.43469908833503723,
                    -0.5370181202888489,
                    -0.03278476744890213,
                    1.7129883766174316,
                    -0.2574397921562195,
                    0.5944720506668091,
                    -0.29948267340660095,
                    -0.6411195993423462,
                    -0.7212384939193726,
                    -0.6636852025985718,
                    0.22968418896198273,
                    0.4722857177257538,
                    -0.45704132318496704,
                    0.30363020300865173,
                    -0.19569015502929688,
                    0.23637406527996063,
                    -0.00391058623790741,
                    1.8430428504943848,
                    -0.2546294033527374,
                    0.6340786218643188,
                    -0.0447356291115284,
                    0.26039648056030273,
                    -1.3760666847229004,
                    -1.180723786354065,
                    0.04574233666062355,
                    0.8987970352172852,
                    -0.5800861120223999,
                    -0.007703875657171011,
                    1.2958147525787354,
                    0.10667169094085693,
                    0.007684611715376377,
                    0.936863124370575,
                    -0.7871652841567993,
                    -0.12494151294231415,
                    0.4048643708229065,
                    0.8642773628234863,
                    0.6496789455413818,
                    -0.5959336161613464,
                    0.89020174741745,
                    1.3889001607894897,
                    -0.500051736831665,
                    -0.09609273821115494,
                    1.1122524738311768
                ],
                [
                    -1.8468363285064697,
                    1.1603193283081055,
                    0.43726325035095215,
                    -0.666484534740448,
                    -1.323686957359314,
                    0.3147296905517578,
                    0.6849128007888794,
                    1.7140735387802124,
                    0.44418102502822876,
                    0.3225494921207428,
                    0.6612606048583984,
                    0.5038670301437378,
                    -0.6943198442459106,
                    0.5624175071716309,
                    -1.2653367519378662,
                    -0.8429524898529053,
                    -0.41249823570251465,
                    0.3740646541118622,
                    0.23995839059352875,
                    0.6149487495422363,
                    -0.17259284853935242,
                    0.18633031845092773,
                    -0.7211136221885681,
                    0.6821005344390869,
                    -0.5795808434486389,
                    0.1521606594324112,
                    0.9079685807228088,
                    0.5415995121002197,
                    -0.033727843314409256,
                    -0.47673946619033813,
                    -0.8454319834709167,
                    -0.5020901560783386,
                    -0.6807485818862915,
                    0.054578330367803574,
                    -0.2248816043138504,
                    -0.4681335985660553,
                    0.3706728518009186,
                    -0.5274947285652161,
                    0.6766691207885742,
                    0.19430634379386902,
                    -0.965387225151062,
                    0.20941367745399475,
                    0.14794877171516418,
                    1.6014341115951538,
                    -1.1163547039031982,
                    -0.18246757984161377,
                    0.6829717755317688,
                    0.3090365529060364,
                    0.033965662121772766,
                    -0.9595616459846497,
                    0.20752999186515808,
                    0.7595359683036804,
                    0.3582701086997986,
                    1.794187307357788,
                    0.4933757781982422,
                    -0.6353809833526611,
                    -1.6178661584854126,
                    0.3856024742126465,
                    -0.0823604017496109,
                    0.11764871329069138,
                    -0.8534202575683594,
                    1.923825979232788,
                    0.5840848088264465,
                    0.020886478945612907,
                    -0.25744637846946716,
                    -1.2928234338760376,
                    -1.306860089302063,
                    1.1545451879501343,
                    -1.1353676319122314,
                    -1.384386658668518,
                    0.9736725091934204,
                    0.2989759147167206
                ],
                [
                    1.5148355960845947,
                    -1.1587435007095337,
                    -1.517713189125061,
                    -0.05171966552734375,
                    -0.5513470768928528,
                    -0.12899558246135712,
                    -0.5152475237846375,
                    -0.32690995931625366,
                    0.3769757151603699,
                    0.3327399492263794,
                    -0.055836860090494156,
                    -0.7782859802246094,
                    0.46587735414505005,
                    -1.6802146434783936,
                    0.5446259379386902,
                    -0.2606164216995239,
                    -1.2861522436141968,
                    0.10151483118534088,
                    -0.31130045652389526,
                    -0.06340745836496353,
                    -1.766946792602539,
                    -0.39049074053764343,
                    1.205289363861084,
                    -0.7537450790405273,
                    -1.1739609241485596,
                    -0.9019138813018799,
                    0.42685458064079285,
                    0.06866075098514557,
                    0.8654249310493469,
                    -0.9108285307884216,
                    -0.28249698877334595,
                    -0.9278876781463623,
                    -0.37532806396484375,
                    0.31968092918395996,
                    -0.16955266892910004,
                    -1.854875922203064,
                    -0.6517007946968079,
                    -0.4086001515388489,
                    0.10580672323703766,
                    0.47787290811538696,
                    1.1133676767349243,
                    0.763725221157074,
                    -0.34000423550605774,
                    1.0821783542633057,
                    0.44242680072784424,
                    -2.758923292160034,
                    0.08057750016450882,
                    -0.6015873551368713,
                    0.24589093029499054,
                    -0.07083787769079208,
                    1.0392576456069946,
                    0.892102062702179,
                    -0.019889678806066513,
                    -0.7683793902397156,
                    0.10588313639163971,
                    -0.9621866345405579,
                    0.6550612449645996,
                    -0.8846150040626526,
                    -0.38890913128852844,
                    -0.47646215558052063,
                    0.6162782311439514,
                    0.42131462693214417,
                    -0.20755940675735474,
                    -0.080174021422863,
                    -1.4565773010253906,
                    0.8050283789634705,
                    -0.6751726865768433,
                    -0.8278926610946655,
                    0.0049908957444131374,
                    0.6882181167602539,
                    -0.13480213284492493,
                    0.9722179770469666
                ],
                [
                    -1.202100396156311,
                    -0.8283249735832214,
                    1.4709311723709106,
                    -0.31263941526412964,
                    -0.578281044960022,
                    -0.33360594511032104,
                    0.1909376084804535,
                    0.24343399703502655,
                    -0.2468278408050537,
                    1.2466213703155518,
                    0.7928794622421265,
                    0.7448464632034302,
                    0.5636042356491089,
                    0.17269320785999298,
                    -0.9223955273628235,
                    0.6335973739624023,
                    -1.036017656326294,
                    1.0283856391906738,
                    0.36919286847114563,
                    -0.5002840161323547,
                    0.6392086148262024,
                    0.44141560792922974,
                    0.2935676574707031,
                    -0.3549669682979584,
                    -0.8276620507240295,
                    0.5770443677902222,
                    -0.5756068825721741,
                    -0.08274348080158234,
                    -0.0999423936009407,
                    0.31695234775543213,
                    -1.2207772731781006,
                    -0.855974555015564,
                    1.0028090476989746,
                    -0.21683596074581146,
                    0.5953423380851746,
                    -0.9538939595222473,
                    -0.559633731842041,
                    0.5410156846046448,
                    -0.3773185908794403,
                    -0.5094147324562073,
                    -0.009802385233342648,
                    -0.24146197736263275,
                    -1.6514605283737183,
                    -1.043705701828003,
                    -0.6968131065368652,
                    0.8954805731773376,
                    -1.2982360124588013,
                    0.5141826272010803,
                    0.3451670706272125,
                    -0.2360221892595291,
                    -1.3252809047698975,
                    -0.4315487742424011,
                    -0.5318496227264404,
                    1.3476463556289673,
                    0.1472080498933792,
                    -0.8908663988113403,
                    -0.452679842710495,
                    0.5996048450469971,
                    1.7427784204483032,
                    -0.27089494466781616,
                    -1.7261077165603638,
                    -2.6887400150299072,
                    0.2960030436515808,
                    0.12068946659564972,
                    -2.3983097076416016,
                    0.4796152114868164,
                    -2.0642569065093994,
                    0.9672760367393494,
                    -0.7875741720199585,
                    0.6521250009536743,
                    -0.11728785932064056,
                    0.4765823781490326
                ],
                [
                    4.191856384277344,
                    -0.013831611722707748,
                    -1.1327476501464844,
                    0.1485433131456375,
                    -0.0855979397892952,
                    1.742959976196289,
                    -1.9176726341247559,
                    -0.695923388004303,
                    1.1948291063308716,
                    0.26859331130981445,
                    0.9221741557121277,
                    0.7422816157341003,
                    1.1398440599441528,
                    2.0921897888183594,
                    -0.06798285990953445,
                    0.4970063865184784,
                    -1.5713520050048828,
                    2.356788396835327,
                    -1.0316632986068726,
                    0.07434990257024765,
                    2.1885364055633545,
                    1.4907280206680298,
                    0.26401883363723755,
                    -0.6869980096817017,
                    -0.5462779998779297,
                    -0.8180660009384155,
                    -0.4950137734413147,
                    1.9397259950637817,
                    -0.8074014782905579,
                    0.6991109251976013,
                    0.1189553514122963,
                    0.7967525124549866,
                    -0.16003738343715668,
                    0.5838680863380432,
                    3.818042516708374,
                    1.7239961624145508,
                    1.3915616273880005,
                    0.2521442770957947,
                    -0.3591817617416382,
                    -1.191598653793335,
                    -0.1973094642162323,
                    -0.7705979943275452,
                    0.02319551631808281,
                    -0.7454456090927124,
                    -2.5161843299865723,
                    0.7763707637786865,
                    -3.476750373840332,
                    -0.11851552128791809,
                    -1.274779200553894,
                    -0.1744505912065506,
                    -0.6963140964508057,
                    0.6447243094444275,
                    -0.6100289821624756,
                    0.31207236647605896,
                    -0.7531375885009766,
                    1.5399117469787598,
                    -0.5179210901260376,
                    -1.0098057985305786,
                    0.756995677947998,
                    1.0747770071029663,
                    -1.6490612030029297,
                    -0.2569367587566376,
                    1.0292805433273315,
                    0.20774109661579132,
                    1.3532490730285645,
                    1.6045275926589966,
                    2.4824562072753906,
                    1.9774268865585327,
                    0.616646945476532,
                    1.2990541458129883,
                    4.117691993713379,
                    -0.7750552296638489
                ],
                [
                    -0.48583340644836426,
                    -0.5447980761528015,
                    1.6810261011123657,
                    -0.8344393968582153,
                    -1.7481945753097534,
                    -0.707940936088562,
                    0.5002570152282715,
                    0.6226563453674316,
                    1.651615023612976,
                    1.142604947090149,
                    0.6800888776779175,
                    -1.3803784847259521,
                    -0.43193483352661133,
                    -0.03054666891694069,
                    -0.4825202226638794,
                    0.31733256578445435,
                    0.1960553526878357,
                    -1.380272388458252,
                    -0.3217034637928009,
                    -0.7153120636940002,
                    0.698306143283844,
                    1.4602490663528442,
                    -0.2538781762123108,
                    1.2808512449264526,
                    1.7923896312713623,
                    1.1014372110366821,
                    -0.2530514597892761,
                    -0.8425303101539612,
                    0.6067162752151489,
                    0.4857342839241028,
                    -0.7198129296302795,
                    -1.2797017097473145,
                    -0.8750605583190918,
                    0.4664863049983978,
                    0.6409779191017151,
                    0.5779961943626404,
                    0.8236198425292969,
                    -0.38557782769203186,
                    0.7475711703300476,
                    -0.8524854183197021,
                    -1.4612756967544556,
                    0.2548140287399292,
                    -0.6562204360961914,
                    0.19331753253936768,
                    -1.5460504293441772,
                    1.1890558004379272,
                    -1.2407734394073486,
                    -1.4164443016052246,
                    -0.32176336646080017,
                    -0.33958980441093445,
                    0.3537611961364746,
                    0.03773155063390732,
                    -0.1818370819091797,
                    0.7250856161117554,
                    0.21215415000915527,
                    0.24415463209152222,
                    -0.485251247882843,
                    -0.15944261848926544,
                    0.29845380783081055,
                    -0.3239743709564209,
                    0.4680992364883423,
                    -0.3370795249938965,
                    0.040528587996959686,
                    -0.46187716722488403,
                    -1.3224903345108032,
                    -0.20657986402511597,
                    1.9776984453201294,
                    0.06664393842220306,
                    0.2471393197774887,
                    0.1782342940568924,
                    -0.5998501777648926,
                    -0.31750375032424927
                ],
                [
                    -0.8617346882820129,
                    -0.7154297828674316,
                    -0.6098511219024658,
                    1.0619488954544067,
                    -0.4922081530094147,
                    -0.4696161448955536,
                    -1.1043111085891724,
                    0.11565245687961578,
                    0.9016803503036499,
                    0.6461938619613647,
                    0.675710141658783,
                    -0.2038698047399521,
                    0.3517739474773407,
                    -2.028519630432129,
                    -0.8064947128295898,
                    1.0580052137374878,
                    0.03948895260691643,
                    -0.12790115177631378,
                    0.3083382844924927,
                    -0.9119267463684082,
                    0.6953496336936951,
                    -0.3755735754966736,
                    -1.2719744443893433,
                    0.7377278208732605,
                    -2.2872819900512695,
                    1.3388051986694336,
                    -0.6450377702713013,
                    -0.7610225081443787,
                    1.0519750118255615,
                    0.8329106569290161,
                    1.0658433437347412,
                    -1.186264991760254,
                    1.1954174041748047,
                    0.4395316243171692,
                    1.801592230796814,
                    -2.402970790863037,
                    0.21339941024780273,
                    -0.42297396063804626,
                    -0.39999598264694214,
                    -0.5850651860237122,
                    -0.006441917270421982,
                    0.3005048334598541,
                    0.015330726280808449,
                    -0.7104341387748718,
                    -1.462615728378296,
                    -1.122498869895935,
                    -0.8248568773269653,
                    -0.36420369148254395,
                    -0.36986926198005676,
                    0.12040932476520538,
                    0.6966344118118286,
                    0.2028297632932663,
                    -0.5108481645584106,
                    1.3296557664871216,
                    -0.5448922514915466,
                    0.24064981937408447,
                    -0.9075316190719604,
                    2.0151519775390625,
                    -0.7191311120986938,
                    1.0550843477249146,
                    3.3757681846618652,
                    -0.586981475353241,
                    0.411201149225235,
                    0.29954853653907776,
                    -1.4826970100402832,
                    -0.3474377989768982,
                    1.205307126045227,
                    0.33408504724502563,
                    -0.6872432827949524,
                    0.6427420377731323,
                    -0.14581488072872162,
                    -0.19841264188289642
                ],
                [
                    -1.2079992294311523,
                    -0.31096282601356506,
                    1.3469359874725342,
                    -0.1439542919397354,
                    0.4190189242362976,
                    -0.6730432510375977,
                    -0.35237178206443787,
                    1.0776393413543701,
                    -0.003909044433385134,
                    1.9926705360412598,
                    0.2817891240119934,
                    0.9750710129737854,
                    -0.5988317131996155,
                    0.7085313200950623,
                    -0.7382259368896484,
                    -0.08803261816501617,
                    0.2179587185382843,
                    -0.614033579826355,
                    0.48738446831703186,
                    -1.2260240316390991,
                    0.24489180743694305,
                    0.09450013935565948,
                    -0.37853121757507324,
                    0.44396764039993286,
                    1.5243279933929443,
                    0.02700028009712696,
                    -0.06517984718084335,
                    -0.6239176392555237,
                    -1.7847398519515991,
                    0.0056122043170034885,
                    -1.4357635974884033,
                    -2.008805274963379,
                    -0.0897943452000618,
                    0.1301758587360382,
                    0.35499173402786255,
                    3.310302495956421,
                    0.4379146695137024,
                    0.2642185688018799,
                    -0.035576917231082916,
                    0.7868545055389404,
                    0.5046128034591675,
                    0.6375789046287537,
                    0.1685974895954132,
                    0.9288908243179321,
                    0.6661302447319031,
                    0.612250566482544,
                    1.2356750965118408,
                    0.036172330379486084,
                    -0.602792501449585,
                    -1.0445094108581543,
                    0.14424502849578857,
                    -0.40773168206214905,
                    0.6234726309776306,
                    0.27148187160491943,
                    0.5243068337440491,
                    -0.8829125165939331,
