{
    "iosize": [
        18,
        9
    ],
    "layers": [
        {
            "_layer_num": 0,
            "activation": "relu",
            "bias": [
                -0.21051116287708282,
                0.7375980019569397,
                0.6006641983985901,
                -1.7098758220672607,
                0.9567528367042542,
                0.8653918504714966,
                -1.2116920948028564,
                0.18027538061141968,
                0.24835723638534546,
                -0.9734375476837158,
                -0.7497167587280273,
                0.6583332419395447,
                0.28661102056503296,
                -0.19419126212596893,
                -0.7138548493385315,
                -1.5847936868667603,
                0.6455364227294922,
                -0.08707892149686813,
                -1.6546274423599243,
                -1.2110989093780518,
                0.0697173997759819,
                -0.8110337853431702,
                -0.08978971093893051,
                0.8200795650482178,
                0.852547287940979,
                0.3522486984729767,
                -0.33586883544921875,
                0.2771623432636261,
                0.5727299451828003,
                0.15416349470615387,
                0.6964330077171326,
                -0.6146872043609619,
                0.2708635628223419,
                -1.0317184925079346,
                -0.34424084424972534,
                0.3746642470359802,
                -0.48770591616630554,
                -0.2813180088996887,
                0.11816097795963287,
                1.023850679397583,
                -0.5137689113616943,
                -0.14214405417442322,
                0.5509036183357239,
                0.2169656753540039,
                -0.345631867647171,
                -1.346680998802185,
                -1.373155951499939,
                -0.057546570897102356,
                -0.009706045500934124,
                -0.2554152011871338,
                -0.06824643909931183,
                0.7105112671852112,
                0.8021636009216309,
                -1.1912258863449097,
                -1.8991450071334839,
                0.020779024809598923,
                -0.06398239731788635,
                -1.408176302909851,
                -1.309786319732666,
                -0.00549483485519886,
                -3.7321860790252686,
                0.09152206033468246,
                0.5084052681922913,
                0.028909683227539062,
                -1.602640986442566,
                -0.24375022947788239,
                -1.2375001907348633,
                -0.8634604811668396,
                0.8323383331298828,
                -0.8769455552101135,
                0.19198375940322876,
                -1.0316264629364014
            ],
            "size": [
                18,
                72
            ],
            "weights": [
                [
                    -1.829416760301683e-05,
                    -0.12506310641765594,
                    -0.333105206489563,
                    -0.018738238140940666,
                    0.0901791900396347,
                    -0.2491462379693985,
                    0.01892034523189068,
                    -0.041768476366996765,
                    0.047244954854249954,
                    -0.012799554504454136,
                    0.05587880685925484,
                    0.3222718834877014,
                    0.2632392644882202,
                    -0.029321201145648956,
                    0.053825244307518005,
                    -0.008839696645736694,
                    -0.08148286491632462,
                    -0.4685358703136444,
                    0.0174958948045969,
                    -0.03577174246311188,
                    0.2532047927379608,
                    0.022447891533374786,
                    -0.003911259118467569,
                    -0.548589289188385,
                    -0.8315341472625732,
                    -0.22947624325752258,
                    0.029769442975521088,
                    -0.21428938210010529,
                    -0.5027588605880737,
                    0.018449701368808746,
                    -0.4080432951450348,
                    -0.010002645663917065,
                    0.005088973790407181,
                    -0.05825401470065117,
                    0.021021177992224693,
                    0.032798103988170624,
                    -0.009506589733064175,
                    0.09136264026165009,
                    0.14660055935382843,
                    -0.2111884206533432,
                    -0.047728102654218674,
                    -0.7029573321342468,
                    -0.12053108960390091,
                    -0.1017903983592987,
                    0.13657566905021667,
                    -0.03691830486059189,
                    -0.009970293380320072,
                    0.6248506903648376,
                    -0.003775088582187891,
                    -0.006180066615343094,
                    -0.046314261853694916,
                    -0.08682115375995636,
                    -0.0919334664940834,
                    0.02829728275537491,
                    -0.0381363108754158,
                    -0.69320148229599,
                    -0.533757209777832,
                    -0.012925799004733562,
                    0.0209675095975399,
                    -0.22414706647396088,
                    -0.005932466126978397,
                    0.23788517713546753,
                    -0.6361774206161499,
                    -0.26314228773117065,
                    0.03605389595031738,
                    0.009560583159327507,
                    0.017400670796632767,
                    0.04779600352048874,
                    0.39658451080322266,
                    -0.0031939034815877676,
                    -0.06530094146728516,
                    0.04267555847764015
                ],
                [
                    0.017873207107186317,
                    0.2123786360025406,
                    0.20325039327144623,
                    0.05987340956926346,
                    0.05852530524134636,
                    0.34748023748397827,
                    -0.023908672854304314,
                    0.23647503554821014,
                    0.6089644432067871,
                    -0.0030220961198210716,
                    0.021150682121515274,
                    -0.11671965569257736,
                    -0.012214191257953644,
                    -0.006921640131622553,
                    -0.027132755145430565,
                    0.04126749560236931,
                    0.07162518799304962,
                    0.45599740743637085,
                    -0.02029542066156864,
                    -0.022730238735675812,
                    0.08113569021224976,
                    0.019341351464390755,
                    -0.005996119696646929,
                    0.3915807902812958,
                    -0.44373074173927307,
                    -0.12339373677968979,
                    0.031066467985510826,
                    -0.28231561183929443,
                    0.1375655233860016,
                    0.4084404408931732,
                    -0.022410832345485687,
                    -0.017467331141233444,
                    -0.43117624521255493,
                    0.020287198945879936,
                    -0.021967845037579536,
                    -0.1718248873949051,
                    0.0005035309586673975,
                    0.21213001012802124,
                    0.2518283724784851,
                    -0.0715692862868309,
                    0.03817654028534889,
                    0.42500558495521545,
                    -0.387351930141449,
                    -0.0849759578704834,
                    0.48501238226890564,
                    -0.01096066553145647,
                    0.02590470388531685,
                    -0.4002266228199005,
                    0.7682172656059265,
                    0.03644903749227524,
                    -0.004351763520389795,
                    -0.5415752530097961,
                    0.4174920916557312,
                    -0.01225935760885477,
                    0.01592184603214264,
                    0.5001112222671509,
                    -0.47276225686073303,
                    -0.012650934047996998,
                    0.025714410468935966,
                    -0.1513996720314026,
                    0.01560218632221222,
                    0.0557110421359539,
                    0.22394803166389465,
                    0.5394200682640076,
                    -0.04729508236050606,
                    -0.006560586392879486,
                    -0.02767416276037693,
                    0.01304350234568119,
                    -0.12783662974834442,
                    0.0012878845445811749,
                    -0.7181990146636963,
                    -0.0038048126734793186
                ],
                [
                    0.05510110780596733,
                    0.2266360968351364,
                    -0.3262008726596832,
                    -0.01985124498605728,
                    0.3351415991783142,
                    -0.08583192527294159,
                    0.010290194302797318,
                    0.20340706408023834,
                    0.21221424639225006,
                    0.0014729468384757638,
                    -0.023235343396663666,
                    -0.6773320436477661,
                    0.05231466516852379,
                    -0.010196426883339882,
                    0.005997423082590103,
                    0.013011052273213863,
                    -0.7706872820854187,
                    0.48907411098480225,
                    0.017027391120791435,
                    -0.029213285073637962,
                    0.16910581290721893,
                    -0.018782608211040497,
                    0.04451092332601547,
                    -0.4892785847187042,
                    0.25522157549858093,
                    0.2584082782268524,
                    0.004245223943144083,
                    -0.0789622962474823,
                    -0.0648856833577156,
                    -0.1080244779586792,
                    -0.28792867064476013,
                    -0.07734346389770508,
                    -0.09514456242322922,
                    0.006280095316469669,
                    0.03924310952425003,
                    -0.10594010353088379,
                    -0.026251042261719704,
                    0.19001664221286774,
                    -0.6365722417831421,
                    -0.09376540035009384,
                    0.0026751267723739147,
                    0.2535567283630371,
                    0.6933934688568115,
                    0.3302188813686371,
                    -0.45435047149658203,
                    -0.02158772014081478,
                    -0.0356828011572361,
                    0.010341007262468338,
                    -0.5333283543586731,
                    -0.004082762636244297,
                    0.5007933974266052,
                    0.2689993977546692,
                    -0.02095673605799675,
                    0.020639915019273758,
                    -0.0219200998544693,
                    0.22575727105140686,
                    -0.6342371702194214,
                    0.03166230395436287,
                    -0.00956368912011385,
                    0.07311984896659851,
                    0.04408707842230797,
                    -0.23564085364341736,
                    0.2051779329776764,
                    0.8305215239524841,
                    -0.023784708231687546,
                    0.022290712222456932,
                    -0.061290305107831955,
                    -0.005304224789142609,
                    0.3566582202911377,
                    -0.015883585438132286,
                    0.5810728669166565,
                    0.013826986774802208
                ],
                [
                    -0.005589914508163929,
                    -0.07995422184467316,
                    0.27162525057792664,
                    0.004128484986722469,
                    -0.10928533971309662,
                    0.058555688709020615,
                    -0.011164659634232521,
                    0.36297520995140076,
                    0.5014664530754089,
                    0.021737001836299896,
                    -0.06631530821323395,
                    0.21114149689674377,
                    0.05333178862929344,
                    0.060639433562755585,
                    -0.009781952016055584,
                    0.006451663561165333,
                    0.41106897592544556,
                    0.4358093738555908,
                    0.013653004541993141,
                    -0.0178542323410511,
                    -0.7442424297332764,
                    -0.011121930554509163,
                    -0.05639331787824631,
                    -0.3700730800628662,
                    -0.0007969491998665035,
                    -0.06819873303174973,
                    -0.03767641261219978,
                    0.6934568285942078,
                    -0.31584617495536804,
                    0.3141343891620636,
                    0.06502524018287659,
                    8.269945828942582e-05,
                    0.3357318043708801,
                    -0.02720923162996769,
                    -0.01698528602719307,
                    0.07959751039743423,
                    0.03176756575703621,
                    0.02042306400835514,
                    0.5494688749313354,
                    -0.23707368969917297,
                    0.03566649556159973,
                    0.6084441542625427,
                    0.45874467492103577,
                    0.4574364125728607,
                    0.10916148126125336,
                    0.01720835082232952,
                    -0.0038764039054512978,
                    0.4146209955215454,
                    0.21950459480285645,
                    -0.004486964084208012,
                    0.3027906119823456,
                    -0.24301402270793915,
                    -0.5630618333816528,
                    0.06037887558341026,
                    -0.00874373409897089,
                    -0.7472211122512817,
                    0.5721549987792969,
                    0.007125602103769779,
                    0.015498182736337185,
                    0.17447559535503387,
                    -0.024815116077661514,
                    -0.18803556263446808,
                    0.7740821838378906,
                    -0.130096435546875,
                    -0.01426258496940136,
                    0.02501167729496956,
                    0.024805909022688866,
                    -0.015139116905629635,
                    0.2747625708580017,
                    -0.023962780833244324,
                    0.2615494728088379,
                    0.011412532068789005
                ],
                [
                    -0.02197802998125553,
                    0.2047709971666336,
                    -0.16807495057582855,
                    0.025704409927129745,
                    -0.369296133518219,
                    -0.6438456773757935,
                    -0.052303947508335114,
                    -0.25309064984321594,
                    -0.057665832340717316,
                    -0.05219179764389992,
                    -0.003769345348700881,
                    0.027997402474284172,
                    -0.10901562869548798,
                    0.003737836144864559,
                    0.034778885543346405,
                    0.029636261984705925,
                    0.486008882522583,
                    0.3914680778980255,
                    0.047455932945013046,
                    -0.02242916077375412,
                    -0.38544365763664246,
                    0.02700856328010559,
                    0.019159186631441116,
                    -0.3747456669807434,
                    -0.19640789926052094,
                    0.33427488803863525,
                    -0.019869990646839142,
                    -0.4504644274711609,
                    0.4009769856929779,
                    -0.06584848463535309,
                    0.10418805480003357,
                    0.003563808975741267,
                    -0.6897458434104919,
                    -0.004252063110470772,
                    -0.013960168696939945,
                    -0.3121524453163147,
                    0.0014482695842161775,
                    0.12408246845006943,
                    -0.6686403155326843,
                    0.017081867903470993,
                    -0.01813405193388462,
                    -0.4690864384174347,
                    -0.34825193881988525,
                    0.2490934282541275,
                    -0.32147231698036194,
                    0.004907263908535242,
                    0.005553687456995249,
                    -0.19157983362674713,
                    0.29469507932662964,
                    -0.057669125497341156,
                    0.2718782126903534,
                    0.12252786010503769,
                    0.07783021032810211,
                    -0.03701568767428398,
                    -0.003536266041919589,
                    0.4942358434200287,
                    0.5183643102645874,
                    0.008065240457654,
                    0.018800504505634308,
                    -0.4996073842048645,
                    0.014100497588515282,
                    0.12030135840177536,
                    0.3157256543636322,
                    -0.7034465670585632,
                    -0.04521209001541138,
                    0.024944160133600235,
                    0.03371993079781532,
                    -0.00016869079263415188,
                    -0.46095868945121765,
                    0.03419775888323784,
                    0.39735448360443115,
                    0.01789521425962448
                ],
                [
                    0.02839893288910389,
                    -0.6733128428459167,
                    -0.1316639930009842,
                    0.010415568947792053,
                    -0.5649898052215576,
                    -0.31915852427482605,
                    0.03681136295199394,
                    0.3637787699699402,
                    0.02942606247961521,
                    0.030642878264188766,
                    0.01718079298734665,
                    -0.16435465216636658,
                    -0.08793827891349792,
                    0.020140880718827248,
                    0.007628349587321281,
                    0.007117956876754761,
                    -0.5336165428161621,
                    -0.5299017429351807,
                    0.016637342050671577,
                    0.013499025255441666,
                    -0.27337414026260376,
                    -0.01829809509217739,
                    0.006553079001605511,
                    0.31213945150375366,
                    -0.1623762845993042,
                    -0.10115329921245575,
                    -0.029530690982937813,
                    -0.4228537976741791,
                    -0.238723486661911,
                    -0.5281097888946533,
                    0.2945937514305115,
                    0.027234433218836784,
                    0.5301153063774109,
                    -0.057013630867004395,
                    0.031345490366220474,
                    0.10048609972000122,
                    0.011345649138092995,
                    0.1513879895210266,
                    0.4495645761489868,
                    -0.08433414250612259,
                    0.05602222681045532,
                    0.311175137758255,
                    0.023633543401956558,
                    0.1931082159280777,
                    0.04795481637120247,
                    0.006527983583509922,
                    0.061492759734392166,
                    0.10043977200984955,
                    -0.2865123748779297,
                    -0.023067129775881767,
                    0.0011871621245518327,
                    0.4266670048236847,
                    0.2878280282020569,
                    0.01208698470145464,
                    -0.024837158620357513,
                    0.2784372866153717,
                    0.4737022817134857,
                    0.04315098375082016,
                    -0.014261441305279732,
                    0.36611753702163696,
                    0.018063778057694435,
                    0.8011947870254517,
                    0.0016221164260059595,
                    0.24056795239448547,
                    0.007781922351568937,
                    -0.04099346324801445,
                    -0.010448962450027466,
                    0.009318627417087555,
                    -0.27573391795158386,
                    -0.009691120125353336,
                    -0.29739418625831604,
                    -0.005647709593176842
                ],
                [
                    0.010629372671246529,
                    -0.5150827765464783,
                    -0.08572714775800705,
                    0.011299076490104198,
                    0.09252934902906418,
                    -0.20834432542324066,
                    -0.07649773359298706,
                    -0.5666636824607849,
                    -0.3426533639431,
                    0.0021082868333905935,
                    -0.02977181412279606,
                    0.295348197221756,
                    0.011863441206514835,
                    0.02689330466091633,
                    -0.0089881531894207,
                    0.011893143877387047,
                    0.13627889752388,
                    0.20625291764736176,
                    0.016089070588350296,
                    -0.02083929069340229,
                    0.48991620540618896,
                    -0.022453652694821358,
                    0.004396157804876566,
                    0.32724320888519287,
                    0.359357088804245,
                    0.7942816019058228,
                    0.03186996281147003,
                    0.3981610834598541,
                    0.047943100333213806,
                    0.3417733311653137,
                    0.33888617157936096,
                    -0.031195199117064476,
                    0.5238717198371887,
                    0.013007366098463535,
                    -0.057453833520412445,
                    -0.6919349431991577,
                    0.048748914152383804,
                    0.046925533562898636,
                    -0.6725595593452454,
                    -0.29432952404022217,
                    0.0349244624376297,
                    0.5963282585144043,
                    -0.3552892506122589,
                    0.008550089783966541,
                    0.5446798205375671,
                    -0.011676169000566006,
                    -0.029677247628569603,
                    0.32114648818969727,
                    0.07804244011640549,
                    0.015816643834114075,
                    0.02741336077451706,
                    -0.06239427626132965,
                    0.15936551988124847,
                    -0.03797464445233345,
                    0.0073868753388524055,
                    -0.7169047594070435,
                    0.0776614174246788,
                    0.015419631265103817,
                    0.004788930527865887,
                    0.26981353759765625,
                    0.012223389931023121,
                    -0.055535878986120224,
                    -0.6640037894248962,
                    0.2211247682571411,
                    -0.007400540169328451,
                    0.041764214634895325,
                    0.014188135042786598,
                    -0.005760530475527048,
                    -0.27764350175857544,
                    0.04736357182264328,
                    -0.10709110647439957,
                    -0.0016689604381099343
                ],
                [
                    -0.0058973561972379684,
                    0.09417952597141266,
                    -0.09142529219388962,
                    -0.04057244583964348,
                    0.2461027204990387,
                    -0.19899873435497284,
                    0.017190109938383102,
                    0.028685173019766808,
                    -0.7421296238899231,
                    0.036584094166755676,
                    -0.013702170923352242,
                    -0.22910334169864655,
                    -0.12731494009494781,
                    -0.030381159856915474,
                    -0.040348730981349945,
                    -0.03139553219079971,
                    0.44832029938697815,
                    0.13871735334396362,
                    -0.0317424051463604,
                    -0.03791346028447151,
                    0.13734696805477142,
                    -0.01359642669558525,
                    0.00041273466194979846,
                    0.0045030745677649975,
                    0.2079400271177292,
                    -0.7903825044631958,
                    0.07862694561481476,
                    0.05625603348016739,
                    -0.474845826625824,
                    -0.1770872175693512,
                    0.03461010381579399,
                    0.013579072430729866,
                    -0.6918535232543945,
                    0.02446654438972473,
                    0.008687790483236313,
                    0.5530334115028381,
                    0.022843554615974426,
                    0.045476675033569336,
                    0.25452637672424316,
                    -0.2031751424074173,
                    0.02557472512125969,
                    -0.057323094457387924,
                    -0.2902338206768036,
                    -0.6756124496459961,
                    0.42844656109809875,
                    0.039902377873659134,
                    -0.00020333069551270455,
                    -0.1911942958831787,
                    0.0346948578953743,
                    0.023195631802082062,
                    0.43038076162338257,
                    0.19153107702732086,
                    -0.62423175573349,
                    0.02680927887558937,
                    0.0015997986774891615,
                    0.47343432903289795,
                    0.11937140673398972,
                    -0.002444213954731822,
                    -0.025271063670516014,
                    0.708556592464447,
                    0.036517780274152756,
                    -0.15894141793251038,
                    -0.1436118483543396,
                    0.13106538355350494,
                    -0.07961922138929367,
                    0.019499950110912323,
                    0.011687452904880047,
                    -0.039148133248090744,
                    -0.3241778612136841,
                    0.011546964757144451,
                    0.05771902576088905,
                    0.0020056022331118584
                ],
                [
                    0.0160216037184,
                    0.04969456419348717,
                    0.06051240861415863,
                    0.011814968660473824,
                    -0.5693476796150208,
                    0.5525003671646118,
                    -0.013160726986825466,
                    -0.536792516708374,
                    0.22225718200206757,
                    0.00027296674670651555,
                    -0.011049534194171429,
                    -0.37092307209968567,
                    -0.35230061411857605,
                    0.015508451499044895,
                    -0.00822721142321825,
                    -0.006294669583439827,
                    -0.41367989778518677,
                    0.061077781021595,
                    0.009154565632343292,
                    -0.012582249008119106,
                    0.48937010765075684,
                    -0.001521267113275826,
                    -0.02035273052752018,
                    0.12663370370864868,
                    0.1955464631319046,
                    0.24599531292915344,
                    0.053120825439691544,
                    0.2799566984176636,
                    0.5498181581497192,
                    -0.47099781036376953,
                    -0.5124821066856384,
                    0.00945204310119152,
                    0.5450220108032227,
                    0.01249702088534832,
                    -0.022547727450728416,
                    0.6371268630027771,
                    0.005698036402463913,
                    0.04974091053009033,
                    0.24801447987556458,
                    -0.23809434473514557,
                    -0.020535437390208244,
                    -0.41300490498542786,
                    0.09765811264514923,
                    -0.3217470943927765,
                    -0.12073801457881927,
                    -0.010406704619526863,
                    -0.0036676141899079084,
                    0.07279691845178604,
                    0.08072975277900696,
                    -0.011089334264397621,
                    -0.7540454864501953,
                    -0.4693388342857361,
                    -0.37405768036842346,
                    0.03773956373333931,
                    -0.007918917573988438,
                    0.19830429553985596,
                    0.2634322941303253,
                    1.2506307939474937e-05,
                    0.028136402368545532,
                    -0.44212883710861206,
                    -0.0012013439554721117,
                    -0.07009612768888474,
                    -0.18340055644512177,
                    -0.14202392101287842,
                    0.0047769020311534405,
                    0.009423893876373768,
                    0.0034287578891962767,
                    -0.007075064815580845,
                    -0.16614201664924622,
                    0.033536847680807114,
                    0.1269483119249344,
                    0.005310936830937862
                ],
                [
                    0.023010171949863434,
                    0.06960244476795197,
                    -0.449870765209198,
                    -0.006699130870401859,
                    0.06469365954399109,
                    -0.18605497479438782,
                    -0.05931713059544563,
                    0.05571339279413223,
                    0.1643882840871811,
                    0.033214546740055084,
                    0.035613976418972015,
                    0.07448621094226837,
                    0.1377629190683365,
                    0.02923792414367199,
                    0.003087688470259309,
                    -0.02980925515294075,
                    -0.13104264438152313,
                    -0.5603500008583069,
                    -0.03290402144193649,
                    0.017829829826951027,
                    0.12524265050888062,
                    -0.019495997577905655,
                    -0.012018706649541855,
                    -0.4947994649410248,
                    -0.8659898042678833,
                    -0.3020194172859192,
                    -0.013955983333289623,
                    -0.2589957118034363,
                    -0.17969685792922974,
                    0.29436570405960083,
                    -0.19754043221473694,
                    0.025888759642839432,
                    -0.0003672703169286251,
                    0.08420132845640182,
                    -0.00933106243610382,
                    -0.152460515499115,
                    0.0028716367669403553,
                    -0.20085661113262177,
                    0.049798861145973206,
                    -0.21665138006210327,
                    0.03126908093690872,
                    -0.5710368752479553,
                    -0.2540302872657776,
                    -0.2904514968395233,
                    0.11401381343603134,
                    0.0007541997474618256,
                    0.023031318560242653,
                    0.9289107322692871,
                    -0.07097412645816803,
                    -0.0030674252193421125,
                    -0.031765520572662354,
                    -0.28877222537994385,
                    -0.0780312567949295,
                    -0.0016266140155494213,
                    0.011508592404425144,
                    -0.35914841294288635,
                    -0.26887282729148865,
                    -0.0012425477616488934,
                    -0.06608075648546219,
                    -0.2356196641921997,
                    -0.03693046793341637,
                    0.16787636280059814,
                    -0.6625780463218689,
                    -0.21606342494487762,
                    -0.017120378091931343,
                    0.04785431921482086,
                    0.009757929481565952,
                    -0.014900300651788712,
                    0.2968001067638397,
                    0.016193805262446404,
                    -0.19776639342308044,
                    0.0051381224766373634
                ],
                [
                    -0.034098077565431595,
                    -0.08662340044975281,
                    0.1297636479139328,
                    0.037640269845724106,
                    0.1915140002965927,
                    0.25012704730033875,
                    -0.027710430324077606,
                    0.13742822408676147,
                    0.6242201328277588,
                    -0.03365195915102959,
                    -0.04123368859291077,
                    -0.341045618057251,
                    0.10999282449483871,
                    0.022382328286767006,
                    -0.006033658050000668,
                    -0.01268805656582117,
                    0.11821475625038147,
                    0.4988373816013336,
                    0.01445018034428358,
                    0.044032905250787735,
                    -0.03770457208156586,
                    -0.09665393829345703,
                    -0.0068058655597269535,
                    0.44118034839630127,
                    -0.5312380194664001,
                    -0.20843641459941864,
                    0.004690530709922314,
                    -0.2555927634239197,
                    0.12727558612823486,
                    0.2962975800037384,
                    -0.027925632894039154,
                    -0.021642491221427917,
                    -0.32947078347206116,
                    0.00010038012987934053,
                    -0.028451532125473022,
                    -0.14780205488204956,
                    -0.019874615594744682,
                    0.11030103266239166,
                    0.18985652923583984,
                    -0.24935978651046753,
                    -0.010707061737775803,
                    0.35376009345054626,
                    -0.22850726544857025,
                    -0.28458717465400696,
                    0.42506852746009827,
                    -0.055310800671577454,
                    0.01649491675198078,
                    -0.37088820338249207,
                    0.6952378153800964,
                    0.014409167692065239,
                    0.11445483565330505,
                    -0.4152841567993164,
                    0.35086026787757874,
                    0.02771877869963646,
                    -0.03320320323109627,
                    0.4457095265388489,
                    -0.26128721237182617,
                    0.02268303744494915,
                    0.022796908393502235,
                    -0.2555288076400757,
                    0.027523744851350784,
                    0.050309620797634125,
                    0.17792677879333496,
                    0.5106279850006104,
                    0.04496830701828003,
                    0.020237663760781288,
                    -0.027174832299351692,
                    -0.06277596950531006,
                    0.2494257241487503,
                    -0.04883336275815964,
                    -0.7728081941604614,
                    0.012140081264078617
                ],
                [
                    -0.025011559948325157,
                    0.21630330383777618,
                    -0.3828238248825073,
                    -0.01596600003540516,
                    0.15569591522216797,
                    -0.07368895411491394,
                    -0.014840551652014256,
                    -0.06591373682022095,
                    0.3139509856700897,
                    -0.03623580187559128,
                    -0.03163488581776619,
                    -0.5382978916168213,
                    -0.11001405119895935,
                    -0.021878501400351524,
                    -0.017639540135860443,
                    0.03011590614914894,
                    -0.6689838767051697,
                    0.5273780822753906,
                    0.01656191609799862,
                    0.0007472442812286317,
                    0.014028700068593025,
                    -0.0147872818633914,
                    -0.06118673086166382,
                    -0.5310963988304138,
                    0.20137572288513184,
                    0.43071311712265015,
                    0.024067725986242294,
                    -0.16637952625751495,
                    -0.15542781352996826,
                    -0.01592816784977913,
                    -0.45585259795188904,
                    0.004484112374484539,
                    -0.09898704290390015,
                    -0.025120900943875313,
                    -0.0031522666104137897,
                    -0.17645104229450226,
                    -0.033623673021793365,
                    0.15051671862602234,
                    -0.3074287474155426,
                    -0.020351914688944817,
                    0.01946096308529377,
                    0.15465913712978363,
                    0.3834473788738251,
                    0.15843147039413452,
                    -0.438323974609375,
                    0.06567460298538208,
                    -0.004220999777317047,
                    -0.10169656574726105,
                    -0.6129042506217957,
                    0.013119916431605816,
                    0.4559805393218994,
                    0.41357219219207764,
                    0.1020282655954361,
                    0.03410201892256737,
                    0.042005155235528946,
                    0.046486999839544296,
                    -0.3957994282245636,
                    -0.05371926352381706,
                    -0.023909278213977814,
                    0.06716317683458328,
                    0.0159547608345747,
                    -0.3848116993904114,
                    0.14073534309864044,
                    1.1480072736740112,
                    -0.06602097302675247,
                    0.009293358772993088,
                    -0.010120512917637825,
                    -0.05929148569703102,
                    0.3087787628173828,
                    0.02928580902516842,
                    0.5675581693649292,
                    0.003539853962138295
                ],
                [
                    0.02638760581612587,
                    -0.07472880184650421,
                    0.10766468197107315,
                    -0.005212605465203524,
                    -0.08683589845895767,
                    0.24478377401828766,
                    -0.02455947734415531,
                    0.4739484488964081,
                    0.46816790103912354,
                    -0.04539203271269798,
                    -0.012243442237377167,
                    0.3600413203239441,
                    0.3165304958820343,
                    -0.015505783259868622,
                    0.02111869305372238,
                    -0.026514550670981407,
                    0.21073532104492188,
                    0.28595879673957825,
                    -0.015684861689805984,
                    0.04815816879272461,
                    -0.4864082634449005,
                    0.004809790290892124,
                    -0.0018879642011597753,
                    -0.3947669267654419,
                    -0.1276819258928299,
                    -0.17488746345043182,
                    -0.013772829435765743,
                    0.6821639537811279,
                    -0.2598341405391693,
                    0.40030616521835327,
                    0.24519115686416626,
                    0.04744938015937805,
                    0.2820678651332855,
                    -0.027920730412006378,
                    -0.02057679370045662,
                    0.10870254784822464,
                    0.032322388142347336,
                    -0.02083776518702507,
                    0.2310403287410736,
                    0.25564366579055786,
                    -0.0150334807112813,
                    0.6660127639770508,
                    0.3425953686237335,
                    0.5508595705032349,
                    0.09983614087104797,
                    -0.012879663147032261,
                    -0.039173226803541183,
                    0.232163667678833,
                    0.2968246638774872,
                    0.012739162892103195,
                    0.30630508065223694,
                    -0.4288022220134735,
                    -0.6015757918357849,
                    0.04420630261301994,
                    0.032816920429468155,
                    -0.4145476222038269,
                    0.5865488052368164,
                    0.03730478137731552,
                    -0.01774430088698864,
                    0.2545485198497772,
                    -0.020337238907814026,
                    -0.03533447906374931,
                    0.48679858446121216,
                    -0.20288120210170746,
                    -0.06761167198419571,
                    0.05447445809841156,
                    0.0017270962707698345,
                    0.0034370014909654856,
                    0.1277439445257187,
                    0.011014536023139954,
                    0.4225442707538605,
                    0.007349114865064621
                ],
                [
                    -0.05488833785057068,
                    0.09395447373390198,
                    -0.28394731879234314,
                    -0.0023637483827769756,
                    -0.3872523307800293,
                    -0.598525881767273,
                    0.02828642539680004,
                    -0.44980791211128235,
                    -0.25686731934547424,
                    -0.015860212966799736,
                    0.07070163637399673,
                    0.042266327887773514,
                    -0.3456980586051941,
                    -0.0378560945391655,
                    -0.03132152929902077,
                    0.01508575864136219,
                    0.4101589620113373,
                    0.4988275170326233,
                    -0.003560747718438506,
                    -0.0033267659600824118,
                    -0.27446889877319336,
                    0.052122876048088074,
                    -0.016954509541392326,
                    -0.47751981019973755,
                    -0.16358895599842072,
                    0.40045368671417236,
                    -0.008764736354351044,
                    -0.5590630173683167,
                    0.25552013516426086,
                    -0.24130582809448242,
                    -0.09311884641647339,
                    0.009742564521729946,
                    -0.6539885997772217,
                    -0.0021054798271507025,
                    -0.011789473704993725,
                    -0.41740548610687256,
                    0.018323447555303574,
                    -0.3365614414215088,
                    -0.24751338362693787,
                    -0.38109517097473145,
                    -0.0321098268032074,
                    -0.2088342159986496,
                    -0.2832583487033844,
                    0.524998128414154,
                    -0.3608832359313965,
                    -0.06228117272257805,
                    -0.034579068422317505,
                    -0.14887091517448425,
                    0.4806485176086426,
                    0.020673386752605438,
                    0.25766104459762573,
                    0.12816964089870453,
                    0.15831445157527924,
                    0.0117443623021245,
                    0.05554790422320366,
                    0.31339290738105774,
                    0.41650018095970154,
                    -0.04222698509693146,
                    -0.019245607778429985,
                    -0.3638732433319092,
                    0.00652009854093194,
                    0.20227093994617462,
                    0.2883113920688629,
                    -0.6142158508300781,
                    0.0475844144821167,
                    0.03620614483952522,
                    0.008238636888563633,
                    0.04885376617312431,
                    -0.38343116641044617,
                    -0.04825691506266594,
                    0.39120766520500183,
                    0.0040984186343848705
                ],
                [
                    0.018010305240750313,
                    -0.7026031017303467,
                    -0.09086653590202332,
                    -0.006302131339907646,
                    -0.7165555357933044,
                    -0.17312823235988617,
                    0.03906654193997383,
                    0.362049400806427,
                    -0.05721912160515785,
                    0.05593236908316612,
                    -0.003722185967490077,
                    -0.1526644229888916,
                    0.05136889964342117,
                    0.013820811174809933,
                    0.028553951531648636,
                    -0.004258749540895224,
                    -0.4611550569534302,
                    -0.476934552192688,
                    -0.008638828992843628,
                    0.021354055032134056,
                    -0.21637548506259918,
                    0.005784797947853804,
                    -0.05507120490074158,
                    0.1289004385471344,
                    -0.15965712070465088,
                    -0.17335976660251617,
                    0.027598032727837563,
                    -0.48631590604782104,
                    -0.23994995653629303,
                    -0.4040367007255554,
                    0.24470917880535126,
                    0.04048680141568184,
                    0.551425576210022,
                    -0.008162403479218483,
                    0.047790076583623886,
                    0.21799887716770172,
                    -0.01326131820678711,
                    0.4327666759490967,
                    0.18072457611560822,
                    0.2737729251384735,
                    0.03383197262883186,
                    0.23985381424427032,
                    0.10252577811479568,
                    0.18313542008399963,
                    0.12741804122924805,
                    -0.03400947153568268,
                    -0.012993356212973595,
                    -0.032655879855155945,
                    -0.21385836601257324,
                    -0.028635816648602486,
                    -0.04237598925828934,
                    0.43572255969047546,
                    0.29712599515914917,
                    -0.016917023807764053,
                    -0.03536183759570122,
                    0.1081346720457077,
                    0.4436580538749695,
                    0.005137365311384201,
                    0.008597020991146564,
                    0.36506593227386475,
                    0.028485173359513283,
                    0.7112250924110413,
                    0.22137904167175293,
                    0.31379464268684387,
                    -0.047060221433639526,
                    -0.01270510908216238,
                    0.017442047595977783,
                    0.0490756593644619,
                    -0.3183138966560364,
                    -0.014605020172894001,
                    -0.2817632853984833,
                    0.02157723344862461
                ],
                [
                    -0.01946176216006279,
                    -0.2294737845659256,
                    -0.08862949162721634,
                    -0.016934067010879517,
                    0.20182102918624878,
                    -0.15630799531936646,
                    -0.020268168300390244,
                    -0.3094539940357208,
                    -0.3006611466407776,
                    0.016983957961201668,
                    0.0067837778478860855,
                    0.3497205078601837,
                    0.27376264333724976,
                    -0.018666792660951614,
                    -0.0062139262445271015,
                    0.009282702580094337,
                    0.004372039809823036,
                    0.17442603409290314,
                    -0.011390631087124348,
                    0.055204108357429504,
                    0.43959659337997437,
                    -0.013672363944351673,
                    0.027999959886074066,
                    0.2662372291088104,
                    0.3168765902519226,
                    1.0244815349578857,
                    -0.008400014601647854,
                    0.5275483131408691,
                    -0.08112151175737381,
                    0.2456604689359665,
                    0.6951786279678345,
                    -0.036623090505599976,
                    0.450620174407959,
                    -0.01452354621142149,
                    0.025565264746546745,
                    -0.1954672783613205,
                    -0.037122584879398346,
                    0.20891036093235016,
                    -0.5313047766685486,
                    -0.4179382920265198,
                    0.018248513340950012,
                    0.4617476463317871,
                    -0.5411477088928223,
                    0.034148648381233215,
                    0.48028862476348877,
                    0.0025714258663356304,
                    -0.0157952718436718,
                    0.3073078393936157,
                    0.11645714193582535,
                    -0.0008307398529723287,
                    0.1744064837694168,
                    -0.17191094160079956,
                    0.11602745205163956,
                    0.0483306348323822,
                    -0.020349830389022827,
                    -0.384366899728775,
                    -0.15033234655857086,
                    -0.010174594819545746,
                    0.011684431694447994,
                    0.22077706456184387,
                    -0.02570374123752117,
                    -0.06397813558578491,
                    -0.6539673209190369,
                    0.06410577148199081,
                    -0.0018231455469503999,
                    -0.012346210889518261,
                    -0.02144034206867218,
                    -0.0075638084672391415,
                    -0.33642885088920593,
                    0.03482165187597275,
                    0.060409966856241226,
                    0.0029903023969382048
                ],
                [
                    0.0017634370597079396,
                    -0.1871570199728012,
                    0.2725856602191925,
                    0.014969774521887302,
                    0.41519901156425476,
                    -0.3431510329246521,
                    -0.004362184554338455,
                    0.1742870956659317,
                    -0.7219042778015137,
                    -0.014631261117756367,
                    -0.015721935778856277,
                    -0.28872737288475037,
                    -0.3165927529335022,
                    0.04568184167146683,
                    0.005560482386499643,
                    -0.033890049904584885,
                    0.4631635844707489,
                    0.2789353132247925,
                    0.044924236834049225,
                    0.020392242819070816,
                    0.09201274067163467,
                    0.004040507599711418,
                    -0.01993756927549839,
                    0.14726197719573975,
                    0.3126632571220398,
                    -0.9459220767021179,
                    0.02901419624686241,
                    0.229867622256279,
                    -0.41045042872428894,
                    -0.27532127499580383,
                    0.03385316580533981,
                    0.04096109792590141,
                    -0.5004209876060486,
                    -0.0488741397857666,
                    -0.004088181536644697,
                    0.38517865538597107,
                    -0.03025861829519272,
                    0.0793582871556282,
                    0.11309053748846054,
                    -0.41605669260025024,
                    -0.0048567731864750385,
                    -0.10601744800806046,
                    -0.16623742878437042,
                    -0.6133065819740295,
                    0.45458564162254333,
                    -0.05111335217952728,
                    -0.0038089011795818806,
                    -0.13561204075813293,
                    0.06001321226358414,
                    -0.01513733621686697,
                    0.3728651702404022,
                    0.15949048101902008,
                    -0.6010923981666565,
                    0.012959802523255348,
                    -0.04539842531085014,
                    0.363895058631897,
                    -0.08925943076610565,
                    -0.03134654834866524,
                    0.025425998494029045,
                    0.48499375581741333,
                    0.04830415919423103,
                    -0.0378931500017643,
                    -0.11025317758321762,
                    0.043750111013650894,
                    -0.007832258939743042,
                    -0.03907567262649536,
                    0.0069009121507406235,
                    0.03132638335227966,
                    -0.3000098764896393,
                    0.023740598931908607,
                    -0.08205816149711609,
                    0.0028642001561820507
                ],
                [
                    0.05990196019411087,
                    0.43437471985816956,
                    -0.062093257904052734,
                    -0.031851187348365784,
                    -0.6829913854598999,
                    0.22562819719314575,
                    0.020393947139382362,
                    -0.470583975315094,
                    0.21167267858982086,
                    -0.05833238363265991,
                    0.013106401078402996,
                    -0.3722696304321289,
                    -0.34847697615623474,
                    0.029935702681541443,
                    -0.01329014915972948,
                    -0.001006266800686717,
                    -0.321673721075058,
                    -0.14455044269561768,
                    -0.03408012166619301,
                    -0.044939760118722916,
                    0.5463690757751465,
                    0.0014460020465776324,
                    -0.01234395895153284,
                    0.17511563003063202,
                    0.4259393513202667,
                    0.13139593601226807,
                    -0.0449276864528656,
                    0.3059406578540802,
                    0.4520149827003479,
                    -0.4770587384700775,
                    -0.6437902450561523,
                    0.024700293317437172,
                    0.47453001141548157,
                    0.050459858030080795,
                    -0.006222457159310579,
                    0.3717876672744751,
                    -0.0035153497010469437,
                    0.414071261882782,
                    0.13632319867610931,
                    -0.3280554711818695,
                    -0.0739549845457077,
                    -0.34352847933769226,
                    0.22938640415668488,
                    -0.3886831998825073,
                    -0.05097392573952675,
                    -0.025618864223361015,
                    0.0061875092796981335,
                    0.14744991064071655,
                    0.12488493323326111,
                    -0.016594983637332916,
                    -0.8490608930587769,
                    -0.46865230798721313,
                    -0.3877880573272705,
                    0.017627155408263206,
                    0.023225966840982437,
                    -0.020617684349417686,
                    0.036226093769073486,
                    -0.0016783655155450106,
                    0.02551703341305256,
                    -0.3227735459804535,
                    -0.06879649311304092,
                    0.09197968244552612,
                    -0.09739302098751068,
                    -0.20567168295383453,
                    -0.018155556172132492,
                    0.017889942973852158,
                    -0.036720599979162216,
                    0.010086549445986748,
                    -0.22042350471019745,
                    0.02556636370718479,
                    0.002375022741034627,
                    0.06479549407958984
                ]
            ]
        },
        {
            "_layer_num": 1,
            "activation": "relu",
            "bias": [
                0.7511242628097534,
                0.21954287588596344,
                1.8894551992416382,
                0.5614120364189148,
                0.5352818965911865,
                -0.43130606412887573,
                0.3310273587703705,
                -1.4622597694396973,
                0.9347172379493713,
                0.5695803165435791,
                -0.3043487071990967,
                -1.0026432275772095,
                0.8387497067451477,
                -1.3569345474243164,
                1.2397449016571045,
                -0.5749677419662476,
                0.14831922948360443,
                1.2670022249221802,
                0.6369242072105408,
                -0.6925112009048462,
                0.009804083965718746,
                -0.19668936729431152,
                -1.2064518928527832,
                1.3041795492172241,
                -0.5396901965141296,
                0.04609393700957298,
                2.276873826980591,
                0.27119389176368713,
                -0.9468000531196594,
                -0.5586914420127869,
                0.9270918965339661,
                -0.6055006384849548,
                -0.49366849660873413,
                -0.9366824626922607,
                -0.11750727891921997,
                -1.0409549474716187,
                1.9515033960342407,
                -0.8405016660690308,
                0.003936328459531069,
                -0.014490507543087006,
                1.0616487264633179,
                0.368015855550766,
                1.1099114418029785,
                0.6828995943069458,
                0.6880397200584412,
                -1.759316325187683,
                -0.35073739290237427,
                -0.07522550970315933,
                -1.2400826215744019,
                0.3053435683250427,
                -2.02923846244812,
                -0.08314163982868195,
                0.8905919194221497,
                0.8957539796829224,
                1.0776216983795166,
                0.9701013565063477,
                0.6138764023780823,
                0.6626238822937012,
                -0.9515063166618347,
                -0.9201377034187317,
                1.3869694471359253,
                1.5248264074325562,
                -0.7820318937301636,
                -0.6078515648841858,
                -1.0197303295135498,
                -1.779632806777954,
                0.1976318359375,
                2.4650027751922607,
                1.7505584955215454,
                0.42403173446655273,
                1.71220064163208,
                -0.5507492423057556
            ],
            "size": [
                72,
                72
            ],
            "weights": [
                [
                    0.06367040425539017,
                    -0.04102635756134987,
                    -0.021515175700187683,
                    0.013507497496902943,
                    0.017412517219781876,
                    -0.020857248455286026,
                    0.055255480110645294,
                    0.008274870924651623,
                    0.010849270038306713,
                    -0.021160734817385674,
                    -0.001479088212363422,
                    -0.035303302109241486,
                    -0.009983204305171967,
                    0.025041675195097923,
                    -0.09019997715950012,
                    0.004056958016008139,
                    0.02564331889152527,
                    0.01939324103295803,
                    -0.009025689214468002,
                    0.000347597902873531,
                    -0.05221054330468178,
                    -0.044055528938770294,
                    0.02817276306450367,
                    -0.05486215651035309,
                    0.020606763660907745,
                    -0.04795576632022858,
                    0.05232395976781845,
                    0.048704538494348526,
                    0.010888607241213322,
                    -0.025195183232426643,
                    -0.006058831699192524,
                    0.00818603578954935,
                    -0.016078274697065353,
                    0.034832995384931564,
                    -0.0218955148011446,
                    -0.02072012424468994,
                    0.04916125163435936,
                    0.020589550957083702,
                    -0.03208654001355171,
                    -0.020700186491012573,
                    0.03570112958550453,
                    0.0012255932670086622,
                    -0.020504411309957504,
                    -0.03088393807411194,
                    -0.042085133492946625,
                    -0.02509477734565735,
                    -0.023276403546333313,
                    -0.0029670267831534147,
                    -0.0070513766258955,
                    0.010796011425554752,
                    -0.0050886161625385284,
                    0.04967808723449707,
                    0.023739423602819443,
                    0.03439081087708473,
                    0.025139203295111656,
                    0.0026901792734861374,
                    0.05016569793224335,
                    -0.020325373858213425,
                    -0.022708741948008537,
                    -0.01309005543589592,
                    -0.01593598909676075,
                    0.026464372873306274,
                    -0.015342941507697105,
                    0.006780650466680527,
                    0.03751124441623688,
                    -0.028958044946193695,
                    -0.015636608004570007,
                    -0.008570999838411808,
                    -0.018298177048563957,
                    -0.03570851311087608,
                    -0.032738130539655685,
                    0.02126179449260235
                ],
                [
                    -0.21822531521320343,
                    -0.15164892375469208,
                    0.05518611893057823,
                    -0.017355725169181824,
                    -0.43012604117393494,
                    0.037957511842250824,
                    -0.42125922441482544,
                    -0.001492143957875669,
                    0.30163735151290894,
                    -0.016690919175744057,
                    -0.019289696589112282,
                    0.01970885694026947,
                    0.003550856141373515,
                    0.0508965402841568,
                    -0.5335397720336914,
                    0.027142541483044624,
                    -0.21084138751029968,
                    -0.20956337451934814,
                    -0.30286094546318054,
                    0.04017844423651695,
                    -0.018177155405282974,
                    -0.014121035113930702,
                    0.03513619303703308,
                    -0.5478931665420532,
                    0.003986921161413193,
                    -0.07353054732084274,
                    -0.3227163255214691,
                    -0.0373091995716095,
                    -0.00021609100804198533,
                    0.05344254896044731,
                    0.18474693596363068,
                    -0.02180369198322296,
                    -0.05149322748184204,
                    0.00165874685626477,
                    -0.03763098642230034,
                    0.028515294194221497,
                    -0.060688190162181854,
                    -0.01097150519490242,
                    0.009848571382462978,
                    0.02588920295238495,
                    -0.5611274242401123,
                    0.0029885871335864067,
                    0.3064214885234833,
                    -0.008063698187470436,
                    0.21114163100719452,
                    0.022338351234793663,
                    -0.019707974046468735,
                    0.06243472173810005,
                    0.007953710854053497,
                    -0.10664006322622299,
                    -0.0032647144980728626,
                    -0.03783034160733223,
                    -0.14714281260967255,
                    -0.1886705607175827,
                    0.1281905174255371,
                    -0.04461073875427246,
                    0.0777328610420227,
                    -0.029315901920199394,
                    0.02943452261388302,
                    -0.024676920846104622,
                    -0.15873084962368011,
                    0.06576535105705261,
                    0.025411009788513184,
                    0.002399492310360074,
                    0.022291287779808044,
                    0.0007823664927855134,
                    -0.05064680054783821,
                    0.1546049565076828,
                    -0.1715395599603653,
                    -0.10886772722005844,
                    -0.03434519097208977,
                    -0.01579127460718155
                ],
                [
                    -0.14312255382537842,
                    -0.024505021050572395,
                    -0.18908250331878662,
                    -0.22139126062393188,
                    -0.3138910233974457,
                    0.02305029332637787,
                    -0.32531002163887024,
                    -0.010512818582355976,
                    -0.13518954813480377,
                    -0.07980293780565262,
                    -0.053124379366636276,
                    0.016848983243107796,
                    -0.0738380178809166,
                    -0.03932586684823036,
                    0.13139285147190094,
                    -0.013580339029431343,
                    -0.07138809561729431,
                    -0.1414223611354828,
                    0.16077633202075958,
                    0.019985921680927277,
                    -0.00010749167995527387,
                    -0.04589458554983139,
                    -0.0014390230644494295,
                    -0.2899143099784851,
                    -0.029870422556996346,
                    0.13269680738449097,
                    -0.22750216722488403,
                    -0.15207242965698242,
                    0.04833449050784111,
                    -0.027956370264291763,
                    0.046523138880729675,
                    -0.035096652805805206,
                    -0.08162371069192886,
                    0.033497050404548645,
                    0.008868669159710407,
                    -0.011229253374040127,
                    -0.2575506865978241,
                    0.07146822661161423,
                    -0.028388451784849167,
                    -0.02244439534842968,
                    0.0506131649017334,
                    0.1372462958097458,
                    -0.2374381124973297,
                    0.004566235467791557,
                    0.0005162946763448417,
                    0.016438111662864685,
                    0.03271704167127609,
                    -0.01829267479479313,
                    0.0717013031244278,
                    0.009154719300568104,
                    -0.03487839922308922,
                    -0.03449644520878792,
                    -0.2833460867404938,
                    0.019264185801148415,
                    0.12049372494220734,
                    -0.008996168151497841,
                    -0.22828850150108337,
                    -0.09264526516199112,
                    -0.02867092750966549,
                    0.010863367468118668,
                    0.15725579857826233,
                    0.09180623292922974,
                    0.03137475997209549,
                    0.02237904816865921,
                    -0.042319610714912415,
                    -0.07190544158220291,
                    0.10908859223127365,
                    -0.3288070261478424,
                    -0.2253119796514511,
                    0.065248042345047,
                    -0.23342645168304443,
                    0.005434403661638498
                ],
                [
                    0.00045323249651119113,
                    0.04098907858133316,
                    -0.015007737092673779,
                    0.0039900788106024265,
                    0.029788831248879433,
                    0.0035771457478404045,
                    -0.02930896170437336,
                    -0.002504360629245639,
                    -0.005627426318824291,
                    0.019016943871974945,
                    0.049877017736434937,
                    -0.0017217162530869246,
                    -0.009377005510032177,
                    -0.01366515550762415,
                    0.02991943620145321,
                    -0.005041058175265789,
                    0.008707775734364986,
                    0.005122882779687643,
                    -0.03598400950431824,
                    0.029234088957309723,
                    -0.0026690452359616756,
                    0.021561479195952415,
                    -0.002801392925903201,
                    0.036410313099622726,
                    0.03292945399880409,
                    -0.07100170105695724,
                    -0.00557129317894578,
                    -0.011154502630233765,
                    -0.017543895170092583,
                    0.014767290093004704,
                    -0.0069818319752812386,
                    -0.028988700360059738,
                    -0.007244530133903027,
                    -0.007476443890482187,
                    0.009256111457943916,
                    0.03249344974756241,
                    0.004437861032783985,
                    0.014295995235443115,
                    -0.022241394966840744,
                    0.007393031381070614,
                    0.01936989277601242,
                    0.02895546704530716,
                    0.04227185994386673,
                    0.023607149720191956,
                    -0.01495647244155407,
                    0.023005584254860878,
                    -0.0075312466360628605,
                    0.003647160017862916,
                    0.02442898042500019,
                    -0.004551633261144161,
                    -0.005248191766440868,
                    -0.016948683187365532,
                    0.0018316872883588076,
                    0.009243607521057129,
                    -0.0004519619687926024,
                    -0.007477754261344671,
                    0.043988827615976334,
                    -0.027304314076900482,
                    -0.01525887195020914,
                    0.0669388473033905,
                    -0.03111298382282257,
                    0.007137560285627842,
                    0.04052319377660751,
                    0.004717541392892599,
                    0.004698784556239843,
                    0.036816999316215515,
                    -0.03374283388257027,
                    0.04935430735349655,
                    0.015655910596251488,
                    -0.04988633468747139,
                    0.015907416120171547,
                    0.033592578023672104
                ],
                [
                    0.18317657709121704,
                    -0.09757784008979797,
                    0.0917724147439003,
                    -0.37101754546165466,
                    -0.05153246968984604,
                    0.042257245630025864,
                    -0.07104109227657318,
                    -0.015271450392901897,
                    -0.20334815979003906,
                    -0.12617312371730804,
                    -0.002028981689363718,
                    -0.0023673700634390116,
                    0.12878713011741638,
                    -0.007305679842829704,
                    -0.1698843240737915,
                    0.043368253856897354,
                    -0.3548552095890045,
                    -0.059312354773283005,
                    -0.24832196533679962,
                    -0.008307356387376785,
                    0.028568943962454796,
                    -0.012080920860171318,
                    -0.021904537454247475,
                    -0.2164490967988968,
                    0.00018127483781427145,
                    -0.5369725823402405,
                    0.34950074553489685,
                    -0.11961259692907333,
                    0.031673919409513474,
                    0.02485804446041584,
                    -0.3534967303276062,
                    -0.013985457830131054,
                    -0.024819158017635345,
                    -4.8332665755879134e-05,
                    -0.020873766392469406,
                    0.045108482241630554,
                    -0.37477490305900574,
                    -0.03807879239320755,
                    0.001016260008327663,
                    -0.0009524344932287931,
                    -0.17763912677764893,
                    0.08306191116571426,
                    -0.044126641005277634,
                    0.4565795660018921,
                    -0.1019914522767067,
                    -0.04966673254966736,
                    0.00738484924659133,
                    0.0023935623466968536,
                    -0.032666850835084915,
                    -0.1731599122285843,
                    0.01783239096403122,
                    -0.0016058110632002354,
                    -0.21315963566303253,
                    -0.28006571531295776,
                    0.435482382774353,
                    -0.5214449763298035,
                    0.1111404076218605,
                    0.11976813524961472,
                    -0.055907826870679855,
                    0.03099164366722107,
                    -0.07006829977035522,
                    -0.05344238132238388,
                    0.005856940522789955,
                    -0.00783462729305029,
                    -0.020475029945373535,
                    0.03277023509144783,
                    -0.05342559888958931,
                    -0.3608514964580536,
                    0.19873002171516418,
                    -0.3887888193130493,
                    -0.04373367503285408,
                    -0.02409958653151989
                ],
                [
                    -0.0268661230802536,
                    -0.049635402858257294,
                    -0.3129001259803772,
                    -0.2436884343624115,
                    -0.1004815623164177,
                    0.020188603550195694,
                    -0.257557213306427,
                    0.027716606855392456,
                    -0.23401643335819244,
                    -0.07736039906740189,
                    -0.01995011791586876,
                    0.002460107672959566,
                    0.2031010240316391,
                    -0.05103491619229317,
                    -0.06903398782014847,
                    0.038322001695632935,
                    -0.15395979583263397,
                    -0.36861154437065125,
                    -0.0377911739051342,
                    0.0032738300506025553,
                    0.0597941130399704,
                    0.015085377730429173,
                    0.0232081338763237,
                    -0.5015113949775696,
                    0.024249156937003136,
                    0.2026643604040146,
                    -0.22804637253284454,
                    0.1452794224023819,
                    0.0069624497555196285,
                    0.05067360773682594,
                    0.29792970418930054,
                    0.014790871180593967,
                    0.061386529356241226,
                    -0.0063533056527376175,
                    -0.001917875139042735,
                    0.013256017118692398,
                    -0.4086419343948364,
                    0.015580291859805584,
                    -0.10477837175130844,
                    -0.058317650109529495,
                    -0.17269733548164368,
                    0.15317057073116302,
                    -0.19991277158260345,
                    0.06718072295188904,
                    0.44679585099220276,
                    0.01389959454536438,
                    -0.026840094476938248,
                    -0.06341126561164856,
                    0.019294628873467445,
                    -0.1567743420600891,
                    -0.010687599889934063,
                    0.06083402410149574,
                    -0.2969922125339508,
                    0.02737080678343773,
                    0.050283193588256836,
                    -0.2703510820865631,
                    -0.3251053988933563,
                    -0.11488907039165497,
                    0.0027960692532360554,
                    -0.03354007378220558,
                    -0.2736237645149231,
                    0.11394484341144562,
                    -0.0066502089612185955,
                    -0.009125713258981705,
                    0.03501439467072487,
                    -0.019268231466412544,
                    0.1400509625673294,
                    -0.5545717477798462,
                    -0.16281341016292572,
                    0.10964682698249817,
                    -0.5216249823570251,
                    -0.030648861080408096
                ],
                [
                    0.08031836897134781,
                    -0.018566399812698364,
                    0.043385885655879974,
                    0.023004814982414246,
                    0.03736329823732376,
                    0.0678618997335434,
                    -0.020561566576361656,
                    0.006690075621008873,
                    -0.020890377461910248,
                    0.011862006969749928,
                    0.00683713611215353,
                    0.0002152399392798543,
                    0.04278811812400818,
                    -0.04060767963528633,
                    -0.0026937576476484537,
                    -0.042574942111968994,
                    -0.00014804958482272923,
                    -0.01281700562685728,
                    0.03910702466964722,
                    0.004152605775743723,
                    0.038935717195272446,
                    0.024326005950570107,
                    0.013061189092695713,
                    -0.0035168705508112907,
                    -0.022698409855365753,
                    0.06236258149147034,
                    0.0055876304395496845,
                    -0.014851696789264679,
                    -0.002794738858938217,
                    -0.05320855602622032,
                    -0.02383497729897499,
                    -0.02756362408399582,
                    0.0066422829404473305,
                    0.0040715099312365055,
                    -0.0341792032122612,
                    -0.028936153277754784,
                    -0.01683237962424755,
                    0.015463405288755894,
                    -0.01601790450513363,
                    -0.024024924263358116,
                    -0.004617685452103615,
                    0.003155951388180256,
                    -4.528490171651356e-05,
                    -0.007577338721603155,
                    -0.02579433284699917,
                    -0.004765391815453768,
                    0.028249617666006088,
                    0.0016810590168461204,
                    -0.019962158054113388,
                    0.02900591865181923,
                    -0.01879720948636532,
                    -0.023859933018684387,
                    0.0035731159150600433,
                    -0.01859222538769245,
                    0.05827906355261803,
                    -0.001101770089007914,
                    0.037164270877838135,
                    -0.011665217578411102,
                    -0.014003324322402477,
                    0.021771373227238655,
                    -0.05987625941634178,
                    -0.015400432050228119,
                    0.03671952709555626,
                    0.0036646327935159206,
                    -0.00791898276656866,
                    -0.03017585165798664,
                    -0.040827151387929916,
                    0.03581616282463074,
                    0.012006835080683231,
                    0.06364970654249191,
                    -0.059439510107040405,
                    0.0039030946791172028
                ],
                [
                    -0.41633298993110657,
                    -0.030754491686820984,
                    -0.03178650140762329,
                    0.10100258886814117,
                    -0.2235572636127472,
                    0.021962493658065796,
                    0.26924046874046326,
                    0.03171428665518761,
                    -0.19976229965686798,
                    0.22051164507865906,
                    -0.005650477018207312,
                    0.0008872162434272468,
                    -0.1079440712928772,
                    -0.08362779021263123,
                    0.1725887656211853,
                    -0.011596985161304474,
                    0.24506832659244537,
                    0.30524811148643494,
                    -0.10596594959497452,
                    -0.030518613755702972,
                    0.0007420147303491831,
                    -0.03642622008919716,
                    0.0151832839474082,
                    -0.25784796476364136,
                    -0.004592131823301315,
                    0.007802068255841732,
                    0.11604403704404831,
                    -0.04546325281262398,
                    0.026595216244459152,
                    0.007896415889263153,
                    -0.2452763319015503,
                    0.006930850446224213,
                    0.028355637565255165,
                    0.03031376749277115,
                    -0.016327572986483574,
                    -0.0011213861871510744,
                    -0.0760258212685585,
                    0.0024768284056335688,
                    0.0419309027493,
                    0.018620945513248444,
                    0.3471638262271881,
                    -0.33649155497550964,
                    -0.21189676225185394,
                    0.0035932755563408136,
                    -0.10627861320972443,
                    -0.028741206973791122,
                    0.03169173002243042,
                    0.024259375408291817,
                    -0.014191882684826851,
                    -0.23637862503528595,
                    -0.016845161095261574,
                    0.08005377650260925,
                    -0.022783204913139343,
                    0.29302945733070374,
                    -0.01810424029827118,
                    -0.013657134026288986,
                    0.05781051516532898,
                    -0.22736267745494843,
                    0.01768672652542591,
                    -0.013550459407269955,
                    -0.37284430861473083,
                    -0.23713721334934235,
                    0.06296426802873611,
                    0.004282965790480375,
                    -0.018208099529147148,
                    0.018783437088131905,
                    -0.013505556620657444,
                    -0.15545012056827545,
                    0.06000260263681412,
                    -0.12241974472999573,
                    -0.25061050057411194,
                    -0.01037006825208664
                ],
                [
                    -0.3434775471687317,
                    0.06630206853151321,
                    -0.033420778810977936,
                    -0.2371220737695694,
                    -0.001501666847616434,
                    -0.004152304958552122,
                    0.05271594971418381,
                    -0.0482797771692276,
                    -0.1645071655511856,
                    0.3324698209762573,
                    -0.00767558952793479,
                    0.004743246361613274,
                    0.21249163150787354,
                    0.04818778112530708,
                    -0.19355063140392303,
                    0.04527629166841507,
                    0.15424129366874695,
                    -0.15628662705421448,
                    -0.24650759994983673,
                    0.01826186664402485,
                    0.09054484963417053,
                    0.0020849318243563175,
                    0.027315160259604454,
                    -0.22280877828598022,
                    0.039282530546188354,
                    0.3383014500141144,
                    -0.1156158298254013,
                    -0.07046453654766083,
                    -0.007692782673984766,
                    -0.03242207318544388,
                    -0.002625545719638467,
                    0.001462249201722443,
                    -0.04577450826764107,
                    -0.0024000643752515316,
                    0.010010896250605583,
                    -0.035887353122234344,
                    -0.3215147852897644,
                    -0.05766555294394493,
                    0.05219493433833122,
                    -0.047921210527420044,
                    0.06498231738805771,
                    0.032663699239492416,
                    0.18040741980075836,
                    0.4541565477848053,
                    0.20474226772785187,
                    0.026690473780035973,
                    -0.048953231424093246,
                    -0.0899924784898758,
                    -0.02193773165345192,
                    -0.15991653501987457,
                    0.004691208712756634,
                    0.015526879578828812,
                    0.40510350465774536,
                    0.5454903841018677,
                    -0.3132922053337097,
                    0.25145405530929565,
                    -0.3533722460269928,
                    -0.3044240474700928,
                    0.017707055434584618,
                    -0.02683139219880104,
                    -0.1547783613204956,
                    0.006435569375753403,
                    -0.019023844972252846,
                    0.00210843444801867,
                    -0.0045500826090574265,
                    -0.008050835691392422,
                    0.17095927894115448,
                    0.11731500923633575,
                    -0.1581602543592453,
                    0.30844971537590027,
                    0.03448210284113884,
                    -0.03210928663611412
                ],
                [
                    -0.011875933967530727,
                    0.048641495406627655,
                    -0.0005922376876696944,
                    0.004143787547945976,
                    0.003953536506742239,
                    0.0270878653973341,
                    0.010322089307010174,
                    -0.023875048384070396,
                    -0.005924406461417675,
                    -0.009184559807181358,
                    -0.012916483916342258,
                    0.005787151399999857,
                    0.0031095920130610466,
                    0.007017822936177254,
                    -0.03449152037501335,
                    -0.02286185882985592,
                    0.017011797055602074,
                    0.029910070821642876,
                    0.018392829224467278,
                    -0.01355151180177927,
                    -0.059941280633211136,
                    -0.039162155240774155,
                    0.04437844455242157,
                    0.025068819522857666,
                    -0.00043125689262524247,
                    0.03140377625823021,
                    0.03390926495194435,
                    0.015754638239741325,
                    0.00034342738217674196,
                    -0.011364570818841457,
                    0.0004309836949687451,
                    0.019042206928133965,
                    -0.01673062890768051,
                    -0.012534779496490955,
                    -0.04138008505105972,
                    0.019610177725553513,
                    0.019453318789601326,
                    0.028768138960003853,
                    -0.03132975846529007,
                    -0.014724337495863438,
                    0.04097217321395874,
                    -0.025092877447605133,
                    0.010005500167608261,
                    -0.013680546544492245,
                    0.05833970382809639,
                    -0.007867679931223392,
                    -0.03165446221828461,
                    0.04941237345337868,
                    0.01946432515978813,
                    -0.0005183779867365956,
                    -0.011031199246644974,
                    -0.08670878410339355,
                    -0.0173492431640625,
                    0.005455676931887865,
                    0.0007753341924399137,
                    0.02907823771238327,
                    -0.024847764521837234,
                    -0.049066174775362015,
                    -0.03384476527571678,
                    0.021604815497994423,
                    0.01732408069074154,
                    0.03440574184060097,
                    -0.0054782843217253685,
                    0.010562639683485031,
                    -0.0334165059030056,
                    0.03111424297094345,
                    0.027640119194984436,
                    0.03071831911802292,
                    0.008442386984825134,
                    0.01000272948294878,
                    -0.013803165405988693,
                    0.05177518352866173
                ],
                [
                    0.030673759058117867,
                    -0.014694331213831902,
                    -0.001171823707409203,
                    -0.000767407997045666,
                    -0.0837225466966629,
                    0.026518207043409348,
                    -0.01888713426887989,
                    0.04982930049300194,
                    -0.03454231843352318,
                    0.0028061973862349987,
                    -0.0056251222267746925,
                    0.019259849563241005,
                    0.052416373044252396,
                    0.05022534355521202,
                    0.004431498236954212,
                    0.04500723257660866,
                    -0.03159085288643837,
                    -0.021213507279753685,
                    -0.02077779732644558,
                    0.009926567785441875,
                    -0.046632058918476105,
                    0.023065093904733658,
                    0.005212709307670593,
                    0.05358793959021568,
                    0.009564908221364021,
                    -0.03421149030327797,
                    0.022557970136404037,
                    -0.031153695657849312,
                    0.03199126198887825,
                    -0.044688329100608826,
                    0.0010535633191466331,
                    -0.016356641426682472,
                    0.013221004977822304,
                    0.007041851989924908,
                    0.010342174209654331,
                    -0.029619596898555756,
                    0.06375518441200256,
                    -0.01874638721346855,
                    0.04227180406451225,
                    -0.0038217620458453894,
                    -0.019626876339316368,
                    -0.009961937554180622,
                    0.02771957963705063,
                    0.006077026017010212,
                    -0.029415125027298927,
                    -0.022048644721508026,
                    0.037873171269893646,
                    0.03107890486717224,
                    0.022753456607460976,
                    0.003424743190407753,
                    0.020372772589325905,
                    0.004666393157094717,
                    -0.06575804948806763,
                    -0.03147277235984802,
                    0.021334972232580185,
                    0.036644209176301956,
                    0.005397702567279339,
                    0.00921930093318224,
                    0.024506941437721252,
                    -0.014766654931008816,
                    0.0018580366158857942,
                    -0.011114083230495453,
                    -0.02819536253809929,
                    -0.0321950726211071,
                    -0.052840448915958405,
                    -0.025230752304196358,
                    0.006409964058548212,
                    -0.021806132048368454,
                    0.052902061492204666,
                    -0.006009088363498449,
                    -0.0189192071557045,
                    0.012741933576762676
                ],
                [
                    -0.10583040863275528,
                    -0.03799458220601082,
                    -0.346632719039917,
                    -0.15859608352184296,
                    -0.10203496366739273,
                    -0.008225876837968826,
                    -0.015978185459971428,
                    0.01299307495355606,
                    0.1897418051958084,
                    -0.6028202772140503,
                    0.04067038372159004,
                    -0.002565459581092,
                    -0.12839210033416748,
                    -0.05914437025785446,
                    -0.18245363235473633,
                    -0.02444576658308506,
                    -0.17487184703350067,
                    0.21689940989017487,
                    0.28868958353996277,
                    -0.06898033618927002,
                    -0.21542473137378693,
                    -0.0272813867777586,
                    -0.026770446449518204,
                    -0.15962061285972595,
                    0.04551969841122627,
                    -0.10686776787042618,
                    -0.01868746057152748,
                    0.14034947752952576,
                    -0.03225734829902649,
                    -0.006308124400675297,
                    -0.02467193454504013,
                    0.010457497090101242,
                    0.009135745465755463,
                    -0.01638455130159855,
                    -0.0016814182745292783,
                    0.06339745223522186,
                    -0.128212109208107,
                    -0.02413792349398136,
                    -0.012296224944293499,
                    0.019260738044977188,
                    -0.03237125277519226,
                    -0.1813463419675827,
                    -0.4037315547466278,
                    -0.188726007938385,
                    0.08024042844772339,
                    -0.034614093601703644,
                    0.014269798062741756,
                    -0.013721860013902187,
                    0.05298903211951256,
                    -0.0862562283873558,
                    0.0202709399163723,
                    0.07700057327747345,
                    -0.2835550308227539,
                    0.2663504183292389,
                    0.07378586381673813,
                    -0.28790152072906494,
                    -0.07899032533168793,
                    -0.22530105710029602,
                    0.029802074655890465,
                    0.034032732248306274,
                    -0.20940281450748444,
                    -0.01792045123875141,
                    -0.02771703526377678,
                    -0.018975436687469482,
                    -0.0067449528723955154,
                    0.022300828248262405,
                    -0.1917433738708496,
                    -0.10760705918073654,
                    -0.16653084754943848,
                    0.010007656179368496,
                    0.3911036252975464,
                    -0.0036591626703739166
                ],
                [
                    -0.19127289950847626,
                    -0.05835975706577301,
                    -0.1262420117855072,
                    -0.14037072658538818,
                    0.04874960333108902,
                    -0.0004848462122026831,
                    0.2850057780742645,
                    -0.034953951835632324,
                    -0.1449824869632721,
                    -0.2503746747970581,
                    -0.06259473413228989,
                    -0.08662789314985275,
                    0.047633733600378036,
                    0.014904865995049477,
                    -0.14501270651817322,
                    -0.00662981579080224,
                    -0.12033742666244507,
                    0.1422896832227707,
                    0.1438412219285965,
                    0.008077635429799557,
                    0.027788978070020676,
                    0.05818389728665352,
                    -0.032256729900836945,
                    -0.022785477340221405,
                    -0.04417452961206436,
                    -0.1313943862915039,
                    0.0305374413728714,
                    0.1282903254032135,
                    0.03323877975344658,
                    -0.027172496542334557,
                    -0.07536221295595169,
                    0.006312944460660219,
                    -0.022207675501704216,
                    0.02230103127658367,
                    -0.02897028997540474,
                    0.013305111788213253,
                    -0.3386926054954529,
                    0.011780004017055035,
                    -0.05681541562080383,
                    -0.010791719891130924,
                    0.07984168827533722,
                    0.11601824313402176,
                    -0.1463799774646759,
                    0.0679643526673317,
                    0.10807938873767853,
                    0.018204711377620697,
                    0.006032370962202549,
                    0.040351882576942444,
                    -0.012100545689463615,
                    -0.11768922954797745,
                    -0.0010145578999072313,
                    0.0041504777036607265,
                    -0.09144565463066101,
                    -0.01530544925481081,
                    0.06991938501596451,
                    -0.016254452988505363,
                    0.08474878966808319,
                    -0.06098855659365654,
                    0.031032051891088486,
                    6.294246850302443e-05,
                    -0.26701781153678894,
                    -0.21749217808246613,
                    -0.045338548719882965,
                    -0.01631988398730755,
                    0.01330068614333868,
                    -0.019866395741701126,
                    -0.10596993565559387,
                    -0.19496825337409973,
                    0.01689097099006176,
                    0.041800789535045624,
                    0.1457122266292572,
